1753 100
<unk> -0.13825211 0.31160632 -0.21445663 0.18819398 -0.13068001 -0.090720885 -0.059126373 0.1724295 -0.28218946 0.13356239 0.1336698 -0.2568556 -0.37203607 0.1479187 -0.16641669 -0.08103715 -0.122093685 -0.25299904 -0.3772149 -0.28946987 0.09163929 0.08414593 0.42861176 0.101772286 0.10223011 -0.07293593 -0.088007085 0.21487337 -0.5277733 -0.20879887 0.028963353 0.28921318 0.23100837 -0.47177535 0.036126833 0.3505162 0.08460765 -0.26647928 -0.014726215 0.23107627 -0.3479734 -0.27098858 0.2533184 0.005370506 0.21377061 -0.0045309435 0.28852785 0.18937294 0.108787484 -0.014077341 -0.29085347 0.10948434 0.040683 -0.22608866 0.01255477 0.13627173 0.01835224 0.13157555 -0.1415102 0.22825158 0.16244027 -0.01754238 -0.1799492 -0.289806 -0.009663591 0.14130196 -0.26168105 0.17551579 -0.035773795 0.09371455 0.11751626 0.16511306 0.040717762 -0.20167585 -0.07193404 0.034216702 0.06954425 0.09128675 -0.15972148 -0.22977588 0.1673283 0.19050737 0.12737586 0.021511 -0.3955626 -0.20427698 0.09513411 0.062749706 -0.13363421 -0.017345253 -0.10009841 0.0385479 0.23871861 0.03455949 0.2792341 0.23672093 0.046806905 -0.35240436 0.20019288 0.29632238
播放 -0.71224433 0.1900767 0.5325793 0.3101521 -0.13825847 -0.4736199 -0.21881634 0.93022037 -0.42630714 -0.4941255 -0.5443027 0.0035533197 -0.39356908 -0.084933445 0.20410156 0.112077825 0.21388853 0.0022823052 -0.24532476 -0.5216058 -0.018876528 0.15299451 0.40861896 -0.35494995 0.30087918 0.1377531 0.0036475176 0.39954892 -0.33488774 0.63640857 0.14228705 -0.04876461 0.4526764 0.108327426 0.07205797 0.28259125 0.24633881 -0.08313645 0.032961633 0.80253774 -0.18276009 -0.42752874 -0.6314319 0.15349214 0.1280054 0.24361157 0.5869224 0.31879824 0.10002531 0.12021464 -0.2955102 -0.3505535 -0.7069735 0.07890377 -0.02668527 -0.3028524 0.23778051 0.7489792 0.011727563 0.1383322 -0.32777828 0.10317693 0.17187193 -0.333944 -0.2480831 0.29474834 0.5001471 -0.16437078 -0.103441395 -0.084184825 0.24249329 -0.01876549 0.25530142 0.67715156 0.79327166 0.17349462 -0.5831193 0.03393014 -0.20169507 0.06863733 0.032943036 0.08497162 0.14550698 0.041881777 -0.1479724 -0.41386342 -0.13686237 -0.3097451 0.25516197 -0.07441211 0.026301859 -0.21289702 0.4208834 -0.021146726 0.24842507 0.25931424 0.24765073 0.028981375 0.11709952 0.18163666
帮 0.33817583 0.25926384 -0.34745765 0.34492043 -0.24669315 0.49185377 0.004838898 0.49124223 -0.4017229 0.31800994 -0.08020938 -0.23437427 -0.22727953 -0.008185645 0.27086413 -0.04474459 0.3994945 -0.22923264 -0.6405216 -0.50218517 -0.1123729 -0.11111722 0.030336497 -0.2465912 0.3338424 -0.06809022 0.61844707 0.4305085 0.2806875 0.060863 0.097143665 -0.0024301838 -0.26756555 -0.14810379 -0.06109258 0.24477732 0.44066167 -0.1668549 0.22336416 -0.09529016 -0.33183977 0.3728322 -0.43624955 0.29417643 0.19783257 0.018374922 -0.20790398 -0.19001736 0.09738273 -0.14489178 0.45332873 0.33719075 -0.22625682 -0.44428557 -0.5544291 -0.100669436 0.45904577 -0.5438882 -0.20416503 0.12090164 1.1044033 -0.12556058 -0.35145175 0.548142 0.033349056 -0.18422471 0.072152734 0.06990624 -0.4271195 0.7256873 0.43705046 0.16754 0.3053932 0.03226897 0.21056749 0.35778496 0.3810633 0.37995288 -0.52951735 0.1042541 -0.20088387 -0.34855655 -0.32705486 -0.10299263 -0.47593272 -0.14820966 0.11195221 -0.12057949 0.28484026 0.25520828 0.32320565 -0.34790808 0.13399582 0.042313453 0.13121898 0.07595502 -0.179255 -0.17116243 0.8861563 -0.14136831
想 -0.19889967 0.51180035 -0.06260065 -0.079637915 0.49964467 -0.082422584 -0.11915116 0.037632342 0.335426 -0.2252486 -0.4260722 -0.5088473 -0.34171164 0.2839866 0.72476584 -0.008893853 0.27723467 -0.7224102 -0.1415362 -0.044383142 0.30519387 -0.13814539 0.43665957 0.15957113 0.10519807 -0.21964765 0.45428708 0.66666216 -0.37407786 0.18180916 0.5992029 0.022309786 -0.11666296 -0.0500921 -0.030299783 0.55551004 0.7920027 0.13915958 -0.67108303 -0.07395564 0.17080472 0.09938893 -0.029199868 0.25270566 0.35607517 -0.50719595 0.5305016 0.42890188 0.03150129 -0.11124286 0.06489012 -0.32939428 -0.6443635 -0.5154306 -0.37238115 0.06483904 0.09773244 0.7479166 0.5540858 -0.038741384 -0.2199552 -0.14068258 0.046791207 0.48515603 -0.3353368 -0.11071859 0.38338348 0.6093217 -0.27773076 -0.0910747 -0.081420794 -0.17352274 -0.13648698 -0.56170464 -0.012769501 -0.19841892 -0.6295242 0.27517304 -0.36112288 0.09553255 -0.17463313 -0.108179644 0.052433807 0.09561073 0.034127124 -0.30589187 0.04063593 0.1826399 0.03758008 -0.4015918 -0.22522399 -0.27196753 -0.16944201 0.37484097 0.12874101 0.005864858 0.18687251 -0.3441341 0.011400794 0.091352716
点 -0.101071395 -0.0020223132 -0.59445786 -0.008625275 0.30225018 0.33311847 0.12743513 0.266852 -0.3219252 0.41665956 -1.0856855 0.09496775 -0.050342914 0.42008987 0.3068292 -0.06784034 -0.14068678 -0.25089127 0.7984696 -0.9021558 -0.061689142 0.21620052 0.6054989 -0.16262086 -0.42445 0.35669014 -0.08856451 -0.25810385 -0.7090552 -0.19234106 0.43462995 -0.10637343 0.459284 -0.6942544 -0.28711984 -0.18709552 0.050208345 -0.33467972 -0.15152988 -0.098203 -0.20638458 -0.6765836 -0.5199839 0.23234716 0.5762778 -0.24282056 0.34281912 -0.15319018 0.33971158 -0.40108475 -0.27398723 0.45342803 0.5895953 -0.41915685 0.07375706 -0.5385512 -0.79382634 -0.026481684 0.11201027 -0.36326388 0.5278924 0.11286162 0.20476371 0.031284574 -0.6617643 -0.2529999 0.34199804 0.021586282 -0.106527485 0.4523936 -0.50404197 0.10357537 0.2883543 0.12223343 0.6158566 0.3626911 0.015354887 0.38428935 0.23960333 -0.74236673 -0.15543139 -0.7066369 -0.21525815 0.10935429 -0.41746348 -0.60592645 0.37296817 0.36015165 -0.21624783 -0.4515671 0.81372714 -0.12770368 -0.2678045 -0.063930996 0.408063 0.13563159 -0.28033 0.3901262 0.6054531 0.098049246
听 -0.2685123 -0.3013394 0.2273328 -0.48201418 -0.6379755 -0.7315622 0.1937194 0.6782651 -0.41683713 -0.11254448 -0.84904975 -0.44034323 0.1509689 -0.12791455 -0.04894804 -0.816681 -0.065972246 -0.754262 -0.06855616 -0.52790654 0.2001501 -0.15447778 0.57068956 0.23805784 -0.28274035 -0.57505643 -0.13646026 0.5477484 -0.14661698 0.20553596 0.37669444 -0.061474416 -0.057917684 -0.26453438 0.059788894 0.59947205 0.076918654 0.08574168 0.26526263 -0.01819569 0.45913267 0.3317469 -0.45817393 -0.12564869 0.26153013 0.039283544 0.34597933 0.0050180275 -0.26923284 0.6269651 -0.8970076 -0.2681233 0.18806274 -0.06931826 -0.16853692 -0.41368207 0.5538449 0.43681252 -0.3870133 0.10475307 -0.03486264 -0.19806191 0.7019873 -0.31220657 -0.12012763 0.0921405 -0.094489425 0.40965575 -0.9043426 -0.24607337 0.4001705 -0.5394612 0.91537154 0.13398114 0.35522452 -0.010077787 -0.123415604 -0.33684936 -0.22873811 0.27562818 0.1294585 -0.20496714 0.15304944 -0.25271297 -0.087923065 -0.7715739 -0.3046156 0.13957006 0.2636606 -0.36242267 0.7320979 -0.0051705325 -0.65921926 -0.15969741 0.42646605 0.004584962 -0.16684651 -0.17321679 0.4051236 -0.56347454
明天 -0.031499796 -0.057769913 -0.3118199 0.4902817 -0.3695332 -0.103355885 0.19567774 -0.013924207 -0.49751392 0.33253554 0.072787784 -0.0076453146 -0.055760205 0.6227447 -0.7163296 0.30019912 0.23744982 0.5299195 0.15134878 -0.95323396 -0.3772576 1.008341 0.3502292 -0.2924394 -0.5708771 1.0120826 -0.051426247 -0.27843663 -1.0224425 0.044702403 0.13045102 0.32992405 -0.008110593 0.14923422 -0.317348 0.8221603 0.06195882 -0.4621047 -0.4645012 -0.32520562 0.67669225 -0.3315582 0.11267929 -0.15061702 -0.026607946 0.12044908 -0.014208592 -0.2503853 -0.35007012 -0.60316235 0.7027274 -0.87926584 0.06523806 -0.20587994 -0.8964292 -0.48482636 0.10623098 -0.57809037 -0.07931809 -0.4329805 -0.4433727 -0.08546332 0.3075294 0.28513265 0.0062612444 0.16685422 -0.6239427 -0.05644484 -0.51620823 0.47254968 0.054938443 0.33332804 0.2893469 -0.4710267 0.4728389 -0.13391179 0.5808264 0.0787297 -0.41337177 0.26285037 -0.40235874 -0.5602126 -0.38449576 0.004516037 -0.19582488 -0.46829075 0.20069264 0.22048657 0.4674887 0.31456178 0.21484062 0.1903537 -0.49618807 0.15371536 0.62288064 -0.0712637 0.7207796 -0.4247028 -0.3286473 0.24476835
号 0.12144385 -0.070129015 -0.21960336 0.72581804 -0.12125677 0.07037771 -0.20826747 0.0022602049 -0.33162913 -0.58127457 -0.2842148 -0.4258939 0.31869075 -0.8222809 0.0059343535 0.12566097 0.32101107 0.29694587 -0.22211252 -0.7502717 0.012770317 0.5077717 0.115999684 -0.23834646 -0.48921537 0.48529533 -0.71200526 0.033866998 -0.4245509 -0.0063396585 -0.5498686 0.37524307 0.29198107 -0.64996994 0.3021672 0.19779041 -0.367272 -0.5045816 -0.20728524 0.20358175 -0.016333777 -0.2397439 -0.5557871 0.19302042 0.9259226 0.019235777 0.46901935 -0.23086235 0.1550361 -0.06521457 0.26740074 0.22225581 0.14258502 -0.36188164 -0.7221284 0.48692712 0.23925415 0.17136227 -0.51099944 -0.67095315 0.61068904 -0.083455205 -0.4641166 0.4431676 0.45292753 0.012100202 -0.9967471 0.3636957 -0.37511632 0.24497981 -0.37286857 -0.3065557 0.06093817 -0.40670648 0.24412885 0.013786951 0.32620704 -0.08815312 0.20284134 -0.5273284 -0.6961687 -0.67940325 0.026413115 0.33992454 0.3213548 -0.07943884 0.22072479 0.72947913 0.7539903 0.105841875 0.52237976 -0.33834735 -0.2620823 0.24067841 0.4476584 0.58997375 0.47500116 0.059580624 -0.019169573 0.6104161
提醒 -0.27674147 1.0049099 0.43314803 0.4614053 0.10056027 0.2004846 -0.2721042 0.24071942 -1.085935 -0.43089157 -0.110366635 -0.49286756 0.9460067 -0.13547611 0.5421441 0.026011413 0.051553644 0.017692294 -0.5278204 -0.92041427 0.38353562 0.48782098 0.42654905 -0.26101223 -0.23949578 0.6595353 -0.22007576 -0.96749127 -0.328946 -0.017520532 0.050289504 -0.21063516 0.3706974 -0.54821134 0.14953996 0.6492451 -0.14368595 0.0068034464 -0.5652693 -0.08762766 -0.1534385 -0.081384405 0.3954315 0.066366345 0.40384626 -0.3895373 0.36477286 -0.13820796 0.28069517 -0.027966272 0.22745356 0.40816337 0.30377114 -0.42560837 0.5592328 0.14395641 0.23443529 0.25896758 -0.14453566 -0.31724486 -0.012120137 -0.41229993 0.07501553 0.5230717 -0.4573344 0.37797007 -0.061104078 0.40967083 -1.1457814 0.78368324 -0.07220744 -0.4627501 0.5469183 -0.092989065 -0.28737417 -0.29939982 0.12686011 0.37176588 -0.2853021 -0.24843283 -0.86404485 -0.4485935 -0.34121072 -0.037825078 0.27267665 -0.22089142 0.22719222 -0.16508445 0.52941114 0.6503192 0.14105232 -0.34375086 -0.29330903 0.11970589 0.18901321 0.40812135 0.17472032 0.30645293 0.045695603 0.2326783
视频 -0.36404958 0.13519526 -0.2926057 0.43704596 -0.16199182 -0.4518025 -0.36591458 1.3658735 -0.54041886 -0.6681894 -0.22740479 -0.7405596 0.12215273 -0.13075854 0.0048644776 0.2739861 0.42168748 -0.5727177 -0.00011826757 -1.2617933 0.3910342 0.47392526 0.3745785 0.33073664 0.9231651 -0.06714378 -1.0621402 0.38399222 -0.34687617 -0.2776814 0.26738226 -0.06829692 0.28997865 -0.0433518 -0.19499072 0.6052454 -0.07965013 0.023827238 -0.5507095 0.46920362 0.30367684 0.26614842 -0.66871834 0.19497518 -0.10690741 -0.41409105 0.47054788 0.7747193 0.09578975 0.6144501 0.26019067 0.6539806 -0.0697411 0.39421022 0.19409452 -0.22606073 -0.42104143 0.46901992 -0.22908285 0.07185223 -0.072529286 0.21136743 0.7511423 0.14982681 -0.7819811 -0.2676168 0.5853773 -0.053100053 0.1572454 0.1439301 0.18861769 0.6492997 -0.01325049 -1.3011125 0.32641044 0.1608441 0.3034079 0.43381923 0.43350732 0.64208496 -0.010649394 0.1561438 0.26216954 0.20019999 -0.30350646 -0.7252201 0.14701936 -0.011101544 0.6688388 0.2892614 -0.17732264 0.44194832 -0.25787148 0.6920717 0.85824513 -0.5297469 -0.34834713 0.25707415 0.06518423 1.0314041
放 0.21551952 0.2293503 -0.17204256 -0.022292288 -0.8023889 -0.7022116 0.06513022 0.56824595 -0.22334357 0.38526028 -0.18820961 -0.14962718 0.17953828 -0.07774498 0.3882461 0.34512886 0.33816725 -0.66447306 -0.37428543 -0.46616992 0.5476163 -0.003499175 0.50466466 0.20547046 -0.31067592 0.4120915 -0.4293185 0.48608318 -0.12171332 0.45562643 -0.38975024 -0.6442786 0.5692044 -0.03942594 0.5532314 -0.103498854 0.83564824 0.12584066 -0.7739515 0.5096472 0.17949997 -0.090112574 0.16242366 -0.120485656 -0.17495912 -0.17641236 -0.047346186 -0.5814248 0.392912 0.83091086 -0.32809085 -0.11444254 -0.6677446 0.1002054 0.039071817 -0.21061692 -0.3284311 0.31213665 0.6420957 0.57163745 -0.26557 0.37993348 0.7437918 -0.688729 -0.8522167 0.19889784 0.8182881 -0.29415086 -0.03062138 -0.21764398 0.09073318 0.32147297 0.37072483 0.48153958 0.78917396 0.39241067 -0.19095661 -0.3508484 -0.039114904 -0.16850163 0.45013583 -0.11422211 0.37507832 0.48982853 -0.43505317 -0.5367171 -0.2782661 0.31479144 0.5477766 0.3852011 0.48582208 -0.35136142 -0.19800135 0.20962647 0.13921008 0.29390505 0.5077048 -0.58635914 0.3481395 -0.5342861
年 -0.022684794 0.22771446 0.2132902 0.47299042 0.31457877 -0.33903456 0.16667402 0.6268134 0.108275205 -0.39745206 0.53426665 -0.5162251 -0.14559697 0.2522976 0.6403318 -0.25396553 0.23278622 -0.6302851 -0.74040776 -0.39666605 0.46388736 -0.4442077 -0.49209067 -0.33964884 -0.32709292 -0.060671397 -0.67065245 0.95610553 0.08716941 -0.084058166 -0.776051 -0.25637195 0.18056847 0.53386235 -0.22573315 0.38332063 -0.3926739 -0.57113343 -0.5801858 0.1384945 -0.104908384 -0.4191475 -0.0058363373 0.4755526 0.13689774 -0.29321828 0.9474336 0.15843876 -0.5468281 0.14641275 -0.012856991 -0.0024084942 0.116441965 0.18668893 -0.30360472 -0.14744505 -0.035397228 0.6776102 -0.25603208 -0.9424206 0.33441284 0.0042573097 -0.13274406 0.078451775 -0.8527976 0.64319223 0.44941318 0.750664 -0.30381975 0.28171313 0.5841551 0.8749949 0.06455947 -0.08601462 0.3540618 1.2131605 -0.063057676 0.31531936 -0.47371754 0.12697645 -0.302974 0.45386913 0.2692658 0.2791948 0.08521167 -0.43555957 -0.20685054 0.16123989 0.79908043 0.6408218 0.67478234 -0.15729237 -0.23157541 -0.001368079 0.8819453 -0.0689785 0.1036418 -0.023397507 -0.4258671 0.53119504
一首 -0.7157464 -0.44463703 0.376451 -0.8361475 0.2516583 -0.12756816 -0.25112766 1.2704395 0.32939515 -0.07481688 -0.31359217 -0.70135874 -0.3201876 -0.56894934 0.006234821 -0.7364054 -0.07721454 -0.45262927 0.66179645 -1.1772499 0.4037655 0.2591384 -0.067058206 0.35685563 -0.40270135 0.2655436 -1.044397 0.3489324 -0.49125904 0.59840906 -0.37094384 -0.012326989 -0.05546485 -0.08437556 -0.2329635 -0.005251061 -0.1267111 -0.40449077 0.073501594 -0.03135868 0.14460874 0.14837007 -0.0062821493 -0.048215944 -0.37092075 -0.6736937 0.6256201 -0.28500703 -0.28617933 0.8680971 0.12504247 -0.5303925 0.034696925 0.41724515 0.093517765 -0.24995473 0.26019064 0.17255384 0.1433497 0.26732132 -0.29321048 -0.12047548 0.5913305 -0.40779522 -0.28835636 0.54586154 1.1827167 0.46334144 -1.2879623 0.23504113 0.861089 0.38996705 1.065494 -0.5750774 0.2677881 -0.38654006 0.15445994 -0.48979247 -0.9178105 0.36733 -0.5835491 0.59559816 -0.5792839 0.8220644 -0.8654311 -0.20467061 0.11125264 -0.12134471 0.10423755 0.7168954 0.57881695 -0.009685594 0.48636925 -0.8182781 0.30887672 0.30100194 0.6784862 -0.25300983 -0.21691486 0.029626563
5 -0.2795732 0.5703544 -0.8901592 0.014397763 -0.5459229 -0.174145 -0.12270897 0.3416494 0.07020152 -0.30900037 -0.07951095 -0.91288275 -0.027521139 -0.4449803 0.19341786 0.31429753 0.5397127 -0.027213834 0.48166335 -0.17131737 0.29451162 0.5188093 0.97922194 -0.24787928 0.43792468 0.3709631 -0.43815026 -0.4448904 0.12749833 -0.10075974 0.04136515 -0.31716606 0.6082181 -0.6511394 0.18722591 0.5319245 -0.6222395 0.26547092 -0.45329922 0.09195879 -0.37306955 -0.0988116 0.19591391 0.98607284 0.2522019 -0.38775256 0.22548631 0.19232363 0.38962635 -0.5394176 -0.26529017 0.2441968 -0.16901828 -0.49951124 -0.45153734 0.12878692 -0.23620544 -0.16537437 -0.16267121 -0.5049123 0.449905 0.05469592 -0.056386076 0.26549697 0.46256602 -0.043809608 0.23760307 0.36561114 0.13435584 0.32343233 -0.5609636 0.16192518 -0.3162778 0.32252556 0.7746338 0.36011449 0.035368916 0.30956382 -0.6214317 -0.06668351 -0.13614453 -0.4878346 0.07236701 0.09408689 -0.2598524 -0.20602256 0.59492254 0.33159283 0.15883844 -0.20089348 0.71281695 0.16852619 0.22662476 0.23816903 0.033187486 0.11473893 0.0038570801 -0.22937386 -0.30531675 0.39616618
请 0.020874813 0.7243097 0.0648774 -0.04052481 0.15375021 -0.8702327 0.19128036 0.1427377 0.22740725 -0.13028915 -0.62891185 0.30501392 -0.37558928 -0.16740726 -0.13956484 -0.35478652 -0.23037559 -0.86374 -0.25793383 -0.32664967 0.36619213 0.23477735 0.65742874 0.06839706 -0.3027334 0.41377366 -0.054639738 -0.13583991 0.572442 -0.058587506 -0.47003812 -0.206225 0.91657555 0.23360856 0.22769237 -0.5358406 0.6798665 0.34260073 -0.3003774 0.506778 0.14573216 -0.1924565 0.4304842 0.016458401 0.48042533 -0.30203784 0.022076273 -0.27927083 0.33594227 0.22624049 -0.07849613 0.2744665 0.47575906 -0.58940756 -0.00016205253 -0.519818 0.49883577 0.35009623 -0.74162394 0.26833627 0.10548284 -0.005883239 -0.4364266 0.5327938 -0.24264418 0.32125846 0.017774887 0.20506006 -0.66662145 -0.06014085 0.433009 -0.04294932 0.039141495 0.73941535 0.18459564 -0.12424833 0.9854993 0.57872117 -0.23838772 -0.008422208 -0.8801299 -0.43742612 -0.39892608 -0.96062434 0.26119778 0.04566475 0.9455785 0.7229181 -0.25423482 0.37680212 0.03141438 0.07479022 0.82455206 0.26149794 0.66962546 -0.6653638 0.5332275 -0.13626525 0.7187856 0.74616045
查询 0.3523795 0.1607276 -0.070487656 0.38023898 -0.6612868 -0.51569396 -0.5823351 0.5810276 -0.30960163 0.64158446 -0.25356296 -0.26984632 -0.46948096 0.34830076 -0.85829544 -0.3095228 -0.34801748 -0.10265655 0.1743381 -0.11856057 -0.11087033 0.5096088 -0.032923743 -0.4375069 0.07695776 0.45941535 -0.010727197 0.25270683 -0.4261719 -0.08868618 0.019819286 -0.84934086 0.043331172 -0.19640079 0.5921305 0.2219915 0.42787424 -0.033186417 -0.92796046 -0.69456786 0.44890785 -1.0641316 -0.18658365 0.7114644 0.32554886 0.1079533 -0.7686647 -0.60240024 -0.02070222 -0.39568383 -0.11507148 -0.53553283 -0.060431857 0.34253848 -0.3714828 0.2913658 0.80798835 0.20195545 0.04887998 0.92696065 -0.094109945 -0.41291168 -0.6005947 0.46964872 1.0920888 -0.02749839 0.5947092 0.9223679 0.031234136 0.76201135 -0.72534704 0.6623081 -0.024732992 -0.3534726 0.28659254 -0.09652438 -0.38947746 -0.44484448 -0.42697924 -0.17134364 -0.20979251 -0.17033295 0.119032755 0.31267828 -0.4524532 -0.13625848 -0.3633919 0.75774145 0.08542505 0.484577 -0.015195436 0.073956154 -0.6598117 0.12126833 0.30212602 0.83907104 0.3402496 0.30391863 -0.4535123 0.5362762
空调 0.34513694 0.10849504 0.3440879 -0.21153982 0.5696756 -0.26683554 0.18528493 0.91332376 -0.3961457 -0.2712651 -0.5530826 -0.78112286 -0.7786492 0.36429244 0.023196455 -0.08474766 -0.24239893 -0.14941221 0.06455044 -1.0208564 0.91377777 0.35361058 0.05310165 -0.017493902 -0.32692215 0.63058084 0.28206667 -1.2557765 -0.42673993 -0.022572022 -0.10160894 -0.28704497 -0.03076031 -0.48782742 -0.13410364 1.1295352 0.11760099 0.23242427 -0.7433214 -1.1252502 0.14725013 -0.6000908 -0.83207494 0.49691498 0.76895994 -0.32331157 -0.31374526 0.07592666 0.99435943 0.59480274 0.054712135 -0.00691052 0.20558448 0.36377168 -0.39485133 0.07144831 -0.1855446 -0.6109612 -0.69890714 0.088934965 0.1597216 0.19744447 0.09602708 0.14031523 -0.12655136 1.1054677 -0.36560622 0.75267357 -0.604931 0.05956229 0.45667544 1.4284735 0.7281983 -0.058393974 0.27342582 -0.78478837 0.4059904 -0.1538248 0.80329 -0.6669563 -0.36267838 -0.6680252 -0.45540726 -0.8006838 -0.6202853 -0.21520954 -0.33797687 -0.5171418 -0.034244876 -0.36452904 0.73346055 0.21319464 0.55633277 0.45192656 -0.16362137 0.9075963 -0.16878733 -0.7501489 -0.22691986 -0.110389456
农历 -0.5526411 0.08938218 0.10396915 -0.7010176 0.38150772 -0.90770924 -0.4642525 0.6778917 -0.56054187 0.20602499 -0.8883515 -0.32213202 0.28210026 -0.10485194 0.45350948 -0.6437564 0.17648888 -0.30185238 0.69747746 -0.88970685 0.590226 -0.43577653 0.35197663 -0.27132756 -0.3901685 0.6937715 -0.21881104 -0.43609846 -0.06644067 0.09792976 0.16905393 -0.068082996 -0.7405389 -0.44277397 0.8624261 0.19438837 -0.22729762 0.0061394577 0.07165184 0.002286976 0.40527013 -0.88408494 0.47478485 0.33486453 0.5134943 -1.0366114 -0.22384915 0.57847446 0.33646083 -0.06371379 0.9568948 0.53350306 0.22732773 -0.0676524 -0.14089204 0.5924308 0.58007485 0.07761223 0.0053272075 0.1688263 -0.03400052 -0.10115647 -0.44090536 0.999246 0.3261145 0.92311347 0.06826143 0.6673499 -0.13402273 0.28876376 -0.024237748 0.3736284 -0.25131765 0.10079901 0.49759698 0.4087879 0.4189105 0.015674392 0.46347848 0.10655118 -0.9030772 0.5024988 0.25509062 -0.28946653 -0.19570865 -0.24732761 0.80983895 0.3357261 0.91154706 -0.10795237 1.1448745 -0.05133659 0.3038574 -0.0872459 0.78408957 0.7166616 -0.30902228 0.035897642 -0.124121055 -0.049598917
我要 0.35649064 -0.3607131 -0.46668583 0.23357461 0.85406566 0.107576445 0.06294006 0.8636804 -0.74310523 -0.288809 -0.26722187 -0.026700363 0.4681649 0.22461648 -0.18306737 0.0720191 -0.0720811 0.07759585 -0.07468256 0.26535955 0.12544036 -0.468327 -0.060081437 0.3762123 0.15489411 -0.57716894 -0.16016728 0.53436214 0.10430296 -0.60892266 0.6005627 0.4311197 0.29950312 0.21613358 0.21177995 0.3494955 0.1122776 -0.09279952 -0.6962047 -0.68907064 -0.27590203 -0.19101076 -0.31526035 -0.23779458 -0.8542273 -0.16273056 0.0197688 -0.11123077 0.91193634 0.12791617 -0.005076746 0.14759378 -0.091484085 0.37510374 -0.17149802 0.046000946 -0.14014725 0.6595062 0.0982715 0.68595886 0.2456961 -0.22918986 0.6410515 0.53752434 0.069389515 0.51726365 0.16402696 0.37254187 -0.87261474 0.38197103 -0.2249893 -0.7094918 0.59226495 0.28441328 0.43829072 0.5167073 -0.29232156 -0.075148776 -0.7334954 -0.049683046 -0.63140136 -0.13972887 -0.1422172 0.17963856 -0.15808044 -0.2962838 -0.28985226 0.48742643 -0.4431373 -1.1358118 -0.33527917 -0.85258 0.16537099 0.4224347 0.5715435 0.056425665 0.71789294 0.26802263 0.73475164 -0.1876746
闹钟 -0.124154955 0.52415 -0.0041957092 0.034389537 -0.1570832 0.22028902 0.42850277 0.2928089 -0.931047 -0.84010595 -0.16124147 -0.020221522 0.408114 -0.05727554 0.09892644 -0.28634226 0.04537287 -0.28929457 -0.36904538 -0.91508955 -0.2670786 -0.15506975 -0.4316417 -0.33988807 -0.9556528 0.550931 -0.66993695 -0.779168 -0.39078692 0.07926959 -0.13654885 0.016120097 0.16829093 -1.0028297 -0.1612799 0.7134794 -0.17390792 -0.5550357 -0.20415853 -0.5208227 -0.18725419 0.14184487 0.31290102 0.5332995 0.6464349 -0.041696217 -0.032571048 -0.6076411 0.61564654 0.041203484 0.08256386 -0.23375462 -0.13444842 -0.22241674 0.5232954 0.6427625 -0.027372386 -0.15933853 0.8563965 -0.2157213 -0.23330608 -1.2004422 -0.3363237 0.6097325 -0.24166754 0.44938216 0.033095933 0.18293579 -1.0259131 0.7674656 -0.1753906 0.2789396 0.9376722 -0.18708244 0.22669387 -0.4191378 0.37429264 0.59945554 -0.118556164 -1.2102443 -1.026466 -0.120288976 -0.27862173 -0.0061350856 -0.21676661 -0.82586074 0.30850035 0.5887649 0.5744475 -0.17198086 0.55756724 -0.05633217 -0.40919888 0.7950868 0.010590216 0.45593897 -0.65531456 0.45355958 -0.2670519 0.5657101
打开 -0.41256493 0.59911215 -0.49736145 0.16411985 -0.4140983 0.36055443 -0.21881574 0.37833917 -0.1794989 -0.34799492 0.07524432 0.22464274 0.25764084 0.43896323 0.48882252 -0.6644663 -0.3701252 0.039744664 -0.37830162 -0.7799034 -0.11872078 0.105080195 0.4240698 0.13247904 0.109101795 -0.44838396 -0.113524295 0.06556399 -0.96096075 0.08911745 0.0354415 0.5768185 0.71018285 -0.42584392 0.2433665 0.7338774 0.5123849 1.4098903 0.23935433 -0.18324675 -0.096643694 -0.7463729 -0.8251052 0.6092067 -0.2726967 -0.79756075 -0.1260472 -0.0850483 0.060215052 0.029787412 0.4575246 -0.45476356 0.0150464205 -0.3405162 0.12324362 -0.049890272 1.446122 -0.42244935 -0.07181077 0.59056824 0.19486296 0.10224421 -0.27550262 0.06068622 -0.17146622 -0.23485488 0.008753259 -0.381592 -0.31861547 0.1208182 0.7523551 -0.07148408 0.030132933 -0.01669468 0.38376832 0.7371747 -0.3789465 0.23337063 -0.38855898 -0.5220668 -0.15697588 -0.4891275 0.114364706 0.070881344 -0.047465686 0.36990637 0.74746394 -0.50863606 -0.5049818 0.9816998 -0.42454585 0.4949112 -0.42453638 0.22987612 1.4496342 0.27911216 0.7090167 -0.5281249 -0.73615885 -0.7659212
下 -0.2468285 0.93360287 0.99695665 0.928897 -0.6226938 0.11808552 0.014347997 0.4145532 -0.004992124 -0.027708566 0.22307478 -0.14201334 0.3987771 0.906956 -0.023039939 -0.673616 0.70250297 -0.91526645 -0.51429516 -0.35785824 -0.32587418 -0.4300561 0.14548893 0.14008509 0.1317731 0.21818686 0.11093533 0.11469739 0.37959126 -0.52044314 0.50820494 -0.2072051 0.62228084 -0.5607144 0.9853586 -0.45797107 0.64893305 -0.33546162 -0.0101371175 0.06629609 -0.052286454 0.30949968 -0.10984032 0.4522679 -0.46856725 -0.36839464 0.18484525 -0.4596322 0.3939203 -0.5622805 0.069731645 -0.3966317 -0.8891488 0.6707764 -0.19775411 -0.6753064 0.69573414 -0.5712475 -0.65395683 -0.101201296 0.19758604 0.36242226 -0.2611805 0.068024665 0.23906294 -0.084310114 -0.03981878 0.4781382 -0.18249741 -0.15058534 -0.19925731 0.12463445 0.44117275 -0.18614388 0.6054982 -0.6146264 0.26990974 0.36372477 -0.114298575 0.32342497 -1.013696 -0.50428474 -0.06671253 0.14106481 -0.90229887 -0.5502077 0.553188 0.35823295 0.09936621 0.23434731 -0.09595532 -0.6387734 0.12979235 0.0251132 0.49022317 -0.009250131 0.2945195 0.99654657 -0.5173885 0.24998547
日 0.05841012 -0.3262897 -0.28468153 0.79481083 -0.06853807 0.040805124 0.2397224 0.80187535 -0.13253005 -0.6004901 -0.01205579 -0.69230133 -0.05221304 -0.24254782 0.5841315 0.16477807 0.34245512 -0.20799044 1.0981916 -0.30450013 0.47009635 0.6713763 0.0152129475 -0.043354165 0.5122877 0.31462058 -0.3488573 0.380948 -0.2851803 0.59692043 -0.35942197 0.3583916 0.51729107 -0.83094805 0.16362034 0.29910108 0.074524626 0.051243838 -0.48622406 -0.08298013 0.16304827 -0.2466159 -0.09836143 0.17836362 0.6085481 -0.026368171 -0.20889875 -0.12941946 -0.448186 -0.4078913 0.73679656 0.3865883 -0.40555593 0.20040958 -0.77592623 0.34891722 0.021639315 0.08407292 -0.53020424 -0.13428009 0.25502083 0.4863804 0.15859303 0.00052011205 0.59883314 0.28383556 -0.6759224 0.56781113 -0.07929837 0.47611496 -0.012745335 0.7167431 0.33267054 -0.6820323 0.4414535 0.43183133 0.2710035 0.6928125 0.014638856 -0.07351271 -0.4817987 -0.25070295 0.8685885 0.070212916 -0.42628565 -0.5705811 1.2074805 0.62434727 0.46421027 -0.24630608 0.51209277 -0.62593585 -0.12876974 0.1659219 0.902709 -0.23289642 -0.2999857 0.23232313 -0.28616002 0.92006326
告诉 0.05745749 -0.3500733 0.36907896 -0.54609436 -0.43402147 -1.1628283 -0.24000253 0.007158003 -0.6445492 0.20467687 -0.5574199 -0.41646257 -0.50017977 0.13380428 0.42995805 -0.13532569 0.43447724 -0.40088868 -0.056565486 0.34938362 0.28159606 0.26887637 0.017894866 -1.2327441 -0.39268363 0.8310435 -0.2828364 -0.24399069 0.28460732 0.43089205 0.9716467 0.0013094409 -0.259559 -1.4327234 0.7191194 0.08799849 0.7512762 0.119671695 -0.06793875 -0.0048156576 0.7560326 0.47706357 0.5027047 -0.18750116 0.04379944 -0.41857874 -0.480765 0.2994314 -0.11964313 -0.59387404 0.29020986 -0.14143425 0.10513834 0.49045685 -0.87320274 0.7416573 0.24240223 0.6260033 0.3378918 0.29364237 0.20317777 -0.14308539 -0.4159669 0.59123087 -0.09537124 0.8721127 0.24056485 -0.3672462 0.01736017 0.69492674 -0.7375878 0.22360317 0.7048447 0.067724966 0.28985417 -0.032759596 0.3881876 -0.035162997 -0.5754597 -0.23707087 -0.13643721 -0.30811018 0.11514521 -0.6101539 -0.37524933 -0.072239935 -0.39431146 0.9392209 0.34231454 1.1810229 0.44048214 -0.34160528 -0.5186063 -0.10504227 0.78500134 0.7092009 0.8207161 0.097059816 0.06651613 0.44435272
10 -0.033673164 0.21122742 0.00891764 -0.51025796 0.12317688 -0.08922584 -0.021560218 0.4623349 -0.3941693 -0.18136193 0.15770082 -0.3857072 -0.05354663 -0.11909761 -0.13397665 0.9628107 0.29717642 -0.0245701 -0.21206988 -1.1090789 0.5540421 0.78187335 -0.4616125 -0.15388098 -0.22835535 -0.0009687046 -0.26545307 -0.9644922 -0.2745369 -0.71393293 0.57406706 0.027060997 0.3763876 -0.2699667 0.46810856 0.7508082 0.16045855 -0.73141235 -0.23581813 0.6929678 0.055638645 -0.33200094 0.4371629 0.4857114 0.6252922 0.26585484 -0.0518481 -0.5858535 0.2986911 -0.11290556 0.33003575 0.9035086 0.1348685 -0.21889138 0.30415383 0.42254448 -0.09787876 0.29061994 -0.23118162 0.22926281 0.39252245 -0.3153654 0.19020754 0.9399169 -0.32821038 -0.39348817 0.18383631 -0.15617122 0.005935714 0.44012693 -0.11237597 -0.070999235 0.52228624 -0.12059196 0.40167063 0.3606233 0.37617466 0.36594093 0.2731216 -0.11971149 0.058700252 -0.8140066 -0.47058782 0.45358267 -0.57299244 0.012519566 0.5419351 0.304357 0.59612036 0.21519215 0.47772953 -0.1516493 -0.25726423 0.2273294 0.7900987 0.108317144 0.07970436 0.07918437 -0.49068612 -0.35234612
下午 0.52322346 0.85853183 0.02383545 -0.06733679 -0.27973306 -0.037288506 0.22903547 0.3021754 -0.39819333 0.13385634 -0.716616 -0.29007068 0.2656506 0.18982433 -0.63184434 -0.21781784 0.7968048 0.44485426 -0.55422896 -0.91923517 0.057477348 0.033841692 -0.13071184 -0.41074872 0.05358664 0.28638133 -0.9717782 -0.29492715 -0.813837 0.052993137 -0.021218857 -0.536923 0.052355018 -0.8724589 -0.02408367 0.013612005 0.3789914 -0.5931513 -0.021862019 -0.18663912 0.028802874 0.18063182 -0.030099107 0.48517227 0.9377359 -0.49471182 0.21089576 -0.19792512 0.58235896 -0.46397588 0.4858072 -0.24031292 -0.10238956 -0.3180105 0.064620875 -0.009512925 -0.51108104 -0.3204558 -0.7014402 -0.06122148 0.5819551 -0.5728779 0.17070577 0.94513303 0.05379856 0.85976166 -0.024121957 -0.07735771 -0.84180397 -0.44685715 -0.20165105 -0.2304524 0.32989842 0.2298482 0.19877629 0.16733028 0.21374096 -0.00996869 -0.37819472 -0.28218272 0.23697135 0.35734278 -0.008057746 -0.065969765 0.065348335 -0.17309143 0.5584764 0.9142314 0.3366127 0.12588856 0.22649272 -0.28177336 -0.07480727 0.7020635 -0.029456187 0.18102008 -0.20597015 -0.03578408 -0.13343866 0.31949693
歌曲 -1.0716105 -0.817072 0.42437243 -0.19516644 0.33668184 -0.16262616 0.56026477 1.4418857 -0.23470986 0.44836995 -0.55002016 -0.578573 0.30851182 -0.4600832 -0.6226812 -1.0124295 0.0795161 -1.3559968 -0.71264267 -1.0946512 1.1168568 -0.14157827 0.14045385 -0.5602402 -1.1212441 -0.46876782 -0.27996135 0.2271959 -0.2431581 0.84001666 -0.48003978 -0.07473959 -0.20579673 -0.19323775 -0.49978957 0.3343007 -0.108540125 0.24397358 0.012177102 0.05716075 0.10879986 -0.7333996 0.1977932 0.42856458 -0.2846781 -0.06181692 0.12469895 -0.5361467 -0.50677395 0.80411154 -0.21219774 -0.08571923 0.24838476 -0.8387982 0.54110974 0.16744399 0.04924691 -0.27536833 -0.24526665 -0.24274938 0.315292 0.25667864 0.35816544 -1.1990157 -0.7078841 0.35216787 0.947802 1.0621235 -0.83176893 0.55501336 0.7930601 -0.049531765 0.30342045 -0.19457309 0.85228467 -0.68186694 0.022235166 0.34276783 -0.17101856 0.17030512 -0.21572669 1.0424316 -0.6908798 0.57512164 -0.6733271 0.34758228 0.017681582 0.9313451 0.059547033 -0.27941567 0.7057529 -1.0114851 0.517802 -0.118524425 -0.08746531 0.1585272 0.6181137 0.27068305 -0.022728793 0.3669545
频率 0.070148915 -0.06923158 -0.3862501 0.47834867 0.07061579 -0.5406291 0.7227122 0.06434012 0.3516332 0.30234158 -0.26135966 -1.3457928 -0.25258228 0.3628361 -0.334823 -0.15851666 0.32683274 -0.8921298 -0.20622137 -0.001375747 0.2763833 0.70633304 0.23645988 -0.1853715 -0.20675273 0.028928928 -1.1769508 0.30568105 -0.5891416 0.30339763 0.7738197 -0.3112183 0.6673757 -0.35639367 -0.29864934 -0.21573743 0.010314338 0.72842056 0.12937897 -1.0421154 0.072312444 -0.25469998 -0.7885288 -0.49891552 0.019207364 -0.32999608 -0.37224022 -0.0225112 0.54815114 0.33129507 -0.69978565 -0.5340154 0.056629278 -0.58906585 0.40464026 0.24593478 0.707413 0.015905121 -0.67728186 0.6414744 0.34938952 -0.5106883 0.5979932 0.06562366 -0.5154148 0.5740474 -0.23798317 0.1248489 -0.42650193 -0.046670556 0.5112748 0.28928876 1.0092677 -0.9631864 0.6207585 -0.22506534 -0.8452972 0.03226748 -0.18419799 -0.5770719 -0.58713496 0.15404463 -0.13844474 0.13237992 0.07092543 -1.3611233 0.27389362 0.56602496 1.0714636 0.09798716 0.794932 0.23965032 -0.044152252 -0.88552564 0.58168703 0.23694022 0.35036013 0.39073217 0.20930791 -0.19394983
收听 -0.0012106755 -0.26624715 -0.5714353 0.8518746 0.16993593 -0.87517583 0.35608312 0.12280297 0.1579879 -0.0043524597 -0.7355629 -0.22392309 0.23094729 0.7221871 -0.10228928 0.19461465 0.671496 -0.3647888 -0.19839121 -0.74237186 0.15025888 0.03836543 0.4218748 -0.17691734 -0.5960296 0.028574022 -0.39021972 0.5211954 -0.21142325 1.4166371 0.70186335 0.055814005 0.52779996 -0.17609519 -0.63881373 0.46626362 0.5825528 0.56770724 0.15598536 -0.17152116 -0.31027186 -0.13731007 -0.85319465 -0.5264566 0.052265525 -0.303962 -0.16651879 -0.20483759 -0.12424352 0.8235202 -0.7447194 -0.11892991 -0.5905534 0.45841524 0.41462684 0.112250455 0.596425 0.31809616 -0.5769146 0.8665006 0.48824024 -0.34776747 0.56061727 -0.19849057 -0.26143196 1.0263209 0.03313678 0.32495755 -0.71629554 0.33864546 0.16082923 -0.19322506 0.7379406 0.42392442 0.39292172 0.28835425 -0.7594618 -0.064213626 0.007512191 -0.49336782 0.56832397 0.11816734 -0.4455024 0.6665583 -0.23177314 -1.0698937 0.4927558 0.43636382 0.8534652 0.4405277 0.8594457 1.3172035 -0.32104042 -0.5133524 0.42104712 -0.034504376 0.4096429 -0.6517846 1.0170813 0.055247333
几号 -0.15942127 -0.13824719 -0.1183019 -0.52890915 0.39095744 -0.7010002 0.3312115 0.6833802 -0.59948933 -0.18685918 -0.70714045 -0.026289597 0.2102318 0.19848901 1.1947223 -0.5710775 0.03944272 -0.61339796 -0.2447078 -1.4516159 0.3069722 -0.44822022 -0.05227434 -0.63494796 0.054837827 0.65882987 0.14071429 -0.028556084 -0.12615465 -0.11539508 -0.9477659 -0.35206288 -0.33569056 -0.7393197 1.2336626 0.09993057 -0.2085158 0.0677856 0.8251424 -0.34946665 -0.3736281 -1.074066 -0.022060195 0.2693366 0.5504047 -0.3346986 -1.35698 0.7651075 0.17776851 -0.14229138 0.5967956 0.50340754 -0.24680449 0.15768932 0.25336078 0.5907533 0.88405687 0.07192408 0.45895705 0.08992203 0.30533192 -0.8816475 0.35165858 0.34080714 0.67400247 0.715883 -0.1719337 0.29603425 -0.7962314 0.273863 -0.17451325 0.7551204 -0.46435213 -0.2038285 0.4412884 -0.3333108 -0.23060054 0.7122602 0.14158742 0.6033308 -1.4554882 0.18482447 -0.6929925 0.3884634 -0.7079298 -0.21638815 0.6963686 1.0434257 1.0375164 -0.1652979 0.46984184 0.11446445 0.09818659 0.43266475 0.8435001 0.6058538 0.20124307 -0.9137705 -0.66307896 0.12810375
9 -0.027809806 -0.255168 0.013818078 -0.42107344 -0.35338184 -0.24656494 0.033899713 0.6444976 -0.53916484 -0.5905652 -0.4525977 -0.4256279 -0.055150423 -0.24763629 0.5899818 -0.13297522 0.266915 -0.27561077 0.56514347 -1.0849041 -0.2754682 0.48043722 0.2135189 -0.26230043 -0.13462538 0.40823567 -0.68805605 -0.37240607 -1.0015575 -0.21027946 0.19341432 0.06806718 0.27684435 -0.21964175 -0.058995962 -0.4651705 0.40718287 -0.52075416 -0.54887575 -0.3013857 -0.19784717 -0.8130038 0.31877154 0.45841965 -0.09111574 -0.68546593 1.055961 -0.7588693 -0.30731902 -0.6634156 -0.20217955 1.1728259 0.104264885 0.23085333 -0.3301391 0.33294258 -0.13689916 -0.053277753 -0.20279524 -0.66710573 0.36259294 -0.7565057 0.0165848 0.6052658 0.87503314 0.11927385 -0.54860425 -0.21480325 -0.17188433 -0.1975136 0.17737518 -0.97921634 -0.056925237 0.28861204 0.5555617 -0.3129424 -0.2690082 0.49057618 -0.46750537 -0.65705615 -0.2708966 0.043042146 -0.7771409 0.29863316 -0.40240586 -0.5956752 0.023634844 0.33708093 0.5382621 0.08670694 0.42386833 0.14525807 -0.14514437 0.5567939 0.17045258 0.71249896 0.5270107 0.174013 -0.5473981 -0.091989465
7 -0.44649246 -0.3816858 0.36510783 -0.42693308 -0.2872533 -0.25219345 -0.39251024 0.16602303 0.1046504 -0.40798208 0.17972754 -0.0479595 0.2451522 -0.2368166 -0.19301578 -0.5530672 0.19601597 -0.015912099 0.23873766 -0.1264538 0.24372688 -0.43741825 0.6172234 -0.14783783 0.23793489 0.51640457 -0.6678108 -0.24047674 -0.20654407 -0.30821806 -0.24143206 0.8553633 1.2452407 -1.1817153 -0.4932487 0.4515562 -0.4845187 -0.5707846 -0.49957573 -0.65789545 -0.2159257 -0.93545836 -0.3681218 1.1699803 0.58862525 -0.19842225 0.07194586 0.10421584 0.17898734 -0.6861709 0.33109426 0.59865755 0.17961578 -0.37033933 -0.055630054 0.2104146 -0.11036442 0.9740391 0.10177028 -0.3414616 0.5975638 -0.18820056 0.4440037 0.6255153 -0.23295783 -0.4704592 -0.38039404 -0.415234 -0.27948925 0.3691846 0.10696775 0.10441512 0.17393334 0.47108948 0.8148565 0.30702013 -0.40420014 0.3705828 -0.6153043 -0.10150814 0.22543423 -0.35280514 -0.75367945 0.56583047 -0.21303472 -1.314669 -0.122580945 -0.06871924 -0.0967583 0.005278314 1.136353 -0.37107563 0.32788578 -0.011131052 0.52183294 0.1560584 -0.28171352 -0.055580936 -0.22247617 0.14493239
电台 0.23044014 -0.16321734 -0.42951745 -0.3995744 -0.08544166 -0.17277442 0.15354718 0.4943039 0.6949896 -0.7158053 0.09017556 -0.450075 0.009905416 -0.060351547 0.07265004 0.61549807 0.0051563308 -0.83404624 -0.030915335 -1.3564849 -0.2950716 0.67689836 0.0363796 -0.10709142 -0.7803136 0.2695115 -0.5013748 0.56595355 -0.74910027 0.5399148 0.5665575 0.53654164 0.15606333 -0.12601615 -0.25671408 -0.29989266 -0.252462 0.27606335 0.29515487 -0.87718153 0.16646488 0.06450275 -0.60913396 -0.60773706 0.66863924 -0.8613607 0.14839327 0.19697037 0.13352624 0.18114828 -0.7893837 -0.74596334 0.14838597 -0.79095024 0.8277908 -0.7693166 0.21481891 0.33174616 -0.45196095 1.1037871 0.5143501 0.036512505 0.49598974 -0.3351464 -0.7307319 -0.38154796 0.3710456 0.9471243 -1.0031587 0.56349176 0.8286293 0.11682764 0.68874943 -0.31399402 0.03142139 -0.035685495 -0.72596115 -0.45041987 -0.74909526 -0.32021317 -0.2187799 -0.17435363 -0.16462955 0.41765425 0.03529818 -1.1980362 0.51954865 0.47939214 0.41896084 0.09245947 1.0881796 0.5517763 -0.21336573 -0.0054796143 0.6578423 -0.39667347 0.33811268 0.49426892 0.88356024 -0.137068
电视剧 0.17394783 0.033842072 -0.73024637 -0.10596174 0.035863884 -0.9568396 0.18379563 1.4765614 -0.38891622 -0.63389933 -0.40217918 -0.49817982 0.09427842 1.1251339 0.6861841 -0.44049445 0.198888 -1.2134384 0.13752532 -0.8012755 0.1386404 -0.25177395 -0.8263355 0.12153411 0.5195519 -0.77051294 0.2976083 0.13091376 -0.7174054 0.6365533 -0.07686021 -0.12232729 -0.4959503 0.054303106 -0.47760856 0.6366327 -0.02775166 0.629796 -0.4919829 -0.35666 -0.49440944 -0.14066625 0.059486862 0.12096489 0.8736691 -0.29508278 0.09434905 -0.06156571 -0.6013991 0.21936196 -0.013065805 1.0890381 -0.7165556 -0.3795759 0.030950963 -0.1262262 0.006129853 0.0050477567 0.22332357 -0.106763944 -0.44583523 0.31684354 -0.029290704 -0.29180297 0.12049972 0.20755571 0.19643556 -0.07278862 -0.833022 -0.056342453 0.68613344 0.7236562 -0.9789113 0.4434782 2.2463892 -0.006184411 -0.40447155 0.05848748 -0.013972149 -0.123720035 -0.09656098 -0.47320423 0.85707396 -0.20149964 0.16429031 0.3277574 0.08683314 0.5451644 0.8373132 0.53882045 -0.6739316 -0.3768238 0.35935858 -0.86881 0.32890394 1.2269251 0.3296779 -0.1295008 0.036578394 0.5739153
随机 -0.3594304 -0.51734406 0.0074816896 -0.1538863 -0.5152425 -0.062432382 -0.523598 1.036847 0.04545079 0.14035425 0.07126518 -0.9671148 0.31969807 0.15133992 -0.46583667 -0.21422404 0.74502313 -0.80560786 0.15936548 -0.967589 0.70507735 0.37100065 -0.55412614 -0.36269265 -0.027708003 -0.5719885 -0.16011035 0.16745482 -0.097174294 -0.09404617 -0.32239696 -0.37772515 0.30653676 -0.06945663 -0.612482 0.66324276 0.14316268 -0.9630802 -0.5813823 0.16031182 -0.30364057 -0.17190582 0.273224 -0.46858937 0.49096006 -0.15517533 0.03123263 -0.6977813 0.02986972 0.42181113 -0.25042558 -0.87838626 -0.07447767 -0.009840892 0.5531096 -0.38450313 1.3383812 0.11936288 0.06868281 -0.14098199 -0.3892561 -0.561222 0.88748276 -0.97282124 -0.8435018 1.2691557 0.46936277 0.47673237 -0.5642747 0.51384085 0.5903863 0.23263864 0.79435104 -0.5299675 0.7950777 0.12864405 -0.69819427 -0.23428316 -1.1294149 0.9138163 -0.5125235 0.394794 -0.34579152 1.0973971 0.17620689 0.47142974 0.05092467 0.0653175 0.14386371 0.18117376 0.12476952 -0.2865866 0.3052632 -0.41790682 0.38033444 0.8015953 -0.22782138 -0.20850039 -0.60807 0.13754743
星期 -0.04641809 -0.004031771 0.6715358 -0.78114086 -0.3526039 -0.4510433 0.3661397 1.2337538 -0.46860367 -0.6352949 -0.020281417 0.18061651 0.06350236 -0.17990316 0.78448737 -0.50076073 -0.6415325 -0.14521573 0.18534993 -0.7010529 0.5249119 -0.09979756 -0.26247582 -1.2493114 -0.17981221 0.111216664 -0.23471735 0.16423632 0.10305279 0.58425313 -0.115533285 0.17421442 -0.88790715 -0.642856 1.4215709 0.057279594 -0.33571213 0.51041436 -0.07492658 -0.41153044 -0.3684583 -1.0378408 -0.0048779715 0.0654055 1.0424058 -0.6752935 -0.54173595 0.52906525 0.3950269 -0.010199303 1.1217777 1.1269275 -0.5464394 -0.5888295 -0.09475876 1.228414 0.2678256 0.3430952 -0.18793875 -0.13624324 -0.0550472 0.44347486 -0.4248601 0.16078511 0.26862276 1.01096 -0.21679166 0.46979344 -0.19152667 0.16618958 -0.58248925 0.29891914 0.27446046 -0.119488336 0.69686884 0.59096175 0.1944351 -0.23029533 0.27373138 0.81851494 -0.984547 0.67502904 -0.43053755 0.6863262 -0.49082556 -0.60026467 0.49674007 0.41046795 1.2686613 0.06971095 0.50262386 -0.39063823 0.49974757 0.26249164 0.5614673 0.08553199 0.7331817 -0.29360652 -0.63698685 -0.0054887375
电影 0.04739741 0.3283585 -0.44546136 -0.49562305 -0.7303658 0.22035116 0.7493654 1.0597736 -0.36958218 -0.29265413 0.55909306 -0.5426763 -0.11339289 -0.05307596 0.12564504 -0.12247914 0.17766514 0.064151324 -0.19832405 -0.53652406 -0.10350752 -0.40110198 -1.166819 0.34515226 -0.3594983 -0.02581156 -0.07877626 -0.23086198 -0.4908264 0.28725508 -0.27863705 -0.44174293 0.79119694 -0.89307815 -0.7456858 0.77880806 0.54800016 0.6848714 -0.42070562 -0.36959973 -0.36212078 0.45328894 0.24095911 -0.12654698 0.1920504 -0.1775489 0.5926394 0.97234786 0.11381568 0.6381266 0.35772622 0.425685 -0.554082 -0.7399921 -0.14463748 -0.18701917 0.39314392 1.2012032 0.23805256 -0.18388978 -0.81910384 0.1407685 -1.1459507 -0.4779414 0.121496625 -0.20580333 0.6066665 1.5321136 -0.7562242 -0.4836347 0.34728926 0.6505345 -0.4268286 0.03731101 1.056972 0.3522832 0.30061558 0.007861357 0.5599683 0.55006146 -0.41735244 0.31028208 -0.6307277 0.085919075 0.024495441 -0.42978033 0.26103866 -0.14899006 0.5214377 0.84964406 0.03282996 -0.3615289 0.7816024 -0.22476675 1.161891 0.4799066 0.7153613 0.35942736 0.4968076 -0.1825087
4 -0.05113065 -0.5374249 -0.07714664 -0.5781338 -0.6230156 0.7041403 0.36001515 0.7258607 -0.5159048 -0.3532264 -0.114158906 -0.015819788 -0.95629007 0.18553765 0.6608992 0.087285146 0.36868912 0.31634268 0.6782377 -0.5470101 0.57237613 0.5335644 -0.019093977 0.12479452 0.46228495 0.66564417 -0.042027425 -0.43630782 -0.23312624 0.4898773 0.10770277 -0.043787155 1.2283587 -0.916292 -0.5760144 0.020509034 -0.5300039 -0.37173596 -0.37329522 0.38356593 -0.43978086 -0.09652114 -0.30782 0.8146826 0.6518845 -0.13758536 0.24806415 -0.46247587 0.33861634 -0.43348384 -0.29422066 0.5382346 -0.19465064 -0.74874705 -0.101485305 0.20655431 0.02477471 -0.8540614 -0.7378953 0.33090577 0.67647773 -0.22488719 -0.368868 0.14665271 -0.47572747 0.013865768 -0.3735025 0.060366385 -0.44923362 0.42897153 -0.44621468 0.17965388 -0.34266818 -0.21291146 0.7383086 0.4577211 0.07074545 0.24435489 -0.12841904 0.24760863 -0.91591835 -0.11527679 -0.61179525 0.05788327 0.4341601 0.39964148 0.53302205 0.6932001 0.5148034 -0.35268804 0.78864413 -0.24253246 -0.52670395 0.3833476 0.7591072 0.27909714 -0.124063 0.4927343 -0.3493715 0.25995854
3 -0.08282435 -0.2260254 -0.98774135 0.22134712 0.12734847 0.06943088 -0.14828952 0.42450383 -0.031361476 -0.30141777 -0.54746383 -0.46841165 -0.27503365 -0.080454156 -0.33047742 -0.33104607 0.10759524 0.7219099 0.03453781 0.3505306 0.40233237 0.14955693 0.01900905 0.31012344 0.34530208 0.44653955 -0.5486405 -0.14724843 -0.19764562 0.28135186 -0.13944037 -0.05463349 1.0934869 -0.37905502 0.19595204 0.77782625 0.4517887 0.05118033 0.4806364 -0.75479776 -0.9779628 0.35220692 0.18645498 0.74636626 0.40598315 -0.33175105 0.9090769 -0.54678315 0.3449926 -0.32531682 0.17992093 0.31182212 -0.27174872 -0.29868537 -0.2849122 0.570907 -0.2773967 0.193011 -1.0948373 0.16434993 0.124876514 0.068848364 0.3203858 0.35489774 0.3531245 0.36208376 0.23464824 -0.22090924 -0.789011 0.70894676 -0.18423149 -0.35056823 -0.17315426 0.06743141 0.46094105 0.34386623 0.5557999 0.4863115 0.6066444 0.26813543 -0.61816543 -0.5796651 -0.22458987 -0.098792486 -0.026000736 -0.65178615 0.77006483 -0.65812916 0.3843222 0.48966202 0.82036245 -0.025169702 -0.74298024 0.49607852 0.5486616 0.8287039 0.018680913 -0.40026477 -0.36356553 0.28363755
6 -0.33473292 0.14266425 -0.25683668 -0.03115561 -0.09573449 0.014026966 -0.04514744 -0.50989544 -1.2096359 0.2213929 0.5230146 -0.7635809 -0.5331847 0.0308141 0.16754031 0.050108925 0.50010514 -0.6284365 0.4190832 -0.26372594 0.7113311 0.3845969 0.19808626 -0.30077085 -0.29078764 0.7908371 -0.63339764 -1.1123645 0.059364684 0.43806306 -0.110492416 0.4046716 1.1498065 0.14123006 0.365231 0.25269827 -0.18218526 0.44821185 -0.19330218 -0.4339368 -0.34169796 -0.49492857 0.24626473 0.66040015 0.034816585 0.024552455 1.0559448 -0.31677723 0.08115507 -0.37606305 -0.18433458 0.37756437 0.7950187 -0.13369064 0.10384717 -0.339025 -0.29003245 -0.36389792 -0.8343035 -0.39659524 0.16106269 0.4423558 -0.12728019 0.549857 -0.113692336 -0.44616115 0.2016391 0.1307416 -0.25631854 1.1149765 -0.47191992 -0.09127754 0.88007516 0.17250748 0.8646838 0.77621675 0.048604153 0.71010953 -0.6811982 0.26807937 -0.42182255 0.21220775 -0.43162096 0.1675891 0.2098078 -0.20302679 0.642781 0.0035345303 0.1089844 0.17257282 0.66326797 -0.503826 -0.18952945 0.3331665 0.28280887 0.79238915 -0.7983767 0.13190754 -0.09289841 0.4202846
北京 0.5490146 0.3927321 -0.33992007 0.036156554 -0.6192575 -0.6790941 -0.22468162 -0.37792507 -0.31532413 -0.07504628 0.18668288 0.12560746 -1.115807 0.20677502 0.14203689 -0.40593967 0.1388114 -0.029672623 -0.10598002 -0.2729841 0.38212094 0.09041846 0.20111144 -0.22521487 0.098093696 0.646823 0.66925764 0.122546904 -0.059116416 -0.3592138 0.5368447 0.24821039 0.028814433 -0.96766555 -0.018793989 0.15331824 0.8073062 0.2591814 0.114944115 -0.047917806 0.4110251 0.32263684 -0.3187397 0.11680038 -0.49715343 -0.83743817 0.06367526 0.24476172 0.0868567 -0.11520507 0.19113691 0.29690158 0.57584345 0.0624601 0.41670188 0.5177915 0.23610209 -0.10122733 -1.0728639 -0.62606376 -0.48668656 0.38420692 0.26474398 0.026968906 0.027965352 -0.24383232 0.5303626 0.04875692 -0.7645879 0.39257613 0.17681785 0.39146972 0.8267756 -0.46073806 0.026394198 -0.49968418 -0.73751587 0.8432833 -0.19502905 0.14179653 0.28892198 0.041854847 -0.57454616 0.13680072 0.75705355 -1.0126449 0.863603 1.0429627 -0.46414104 0.14170082 1.3690376 0.3825468 0.025671115 -0.07864603 0.11309957 0.95082676 0.9645399 -0.40283978 -0.2342716 0.23180437
模式 -0.64327806 1.424141 0.15769164 -0.49603456 0.2201001 -0.3376499 -0.06244933 0.41340828 -0.34401518 -1.2433 -0.4437972 -0.35077727 0.6157249 0.18595321 0.22695155 -0.8386759 0.37735152 -0.21503964 -1.0945723 -0.7296015 -0.14733784 0.07115571 -0.14460465 -0.39179176 0.64890957 -0.5352565 -0.36079973 -0.8823127 -0.8259135 -0.06476797 0.39917323 0.2485997 -0.4189182 -0.05286551 -0.52077794 1.1720892 0.024989482 0.72631454 -0.5469905 -1.0968008 0.26027957 0.06277481 -0.008738194 -0.38712734 -0.4966175 -1.1820358 0.7883096 -0.60717726 0.717601 0.12628828 0.9371548 -0.23388089 -0.5069989 0.11384234 -0.9013156 0.33555007 0.4777494 -0.88044804 0.033904437 0.55637574 0.50340134 0.49005523 -0.0969764 -0.3914482 -0.3678757 0.14708352 -0.2701454 -0.34577987 -0.78469247 0.6102131 0.626069 0.57721806 0.22051954 0.95146894 0.4982701 -0.18253875 0.7346254 0.7264136 0.008576023 -0.73134595 0.58860964 0.21155477 -0.90909755 -0.5335033 -0.21255623 0.22769894 -0.2808581 0.7488493 0.26182944 0.028159447 1.1018937 -0.4742361 0.22167246 0.46729928 -0.25343844 0.32436994 0.0034334871 -1.1238635 0.37611508 -0.14006273
几月 0.12148791 0.6128699 -0.6545805 -0.88593066 0.4026841 -1.025287 0.54731345 0.86371344 0.19050822 0.010425728 0.023550125 0.3230037 0.14562729 -0.09010455 0.65506387 -0.39351842 0.3646728 -0.3715538 0.025293889 -0.618897 0.8069959 -0.55809385 0.55861896 -0.97082096 0.021504277 -0.2345324 -0.09178541 -0.38075534 -0.27546674 0.029306844 -0.22214782 -0.55159783 0.1298987 -0.56771505 1.3428041 0.25989175 -0.16704632 0.058538146 0.5339999 -0.5802255 0.18828675 -0.58048856 0.19297543 0.13068366 0.49850345 -0.9592619 -1.1893507 1.0853542 -0.1267348 0.5060976 1.0764941 0.8462478 0.33309445 0.48159865 -0.64541835 1.0719998 0.71222377 0.6930442 -0.15871404 0.41491678 0.3399904 -0.1529151 -0.18547282 0.43632486 0.2163183 1.0382389 -0.31919137 0.5825265 -1.0986065 0.16977821 -0.37087032 0.6677059 -0.27117005 -0.42445493 1.1493596 0.14834021 0.0149129415 0.32597268 -0.017940572 -0.03460321 -1.2761095 0.8275557 -0.11747903 0.53670734 -0.6131409 -0.83589715 1.1954148 0.36871406 0.7334758 -0.008582553 0.8017001 -0.6846349 -0.22095014 0.36422676 0.17893235 0.28670898 0.32033646 -0.51017886 -0.7186452 0.22282228
8 0.25290272 -0.2677334 -0.35365638 -0.524562 -0.07873407 -0.5980794 -0.7605279 0.43033528 0.31774104 -0.052182928 -0.05498391 -0.06296984 0.62853354 -0.12630881 -0.2670819 0.5611444 0.14113657 -0.5671465 0.766239 -1.120449 0.20518863 0.3727259 0.5949045 -1.0541917 0.088566564 0.6523041 0.4981673 -0.5247972 -0.09367796 0.027133875 0.06914167 0.6937509 0.8799909 -0.8918393 -0.097460955 -0.2097031 0.21330331 -0.6482836 -0.3419154 -0.8703299 -0.5736984 -0.28944105 -0.047988214 0.27059245 0.7653693 -0.24627607 0.7688796 -1.0693504 0.34042475 0.042741697 0.7036714 0.8020009 0.58719677 0.10537453 -0.3144841 0.45921406 0.10211543 -0.2801054 -0.1047619 -0.008551642 -0.257426 0.45460504 0.23602729 0.25690195 0.17671853 -0.31932318 0.13612005 0.07303799 0.02697543 0.06186835 0.52420115 -0.2531831 1.1487498 0.1860925 -0.68204844 0.03107235 0.44240338 0.24899568 -0.36883405 0.2714604 -0.388588 0.5499461 -0.34288603 0.22969826 -0.29088598 -0.6761318 0.18171471 0.6374344 0.33930296 0.34925017 1.1391664 -0.2749054 -0.5879115 0.75702876 0.4640672 0.7851789 -0.36864543 -0.21835689 0.3781863 0.090343244
广播电台 -0.011950683 0.37674162 0.13614742 0.75117403 -0.31320414 -0.5307552 0.52406216 0.28789616 -0.028419985 -0.51696956 -0.1653181 -0.21290131 0.59051514 0.11735859 0.15429597 -0.09768636 0.26558694 -0.8683921 0.20849024 -0.32118332 0.17783202 0.48147443 -0.29013395 -0.38082868 0.046736002 0.55347395 -0.11359984 0.4993211 -0.68779045 -0.011068495 0.09251635 0.36444122 -0.2997004 0.027041817 -0.3082418 0.56507504 0.3939129 0.6730907 0.5888532 -0.59487957 0.67029566 -0.5278532 0.10771554 -1.3054447 0.9831158 -0.6519044 0.0488274 -0.57927287 1.3816587 -0.082965635 -1.2809305 -0.14221828 -0.4879775 -1.2828788 0.25418904 -0.5652263 0.44025442 -0.61612654 -0.13279748 0.4444059 0.79859704 -0.30691808 0.82123303 0.030102331 -0.4785604 0.36575076 -0.6953522 0.59088373 -0.59315425 0.24601994 0.65863216 0.22791606 0.6384894 0.08247575 1.0477866 -0.36481583 -0.65745205 -0.1783191 -0.39246142 -0.73652893 0.07086834 -0.2676425 -0.09270779 0.9749597 -0.5420021 -1.552055 0.5886891 0.50842386 0.9572589 -0.22669798 0.44205937 0.37128586 -0.20423602 -0.2474614 1.0590166 0.16595681 -0.47867924 0.26813352 -0.025195258 -0.1326301
晚上 0.30123487 0.8617597 -0.09485285 0.27863225 0.6699253 0.5172495 -0.35712266 0.7394435 -0.39046937 0.352193 -0.6177466 0.37388942 0.26076493 -0.047449145 -0.18857442 -0.37674403 0.7169534 -0.19959597 0.060293134 0.15980965 -0.5354245 0.3077123 0.22041701 -0.7488263 0.0008471821 -0.6165993 -1.2075766 0.18858264 -1.2135556 0.8614874 0.15359327 -0.6291182 0.6301365 -0.5010892 0.22424938 0.61930466 0.107744195 -0.3805431 -0.7496692 0.03778313 -1.1513308 0.031008696 0.22068119 0.27508685 -0.21922418 -0.41676658 -0.29453492 0.07605987 0.26903915 -0.09232228 0.008831151 -0.9437272 0.14694881 -1.0101703 -0.0035214606 -0.29787368 -0.07353515 0.40957567 -0.9945241 -0.9886236 -0.31802016 -0.51605886 0.53242433 0.6603624 0.49457148 0.1598897 0.3947748 -0.45323658 -0.8839337 0.21843764 0.663649 0.79433626 0.53654104 -0.65464175 0.11864252 -0.122174785 0.24643213 -0.1683546 0.6993681 0.104281895 -0.5105326 -0.16746183 -0.3516055 -0.45244646 -0.23050098 -0.36107194 0.42800978 0.66366756 0.7966604 0.5655724 1.2670839 -0.28676498 -1.0499613 0.32590792 0.048867002 -0.024566418 0.18459679 0.38069797 -0.058352813 -0.20268296
上午 -0.36843768 0.8085144 -0.43231192 0.27385232 0.002223688 0.19744617 -0.3160467 0.5923767 -0.8482034 -0.03495634 -0.522504 -0.24788952 0.8014561 0.46879217 -0.5526371 0.4167617 0.6003525 -0.86873996 0.30716744 -0.9694862 -0.44789696 0.12638578 0.2573798 -0.5244084 -0.1799916 -0.120124765 -0.5555886 -0.36617297 -0.7372436 0.3594023 0.1318727 -0.19090387 -0.14285585 -0.9897382 -0.12670001 0.43003014 0.013484454 -0.440075 -0.48573527 -0.38612002 -0.39140925 0.38932058 -0.02753456 0.1799341 1.1643274 0.1548417 0.06438268 0.11005044 0.49058995 -0.02045586 -0.15140863 0.05535792 0.90005374 0.37951326 0.2534042 -0.020148447 -0.23680238 -0.02801191 -0.6274628 -0.39513275 -0.38007015 0.31280348 -0.6420422 0.9904518 0.63797575 0.25134754 -0.057729855 -0.80960345 0.022090686 -0.12316914 -0.15948437 0.05486021 0.40385413 -0.006266363 -0.043746762 0.028118389 0.28497678 -0.30126795 0.6555526 -0.4143407 -0.77586937 0.22534269 -1.0660055 -0.20587982 -0.59162104 -0.80949247 0.80638987 0.8052033 0.44089472 0.13974868 0.52647823 -0.70929784 -0.87953556 0.63990664 0.087152585 0.7288013 -0.06613419 -0.3869669 -0.026199501 0.16189955
循环 -0.37632763 -0.28343815 0.034634203 -0.3741686 0.34336182 -0.08974181 -0.19945386 0.0942925 -0.30102515 0.67853975 -0.9894695 -0.77960044 0.10106818 -0.4711463 -0.27567884 -0.06892102 0.18724373 -0.82755774 0.0008057629 -0.286825 0.3932307 -0.078816935 0.5225936 -1.0261693 0.42755327 -0.63886046 0.13593358 -0.5953636 -0.8387721 -0.21308957 0.054126617 0.6404843 0.45668054 0.08291019 -0.8708151 1.0382913 0.1479339 -0.17831755 -0.8712686 0.1538387 0.6377173 -0.2952756 0.31234112 -0.5928918 0.12497649 -0.27407357 -0.6343571 -0.6607262 -0.68013906 0.56730276 -0.116313934 0.102156684 -0.6635234 0.15119094 0.016269214 -0.8358788 0.8768375 0.98083353 -0.2772915 0.022902641 0.55992424 -0.26008287 0.21417525 -1.8519888 -0.1523593 0.78592277 0.4876246 0.14997846 -0.6591132 -0.082679875 0.22783005 0.6405622 0.6932408 0.13627467 0.9045609 0.20513535 0.5237326 -1.0612173 -0.74183893 0.44796443 -0.37164494 -0.43169197 -0.1155955 -0.20365506 -0.006541247 -0.45345485 0.9658824 0.7591507 0.12268933 -0.2892248 -0.44249135 1.012435 -0.04160904 0.5307466 1.2219265 0.80891854 -0.010334458 0.5663947 0.29208872 -0.15577143
之声 -0.09215464 0.70245063 0.16612956 -0.18643133 -0.0018549068 -0.438321 -0.2301889 0.5431652 0.008226694 0.17154768 -0.20319368 -0.6531206 0.2916204 1.2059487 0.28197077 0.09392875 -0.33550352 -1.1237915 -0.22453772 -0.9277027 0.8087078 -0.2437255 0.6283833 -0.4886433 -0.9490563 -0.28348917 -0.34650314 0.1929584 -0.6760911 -0.09865545 1.0189862 -0.35201165 -0.03336937 0.56891173 -0.47195956 -0.082516335 0.2827205 1.1770564 0.41691005 -0.70120084 0.33374846 0.77936894 -0.5474286 -0.83561414 0.57380897 0.2995791 0.8330863 0.35526747 -0.38120654 0.021177836 -0.6313636 -0.37089798 -0.35391012 -0.17272656 0.85701716 -0.028250173 0.78464603 -0.01653274 -0.83539486 -0.09438819 0.78989667 -0.22324382 0.117811546 0.43233755 0.57562613 0.41392577 -0.5289826 0.34689632 -0.785547 0.20955685 -0.3088371 -0.65539217 0.2601569 -0.35850722 0.83889127 0.39016762 -0.8248581 -0.619366 0.3052104 -0.7325147 -0.03528066 -0.22131869 -0.46092677 1.1746292 -1.016673 -0.71779644 0.51247656 0.047731504 0.7653674 -0.16500427 1.3597053 0.1038729 0.055167936 -0.19176236 0.83785623 0.6469745 -0.6266529 0.04537504 -0.23108461 -0.41376132
主持 -0.42013094 0.26787323 0.07986485 -0.52147406 -0.20808218 -0.6219653 0.6377733 1.2071269 -0.20522879 -0.084045015 -0.2212466 -0.9078444 -1.1067197 0.8814435 0.06754362 -0.16963758 0.41983268 -1.0315789 -0.7363241 -0.16606039 0.51676947 0.41772968 1.1665384 -0.81629366 -0.25567958 -0.29087824 -0.5195436 0.25537264 0.2965302 0.06306442 0.34957594 -0.2695921 0.8322703 0.3608067 -0.5790222 0.15122068 0.07300175 0.2634788 0.45662424 -0.7399889 -0.67809457 -0.20689307 -0.39786804 -0.20645367 -0.055474438 0.2597892 0.16069913 0.29530177 0.14134002 0.7826158 0.2607931 0.056190286 -0.17528912 -0.35345495 0.8518055 -0.29446006 -0.018995538 -0.16045281 -0.012029351 0.62361187 0.22168964 0.38997862 1.1347426 -0.57708466 0.3594882 0.5596606 0.26725644 -0.049000356 -0.10136715 0.9723804 0.053122453 -0.7224905 -0.11321785 -0.3139224 -0.57163346 0.028854715 0.20273338 -0.81481475 0.9904711 -1.1252314 -0.3832353 0.11155448 -1.241065 0.5886805 0.41287503 -1.0630469 0.63794726 0.29924765 0.049168482 0.57023615 0.8474965 -0.19663449 -0.61881876 -0.8302996 1.5330983 0.62081 -0.26940203 0.41024724 0.09541294 0.20563696
音乐 -0.43593153 -0.27286288 -0.3994197 -0.6772843 -0.5481801 0.4199975 0.67899656 0.6393015 -0.21563254 -0.07810677 0.059758764 -0.7480493 -0.109168895 0.41223696 -0.77169037 0.2660354 0.33130065 -1.4678518 -0.5340272 0.0804118 0.9162481 0.01881879 -0.5593638 0.07796655 -1.0925049 0.028830517 -0.29322174 0.36703962 -0.4973118 0.8070549 0.49560505 -0.103535235 0.5728787 -0.033088 -0.5784509 0.42560953 0.09587012 -0.030474784 0.57584584 -0.68309146 0.8803138 -0.09784851 0.38768396 -0.4867773 0.021622103 -0.23908576 0.26610112 0.011162365 0.17695633 -0.04752176 -0.212239 -0.6156694 -0.0053277495 -0.32451427 -0.42585513 -0.03509419 0.8397982 0.50021833 -0.6375769 0.31192648 1.2185056 -0.44253024 0.68984044 -0.96894336 -0.016939024 -0.76820177 0.3422696 -0.1657134 -0.68248886 0.049033165 0.24431768 -0.39955577 -0.18201646 0.8741163 0.94705373 -0.15480441 -1.1083692 0.7171057 -0.028492987 0.14907989 -0.037170507 -0.42703095 -0.32163924 0.24767223 -1.0110203 -0.3430172 1.1749913 -0.30931604 0.37409338 1.4576434 0.95851845 -0.023736069 -0.087247156 0.26477325 -0.027438506 0.05203645 0.51947176 0.3281933 0.32611525 0.40940505
温度 0.4416886 -0.11079102 0.079414956 0.08305618 0.3378604 -0.038911905 -0.9776066 0.85172045 -1.255517 -0.08272688 0.27325282 0.6041081 -0.52284867 0.8372999 -0.20352449 0.27283987 -0.6933116 -0.16531141 -0.6146902 -0.71421385 0.31550923 -0.08463819 0.63183737 -0.7180097 0.31240425 -0.13509724 -0.3957569 -1.3068116 0.2644027 0.55319375 -0.057830922 -0.49080747 0.7025127 -0.3737982 0.19476269 0.98939365 -0.40483877 0.27826717 -0.20908208 -0.63985527 0.86838824 -0.36814713 0.021267341 0.5522662 0.94624925 -0.7066024 -0.0812803 -0.26730347 0.27301458 -0.15588255 -0.3757222 -0.06900808 -0.44235823 0.21673064 -1.5818101 -0.7047764 -0.03336064 -0.22496067 0.38336596 -0.25876606 0.43261385 0.4732018 -0.36236915 0.31878766 -0.6208408 0.77501607 -0.17575274 0.63734484 -0.2665489 0.68090236 -0.18470725 0.025657745 -0.057588957 -0.758634 0.437035 -1.218881 -0.41663724 0.7500899 0.47808447 0.6586246 -0.12891458 -0.10542354 -1.1426038 0.22593082 -0.7008496 0.2043425 0.05992255 0.058157776 0.27820098 0.18380955 0.49935588 0.40536657 0.58807945 -0.6337198 0.9726172 1.4599969 0.069894716 -0.62992644 -0.64550585 -0.14400531
2 -0.14542805 0.1174654 -1.0278131 0.1010514 -0.78689665 -0.7740746 -0.32867843 0.20570652 -0.40800226 -0.30966425 -0.2810711 -0.3005247 -0.3845458 0.080231726 0.10033143 0.5772871 -0.3347902 0.68646896 0.54652655 -0.38007587 0.78113353 0.39578447 0.5867699 -0.3962776 -0.5203832 0.29833728 -0.09572671 0.26667282 -0.24270713 -0.12032657 -0.54429185 -1.1383938 0.8668448 -0.6231879 0.4012848 -0.26725292 -0.15583067 -0.3956991 0.31192487 -1.4052562 -0.4937984 -0.37917572 -0.24735115 -0.19243063 0.5269327 0.3517375 0.8682052 -0.1982114 0.30529478 -0.4036325 0.4241314 0.49123216 -0.5891532 -0.50439745 0.3945583 -0.7210357 -0.26161507 -0.18942493 -0.2618814 -0.17612414 0.8869024 -0.5898909 0.04841781 0.16067912 -0.6906235 0.7243491 -0.16129573 0.5437709 -0.37211463 0.530229 0.25446835 -0.4775375 -0.069257565 0.94984066 0.43522152 0.94836617 0.6672035 -0.13432214 0.43002144 0.7657773 -0.49496832 -0.0860451 -0.7094839 0.14395197 -0.7838355 -0.16541521 -0.6082931 0.5690988 -0.28671372 0.028841708 0.057099435 -0.21214259 0.0046909605 1.0823032 1.3352646 0.50877994 0.58428526 0.25592652 -0.7790985 -0.26872826
动漫 -0.88517493 -0.0543581 0.44848195 0.89552647 0.36996663 -0.5809505 0.22369115 1.3472308 0.39258406 -1.1241018 -0.14284162 -1.1057162 -0.7510715 0.12791403 0.6560361 0.13864745 -0.25338876 0.1569391 -0.31218508 -0.04964089 -0.5369454 0.27517933 -0.5281309 -0.8656539 -0.7398193 0.13592957 -1.3284618 -0.051844187 -0.43266574 -0.19133078 -0.18925422 0.22229278 1.3145725 0.037430573 -0.20947732 0.94252026 0.009083827 0.3436883 0.201233 -0.46241707 -0.02403761 0.040847294 0.62215066 0.06605105 0.3368642 -0.2357059 -0.22754934 0.9355406 0.07317785 0.40163875 -0.057574127 0.25634673 0.7844003 -0.2690288 0.18767913 0.8850189 0.39613423 -0.8906949 0.31101793 -0.05995614 -0.19810018 0.57287586 -0.7838571 -0.027672127 -0.84403574 -0.1530813 0.81192756 -0.103014484 -1.2369255 0.04945778 0.9572926 0.30273417 0.9356025 -0.050400924 1.654849 0.5534277 1.0754498 -0.4603862 0.81416345 0.008782241 -0.2462072 0.67488354 0.4455541 0.3402308 -0.3254857 0.08387895 0.58492213 0.3790672 0.55012643 -0.35194764 0.43496197 0.06433742 -0.13198271 0.41967884 -0.5033093 1.103215 0.24138786 0.7542041 0.5390429 -0.113809556
后天 -0.12609841 -0.8815187 -0.46484014 0.17892453 -0.79304796 0.15081657 0.26956674 0.30932146 -0.24465923 0.2118308 -0.57630956 -0.20794502 0.3124605 -0.42062762 -0.90616703 0.16033116 0.23027611 0.16610211 0.04410848 -1.0605311 -0.28955102 -0.2197828 0.52705646 -0.39810982 -0.45191613 0.18834037 0.26048705 -0.7640681 -0.50963545 0.19619831 0.5406538 0.74893683 0.5073071 0.47421554 0.46755204 0.6069212 -0.70517576 -1.1883444 -0.2946086 -0.37555116 0.6050507 -0.3145959 0.0625379 -0.4692391 0.49050945 -0.56527466 -0.25645038 0.8051551 0.26849765 -0.3257463 0.45999667 -0.5844336 0.09951806 -0.31771743 -0.83232397 0.103274204 -0.7671589 -0.6134293 -0.4836266 -0.7936423 -1.284895 -0.7073813 0.21562035 0.8752375 -0.059220605 0.0690362 -1.1131419 0.036622044 -1.0804514 0.6228433 0.049654942 0.57345575 0.8945804 0.24891764 1.1327423 -0.30144215 0.36023566 -0.43952638 -0.9933842 -0.36198622 -0.68718076 -0.78850687 0.15161648 0.109935716 -0.6587591 -0.42369708 0.59224856 0.2777985 0.22965118 0.47975588 -0.31787613 -0.14678182 -0.15680446 0.063841045 0.86416423 0.5497449 0.5058329 -0.3477671 -0.13054691 0.4920983
人民 -0.3280669 0.13948196 0.016705498 0.65931135 -0.31885168 -1.0722867 0.08435542 0.48523617 -0.35300434 0.22751375 -0.5236962 -0.7987024 0.61239165 0.11288147 0.4269352 -0.73407453 0.46642002 -0.2209621 0.49248776 -0.09355655 0.5910476 -0.111426026 0.19233955 -0.801118 -0.47492272 0.5062405 0.12345287 -0.2950875 -0.6688637 0.25354904 0.19752195 0.7365223 0.25288177 0.2697995 -0.45245406 -0.5948924 0.53267455 0.60079914 0.21029547 -0.7199403 0.74156076 0.18210644 0.09794658 -0.9058563 0.026471313 -0.43759015 0.46633956 -0.39182058 1.4872152 -0.8173465 -1.1002461 -0.2830993 -0.17560816 -1.0215417 0.68314195 -0.85938996 0.75384325 -0.26548555 -0.5409272 0.9511453 0.48358867 0.5398943 0.6887658 0.20959733 0.42789638 0.94771415 -0.25575763 0.037222978 -0.62556785 0.3385297 0.21007214 0.23157313 0.6154401 -0.63170075 0.8090816 0.02455911 -0.3258701 -0.26547343 -0.07255044 -0.6772446 0.1223661 0.46548146 -0.333711 0.45135128 -0.29163378 -0.7038978 0.3534562 0.9008522 1.1892179 -0.105807245 0.45934534 0.250304 -0.50566566 -0.74860567 1.0916967 0.027854528 0.120690115 -0.38228673 0.1562983 -0.29281542
中国 0.22262004 0.18753785 -0.63592106 0.39975083 0.21014567 -0.81506914 0.49521828 1.2140115 0.24712238 -0.4700861 -0.75078005 -0.25965092 -0.18672803 0.5047174 0.5469976 0.36041954 -0.10391753 -0.17944834 -0.32904205 -0.09799193 0.93928266 -0.13308783 0.20030896 -0.12156552 -0.40187284 0.9784501 -0.8929385 -0.19537859 -0.53546894 0.54590434 0.99926174 -0.027809467 -0.5210385 0.12505697 0.53824383 0.09825667 -0.08382212 0.25883573 -0.31385902 0.45307603 -0.88028 -0.45428458 0.10574809 -1.018847 0.8299705 -0.04131974 -0.36713725 -0.6657992 0.026129993 0.115831904 1.0007312 -0.10054113 -0.16918992 -0.61647594 0.41755936 -0.59519184 1.44064 -0.09290815 -0.33248532 0.48782766 0.32473844 -0.65201527 0.5960809 -0.22281905 0.43652415 -0.2923318 0.36123616 -0.054599937 -0.3236729 -1.0005035 -0.019269668 0.3883941 -0.9367772 -0.30185473 0.57585937 0.87508845 -0.30443105 0.24204637 0.14515875 0.8739019 -1.0411397 0.5666367 -0.5073418 0.7919158 -0.6824022 -0.29944438 0.18448454 -0.60416883 -0.32753295 -0.5149611 1.3596917 -0.025369281 0.090826035 -0.123397134 1.0358317 0.5148642 -0.13676883 -1.2153699 -0.19065216 0.5888595
？ -1.0438755 0.5343425 -0.8467799 0.044774044 -0.40688887 0.19606179 -0.28544673 0.16501196 -0.45089027 -1.0439775 0.7698217 -1.1098546 -0.79570013 0.19197159 -0.5261426 1.0325879 0.71668804 -0.07828918 -0.46521384 -0.79310685 -0.18713734 0.23205957 -0.1961779 0.35583737 -0.3340225 -0.1999561 -0.32322243 0.082780875 0.5762885 -0.22796875 -0.015475143 -0.3591825 -0.15309377 0.4654363 0.13923126 -0.27577907 0.307804 -0.01415567 0.37482417 -0.42087358 0.84033984 -0.49778473 0.35718516 0.6999884 0.2195509 -1.0092195 -0.9771708 0.0751556 -0.008243804 -0.26423794 -0.0022973532 -0.10096205 0.34661555 -0.332749 -0.69712895 0.81640524 0.022139776 -0.23576002 0.38888416 0.050413635 -0.098159164 -0.44061637 -0.6022242 1.1019487 0.14718576 0.98519826 -0.0026214824 0.40471718 -0.42257267 -0.34619004 -0.45369598 0.29164067 0.8757624 -1.1549605 0.9718656 0.50090694 0.44391918 0.20623405 0.18158484 -0.40142736 0.17877778 0.24881321 -0.9200834 0.5148049 0.5701083 -0.26051027 -0.005913017 -0.26374418 0.06021018 -0.11787934 -0.05067726 -0.11166428 -0.9593782 0.0665078 1.0071657 0.68348384 1.024929 -0.10139993 0.5666727 0.6671618
好 0.45059463 -0.1256036 -1.2079942 -0.52635825 -0.118999705 0.43393767 -0.3619211 0.83402383 -0.10313004 -0.9929855 0.1592909 -0.7066679 -0.38570327 1.1164321 0.27741572 -1.3051807 0.008352506 0.5730928 -0.8545668 -0.32036093 0.4506983 -0.958483 0.2991784 -0.5804615 -0.46113706 -0.7584586 -0.14529358 -0.9183515 0.17013471 0.4856088 0.3963643 -0.92088073 0.34038445 -0.52760446 -0.06588682 -0.3026649 1.3504394 0.26511982 0.0067981826 0.4492975 -0.30191982 -0.67177266 0.3303653 0.076778434 0.008113999 -0.6515512 0.25646156 0.49330768 0.3399226 0.5870909 0.8333544 -0.9947863 -0.9986935 -1.023708 -0.24299845 0.23010579 0.121847786 0.7641578 -1.0513747 0.03074071 0.6184816 -0.14114983 0.112020195 0.30436355 0.48763323 -1.1898851 -0.16667935 0.27174562 0.44837227 -0.08398783 -0.32952562 0.7574045 1.148867 0.41633707 0.19852437 -0.14539014 0.006006597 -0.94673115 -0.2761253 -0.43103495 0.22953685 -0.6433094 -0.41303292 0.76506865 -0.8657162 0.6917434 0.17567961 0.73881745 0.4825503 0.2823778 0.28686208 0.6732189 0.056967806 0.45331424 0.16532469 0.04137159 -0.66646916 -0.32035896 -0.07216679 0.23585106
歌 -1.0278718 0.07974314 0.064044215 -0.41647464 -0.3625709 0.24861138 0.2057803 0.52505314 -0.46257043 -0.5935803 -0.27231506 -0.84070057 0.27518204 -0.65161204 0.5719315 -0.6436552 0.6288649 -0.66930604 -0.031736564 -1.1440665 0.42350376 -0.4006191 -0.19717422 -0.23723951 -0.5537146 -0.60409117 -0.5080373 0.21348636 -0.84566617 0.60647637 0.15266815 0.069839224 0.1350728 -0.25459358 -1.067371 0.29147133 -0.35261002 -0.2584357 0.008742819 0.29952386 0.9550214 -0.90879744 -0.14582393 0.3070922 0.04010936 -0.361593 0.2868263 -0.45717493 -0.335438 1.269224 -0.2960564 -0.048103053 -0.19770703 -0.6845236 -0.01328356 0.091119714 -0.07846481 0.117339164 -0.55048215 0.5076588 -0.25600204 0.0070643076 0.21350218 -1.0050902 -0.48745924 -0.42677674 0.64224416 0.49179968 -0.18374851 0.18523403 1.2573392 -0.111206874 0.44782412 -0.15222129 0.79099554 -0.11082355 0.054181144 0.09091968 -0.58515865 0.094275765 -0.17355697 0.5728076 -0.63367516 1.2918285 -0.39186904 0.13081664 0.14926428 0.52997077 0.2045366 -0.65896165 0.7344436 -0.6578161 0.48615944 -0.48602587 -0.13893169 0.41966045 -0.058167882 -0.45601115 -0.59576076 -0.3493764
12 -0.4161796 -0.30342793 -0.2859043 0.253423 -0.024235854 -0.8098961 -0.73201716 0.36348507 -0.44302255 -0.117092445 0.07744964 -0.19557682 0.26364005 0.26322448 0.5997206 0.18361187 -0.12631512 0.41943708 0.27521735 -0.3462523 -0.3740369 -0.07783199 0.4680504 0.038761813 -0.29050875 0.2548899 0.24443771 0.5625325 -0.87574404 0.9468813 -0.0053476496 -0.32731628 1.588227 -0.032463357 -0.08726761 0.5032777 -0.031291597 0.4498135 -0.023429068 -0.017544903 -0.18228877 -0.50765425 0.34250256 0.404133 -0.032540772 -0.0900991 -0.38325542 -0.051553614 0.093790844 -0.09840132 0.9775723 0.21597487 -0.019981736 -0.004286593 0.17151128 -0.05332793 0.41895577 0.025214378 -0.8989622 -0.91583 0.43646485 -0.17452776 0.08021603 0.63083774 -0.31053442 0.34386194 0.074441485 0.5206901 0.01650206 0.83174276 -0.31999525 -1.3659813 0.71790946 0.007378431 0.64423627 0.4462273 0.50774807 0.86295176 -0.01136078 -0.04434989 0.16060461 -0.27543473 -0.769961 0.5647587 -0.026933085 -0.39915523 0.1514504 1.4813138 0.62454784 -0.0043824255 1.1376328 -0.44941092 -0.5973099 0.17439756 0.16204473 -0.21893051 -0.3686502 0.19506536 -0.6066198 0.29770938
调到 0.41559073 0.64207876 0.3326266 -0.18242678 -1.118318 -0.28798354 0.39294153 0.027580675 0.12874705 0.7940965 -0.3702764 -0.17114949 0.123852104 0.05478084 0.80377924 -0.54217964 -0.10009864 -0.5086735 -0.32362565 -0.6515301 0.6542765 0.11316307 0.4707291 -0.34890106 0.13361065 0.13403003 -1.2750808 -0.10296023 -0.27512836 0.68234575 0.13647054 0.90006703 1.0799456 0.3239469 0.24102782 0.7149892 0.7616602 0.69541776 -0.36009693 0.1749489 -0.09106084 -0.54363537 -1.3887227 -0.3099067 -0.4028586 -1.1051502 0.63277966 0.5573422 0.7516592 0.13254301 -0.37604624 -0.90101135 -0.2901864 0.55293566 -0.42278075 0.5886115 -0.24581154 -1.0737716 0.4079226 0.12030901 1.2387114 0.042115513 0.6436986 -0.32069525 0.05012264 0.7935 0.24991646 0.7553611 -0.99308324 0.9784717 -0.50235265 0.49781907 0.33572665 -0.33210337 0.03646243 1.1125042 -0.80194277 -0.5895551 0.1228097 0.46127242 0.57160497 -0.63379794 -0.3135066 -0.20840117 -0.2222724 -0.19533744 0.36259788 0.0015208672 0.073583834 0.15518159 0.6267971 0.063858815 0.107604705 -0.24403164 0.9847525 0.35217512 -0.27753913 0.2575135 0.049545858 -0.9857265
广播 0.049379088 -0.20712629 -0.4139181 -0.016455691 -0.21380082 -0.604381 0.47866368 0.6684532 -0.23938034 -0.6169481 -0.8777504 -0.72568285 -0.32371125 0.15736485 -0.5432751 -0.22360623 -0.03541305 -1.5766056 -0.07642873 -0.8883382 0.39649042 0.93733495 0.510931 -0.6422254 -0.32869413 0.5347319 -0.6102858 0.4178655 0.001622268 0.55214626 -0.050982483 0.9985895 -0.24222998 -0.015576808 -0.7730712 0.046999384 0.4620439 0.44293112 0.49767423 -1.3168635 1.0726973 0.31856325 -0.40261862 0.19936804 -0.024260761 0.53739613 0.036704935 -0.325673 -0.09585887 0.6040928 -0.63492686 -0.4476662 0.7085861 -0.73013705 0.0059727198 -0.40996602 0.0069067916 0.26704124 -0.2073146 -0.38792416 0.9742979 -0.16092272 -0.13925098 -0.513146 0.3490308 0.25499305 0.18145122 0.5595705 -0.69232446 -0.8992606 -0.3460572 0.054740503 0.8410627 -0.10740166 0.7742824 -0.3176814 -0.6935174 0.40104428 -0.43063524 -0.09438345 0.9093968 -0.82998574 -0.19945091 0.43382967 0.013268713 -1.2233154 1.2165179 0.05092224 -0.16653688 -0.21792372 0.48128563 0.024155669 -0.09025412 -0.3027738 1.325004 0.54330176 0.4483419 0.265894 -0.5514383 -0.35388616
设置 -0.18993342 1.1831528 -0.25123322 -0.52386445 -0.040814295 -0.23909375 0.27204123 0.40930656 -1.1631172 -0.19527572 -0.21721202 0.29673964 -0.29080325 -0.5247259 0.13121273 -0.5221988 -0.26357323 0.21024844 -0.011382021 -1.1422404 -0.42882594 -0.30314308 0.19170707 -0.2154791 -0.32564574 0.31909868 -0.46279785 -1.0392798 -0.96629196 -0.40084758 0.17108542 -0.61671114 0.061167993 -0.18140994 0.1084811 0.74047965 -0.15014145 0.43152997 -0.29298264 0.19111487 -0.14459874 0.0700337 -0.5197784 0.094833724 0.10157754 -0.37737948 -0.026174892 -0.27998054 0.81742334 0.16320053 0.08394671 0.41636574 -0.29474682 0.352068 -0.11197091 0.5364842 -0.4494074 -0.6092164 0.91896325 -0.021005841 0.31955993 -0.45704603 -0.23991689 -0.059618838 0.17168477 -0.027396481 0.7727438 0.30130127 -0.6515602 0.5773405 -0.093966216 0.018364785 1.2589004 0.5014575 -0.06725518 0.14049256 -0.45699146 -0.12235728 0.10950601 -0.5102895 -0.14567876 -0.16963406 -0.75373274 -0.09949169 -0.040522143 -0.1763666 0.23869632 0.1186602 1.3152977 0.6530859 -0.52566826 -0.9673083 -1.1627915 -0.35226583 0.5220467 0.68632627 -0.25361425 -0.19662932 0.26221946 0.45931596
节目 -0.20701294 0.15800421 0.039797015 1.4084119 0.13963822 -0.25157818 -0.61081445 0.94654804 -0.10518439 -0.34833342 0.27875262 -0.42331123 -0.37963837 0.67796403 0.338467 -0.409521 -0.0680043 -0.9387332 0.118944585 -0.8203003 0.09690012 -0.44515154 0.15038918 -0.46673837 0.6297043 0.74098015 -0.9030245 -0.21944976 0.047152415 0.28010157 0.33364487 0.21606295 -0.097613454 -0.9162265 -0.01667633 -0.2134037 -0.05537974 0.42335096 0.31730738 -0.7369349 -0.07508869 -0.098509885 -0.09483369 -0.29787233 -0.503935 -0.23050612 0.83172315 -0.4941044 -0.19060849 0.4779284 0.26084062 -0.54484755 0.41802663 -0.9367213 0.1026848 -0.1350667 0.75711 -0.59297806 -0.15110931 0.7080229 0.6780641 -0.6983621 -0.1100992 -0.75589 -0.15569748 0.2092298 -0.17847209 0.4763914 -0.23158547 0.2663136 -0.4765753 -0.48393092 -0.35682306 0.005508334 1.0272503 -0.10334593 -0.7235898 -0.28350285 -0.3086648 -0.36437768 0.3237809 0.23142757 0.40853822 -0.013892443 0.08603244 -0.8646038 1.0009773 -0.25368604 -0.22993004 -0.07036724 0.88221776 -0.19877826 -0.20783933 1.0313659 0.5316111 0.16087162 -0.15201163 -0.30929375 0.30724135 -0.92957
2021 -1.0122129 0.020659363 -0.44386122 0.49731147 0.14159243 0.3624431 -0.20321134 0.24097143 -0.26881844 -0.11439111 -0.20394391 -0.99112207 0.9455968 0.43280253 -0.059040993 -0.1556203 0.3478331 -1.2170821 -0.4233041 -0.17972124 0.10392866 -0.7857798 -0.1616133 0.37549087 0.30865684 0.3686515 -0.97447664 0.40363917 0.2685098 0.028338661 -1.207097 0.39321998 -0.4683142 0.2894095 -0.18837334 1.1278899 0.26274347 -1.2625283 -0.088741995 0.552663 -0.16368523 -0.7948248 -0.35003412 0.05843889 0.06240586 -0.9309493 -0.0091480585 -0.027055148 0.1820876 0.4782631 -0.13491826 0.40788934 -0.0024396488 -0.8254648 0.20244348 0.31513935 -0.17912333 -0.21042062 -0.037248466 -1.1068821 0.3166391 -0.30289003 -0.09286567 0.45409137 -1.070612 -0.32844836 0.4872965 0.28995076 -0.55688643 0.36371312 0.5703016 0.26795498 -0.29412118 0.39927584 0.6471944 1.0188804 -0.64855635 -0.7868943 0.16806643 0.59119076 -0.12720267 0.27559072 0.43754488 -0.50660336 -0.22176139 -0.59418046 0.0870558 0.79758906 0.5873735 0.3747182 0.27522543 0.6176525 0.104553185 0.24232137 1.4711199 1.1572896 -0.033463217 0.32347798 -0.47951472 0.29447964
上海 -0.39853263 -0.36667702 -0.82571244 -0.12508677 -0.32838237 -0.69246155 -0.37537315 0.11654399 -0.45524672 -0.3537636 0.36384934 0.03154338 -0.22416916 0.22639248 -0.5437386 -0.9792168 0.6236334 -0.675863 -0.10389104 -0.24744558 -0.099960685 -0.20268606 0.6860261 -0.68698686 -0.5045144 0.9419738 0.33120278 -0.16112734 -0.12225078 0.28509465 0.08109571 0.5594446 -0.21569504 -0.5757213 0.48918173 0.5917878 0.24958865 -0.03187569 -0.08735782 -0.33229297 0.44343534 0.545557 -0.9651698 -0.5358229 0.367991 -0.33392462 -0.31336272 -0.8128084 -0.384677 -0.98339826 0.022437813 -0.035134073 -0.19653574 0.048804432 0.92431957 0.78005105 -0.819862 -0.14435185 -1.3671492 -0.5328233 0.3539645 -0.46030658 0.08122591 0.06458962 -0.08495206 -0.014296618 0.29312912 0.43495244 -0.43095416 -0.10409455 -0.04841969 0.004333024 0.037887637 -0.36543795 0.3158029 0.7148353 -0.41023234 0.23569876 0.22961132 -0.13835171 -0.30322614 0.12740712 -0.52094877 0.9307993 -0.2279606 -0.60647863 0.7338906 0.8142823 -0.4128095 0.71474624 0.16365035 -0.41731164 0.93099725 0.8742282 0.76844394 -0.18751116 1.4291376 0.04515755 0.7608739 0.7087974
飞机 0.6587283 0.23929122 -1.1162035 0.0051680477 0.4893584 -0.78879476 1.1688111 0.5217678 -0.33564103 -0.17961928 0.54957366 -0.64298165 -0.6433262 0.37828663 0.03358323 0.46277043 0.55669194 -0.4938074 -0.38647956 -0.9437069 -0.7488334 0.25484306 -0.19053741 -0.41605398 -0.18347187 0.55385935 0.40715095 -0.032862402 0.41622066 -0.00090648164 0.67491597 -0.2427209 0.388617 -0.75281733 0.25484258 1.0381935 0.41358536 0.045834806 -0.42432907 -1.168 0.9254243 -1.3704526 -1.0118325 0.5196174 -0.31368452 0.1493196 -0.22837555 0.66721076 0.13475896 -0.92211086 0.08558245 -0.16967542 0.38402784 0.56669676 -0.5850614 0.4721105 0.29485348 0.5152997 -1.1837895 -0.57197034 -0.5420775 -0.25863373 -0.06537955 0.1903668 -0.045870394 0.39908093 0.10892728 -0.09518929 -0.6032357 0.37654614 -0.7462464 -0.61073995 0.39173216 -0.21624039 0.89934474 -0.37656596 0.28198963 0.7621686 0.15510358 0.4728227 -0.83482504 0.06595061 0.18013841 0.102591865 -0.69547117 -0.8979627 0.6390563 1.4696568 0.8801297 0.6667195 0.19915605 0.7190675 0.023992386 -0.49008107 0.21206772 0.27247906 -0.077942535 -0.43487448 0.2678127 0.55300236
新闻 -0.1123396 0.28471887 0.9104641 0.8447093 -0.45655888 -0.65688974 0.4618606 -0.060140427 -0.27271923 0.4188465 0.58733416 -0.51258785 -0.29134864 -0.08455682 0.92838496 -0.37785763 0.10006538 -0.4206377 0.007621104 -0.78209937 0.54761857 0.71130335 0.37068215 0.34735182 -0.13936 -0.07729328 0.0061509074 0.0367104 0.08350497 0.6693813 0.5706622 0.23450895 0.47873187 -0.20151621 -1.310668 0.5348498 0.14280513 0.6441571 0.23919736 -0.52722245 0.31456387 -0.49068537 -0.37321064 0.5094036 0.3095353 -0.4370561 0.5464037 -0.074861765 -0.1797493 0.32482836 1.08201 0.27338654 -0.23147227 -1.1466976 0.3382293 0.53676605 -0.21672137 -0.61707526 0.023399685 1.0162356 -0.35344657 0.42287385 0.059505623 -0.57147056 0.70714194 -0.08247735 0.13252889 0.56531435 -1.0859197 -0.5587658 0.32272312 0.47167003 0.035648007 0.07493767 1.3235688 1.1390781 -0.74901664 0.49059522 0.4905534 -1.0568414 -0.28595826 -0.25058094 0.17379017 0.9673485 -0.4693182 -0.110689044 0.4153347 0.21988794 0.6080924 0.31417468 0.66952795 0.4808579 0.40915886 -0.09445886 1.0434452 -0.8125369 0.43074486 0.27987853 0.8836901 0.22353084
早上 0.44825134 0.6875232 -1.3838159 -0.23834756 -0.0072603393 0.5590258 -0.53783274 0.73582 -0.6637593 0.483687 0.07189295 0.6607475 0.97218424 0.2586982 0.3534777 0.39434928 0.6049196 -0.07671492 0.09947055 -0.7679752 -0.80808544 0.6954427 -0.25507736 0.05132527 0.24615683 -0.21392167 -0.6959036 -0.6928745 -1.2598176 -0.11089274 -0.30365184 0.7915743 -0.008144104 -0.54348356 -0.07147607 -0.03153653 -0.42440662 0.19880113 -0.516291 -0.7610924 -0.23925109 -0.5222871 0.32513303 0.5067573 0.20268644 0.43994153 -0.1661968 0.31785795 0.34818408 -0.025307164 -0.31112507 -0.8400442 -0.3030529 -0.58537656 -0.8627777 -0.004401299 0.036578063 0.38531232 -0.8606345 0.37987277 -0.264598 -0.61055285 -0.3866545 0.576036 0.13016017 0.978171 0.61336255 -0.13372143 -0.65496415 0.79811674 0.6983287 0.025700161 0.5131013 0.2868091 0.26833385 -0.095066346 -0.059076685 0.58112794 0.8921282 -0.84736603 -0.24201027 -0.16556083 -0.392733 -0.17816459 -0.19639409 -0.78004295 0.41009143 0.39968377 0.5945806 0.1978093 0.74350023 -0.004753883 -0.2984213 -0.22999422 -0.07213804 0.16245115 0.2308871 -0.64901936 -0.27512547 0.33254218
播 0.06515154 -0.09053977 0.06689086 1.2641789 0.06442982 -0.15050113 0.48774678 0.5377936 -0.043072764 0.13038635 -0.26371735 0.13623272 -0.6314989 0.40543061 0.71162343 -1.0528442 0.0018545757 0.52199674 0.46011305 -1.0860282 0.59453493 -0.32440516 1.271428 0.072773755 -0.039632555 -0.20661399 -0.5068223 -0.29979813 0.24412343 0.9067229 -0.6489241 -0.08860403 1.0854695 0.13500646 0.8479045 0.98438287 0.3860146 -0.71536994 0.05012186 0.78008616 -0.14709651 -0.086680986 -0.307579 0.10591513 0.1687272 -0.521206 0.44593877 0.46710044 0.74364454 0.4947967 -0.24569611 0.4482795 -0.7714602 0.28592363 0.7333729 -0.09324063 0.18577091 0.3849281 0.41601133 -0.15744211 0.4066756 0.0033203866 0.27516067 -1.3222791 -0.3331439 -1.1377261 0.2738789 0.23222533 -0.7027104 -0.83265674 0.92847574 0.4754848 0.42619982 1.0932704 0.71150094 -0.21892555 0.4421279 -0.15378308 -0.6053721 -0.8359828 -0.2319321 0.8036535 0.113172024 -0.24918899 -0.3311413 -0.36586538 -0.1665339 0.9514192 0.77630395 -0.24231279 0.94544894 -0.25364557 -0.46205965 -0.34640306 0.499948 0.81898016 0.5106336 -0.77314955 0.11011633 -0.657757
类 -0.575548 0.26468623 0.6009253 0.6608762 0.43823355 0.09557576 0.80396056 1.1749012 0.35793293 -0.6422249 -0.054848664 -1.1758816 -0.4806992 0.17947966 -0.5548778 -0.1572987 1.1837624 -1.1375095 0.36689883 -0.26509884 0.11439826 0.5702256 0.09205263 -0.043962013 -0.42181036 0.26865795 0.29704666 -0.10545847 -1.0057608 0.7874965 0.80326736 -0.81037945 0.89944386 0.5289055 -0.42004085 0.67200255 0.74878263 -0.54644185 1.6618164 -0.806926 0.8486127 0.05528252 -0.58194375 -0.47004017 -0.034001153 -0.19491082 0.6026584 -0.8344296 0.7214218 -0.3840216 -0.29363814 0.4167925 -0.71907604 0.0024747604 -0.34782588 -0.32388592 0.89223814 -0.2002209 0.46797654 0.022799939 0.38140544 0.74417645 0.33374995 -0.5110137 -1.0376437 -0.687731 -0.5310864 0.02257713 -0.13323452 0.322627 0.31634673 -0.44235876 -0.36726063 0.009830855 0.57693326 0.51745266 -0.9314645 -0.5503794 -0.7650752 -0.31212467 0.3521717 0.48757982 0.018168319 0.69361055 -0.35747734 -0.4957218 0.36955366 0.68643105 -0.21157478 0.12426127 1.4810591 -0.42691332 0.7441904 -0.8464094 1.1504221 0.83826125 0.83881205 -0.30992383 0.51452506 -0.76707053
美国 -0.1504574 0.031333722 -0.21310073 -0.23664077 0.12092934 -0.63971806 -0.12692153 0.90885836 0.017556889 -0.14560948 -0.1552368 -0.028633542 -0.42175546 -0.2584501 -0.071181975 -0.20370927 0.1598047 -0.9065786 0.17403299 -1.1670369 0.25437748 0.7078436 -1.4738503 0.35880473 0.46826816 0.43907312 -0.63381124 -0.060546614 -1.2391114 0.45953324 -0.44928735 0.25196484 0.06928114 0.12218682 0.32550153 1.1605575 1.2547926 -0.53261936 -0.14333907 0.08590554 -0.5125624 0.27981186 0.33646697 0.47918704 0.2251552 0.22545426 -0.7197093 0.41419208 0.32398155 -0.017306698 0.5109053 0.747778 0.6655331 0.694084 0.73775893 -0.47994238 0.72592735 0.46125412 -0.2967579 -0.46553332 0.50546634 0.632666 -0.13842249 -0.5314937 -0.0012144245 0.58635503 0.5173339 0.80082023 -0.21577545 -0.6586326 -0.93668044 0.7327002 -0.26605362 -1.3020846 0.51326686 -0.052151404 0.5197481 0.75323445 -0.17010464 0.1643181 -0.501833 1.218963 -0.30462092 0.936718 -0.026194723 0.4846462 0.12783067 0.6090206 -0.5158003 0.35059994 0.44561207 0.107787885 0.33883816 -0.17864911 0.2552285 1.2525617 0.6973183 -0.44992965 0.04322415 -0.24160028
风速 0.2641124 -0.31118605 0.15113778 -0.4730818 0.77980745 -0.82830244 -0.49308148 0.5116812 -0.76508754 -0.45403093 -0.49629351 -0.70204556 -0.53620076 -0.2462844 1.0822879 0.01712812 -0.10670982 -0.29991847 -0.14460146 -1.0505755 0.6918473 0.42707947 0.30137026 0.14064457 -0.24012515 -0.12152871 -0.042343844 -0.9680831 -0.44824848 0.02420171 -0.28615576 0.38829097 -0.04959861 -1.1945773 -0.5329194 0.6093973 0.12056099 0.17481609 -0.65510225 -1.3100762 0.95277363 -0.17984483 -0.6998172 -0.13257718 0.596946 -0.6897681 -0.84296834 0.37230253 1.0184058 0.21221471 -0.14706963 -0.15988304 0.29524264 -0.7908023 -0.17245421 -0.19374348 -0.1514072 -0.7579894 0.03250825 0.4707088 0.8331064 0.5661739 -0.37302804 -1.1011974 -0.2204043 1.1730596 0.44690165 0.23985879 -1.0264219 0.4920831 -0.23608695 1.1409532 -0.107465066 -0.09692419 0.2048826 -0.20447029 0.07367977 0.40970033 0.28910175 -0.8084741 -0.2997901 -0.9277869 -0.8324683 -0.2545779 -1.1909952 0.4368647 0.36415672 -0.6634636 0.90552425 0.17554899 1.0970005 -0.049375195 -0.0330788 -0.114360794 0.5051006 0.6426115 -0.30243734 -0.26961595 -0.21502909 -0.06610533
有没有 -0.4765225 -0.09931094 -0.50773245 0.50837725 1.1326368 0.17641042 -0.44866067 0.92146677 -0.30104232 0.16872925 -0.16820084 0.6497044 -0.52928317 0.6671303 0.58461165 0.1423813 -0.15676808 -0.26600432 0.87445235 -0.46762836 0.7567928 -0.13509944 -0.37905675 0.9290882 0.47487605 -0.69776887 -0.500945 0.48905718 0.71913755 0.13199505 -0.40267557 -0.15735811 -0.038762715 0.17604692 -0.31112164 0.5222781 -0.34390342 -0.86855257 -0.19696733 0.6616472 0.729584 -0.26613423 1.0732352 0.34142885 0.37428966 -0.56533766 0.12979932 -0.7408059 1.4338787 -0.16195293 -0.6378707 -0.10331675 -0.56128424 0.10658508 -0.26453602 0.7655582 0.21713445 -0.33210415 -0.04007532 0.5426443 -0.46117693 -0.4625018 0.13584667 0.13840203 -0.39959833 -0.470112 0.07331543 -0.21748805 -1.0209243 -0.2502898 -1.5540682 -0.71745294 0.6754237 0.49629083 -0.36986616 0.69234574 -0.32197648 -0.91595244 -0.77507704 0.8288337 -0.1510081 0.13936704 -0.6636464 0.3406919 -0.68527585 -0.54155606 -0.17434591 0.9047355 0.7789761 0.8752666 0.89116776 0.039970554 0.6559201 0.53284925 0.38310447 -0.16633087 0.14571674 0.05036792 0.7036998 -0.10968242
里 -0.5189591 0.5809967 -0.06947676 -0.52389354 0.23536897 0.035565104 0.5188585 1.3498527 0.63539094 -0.26431772 0.050417095 -0.3076584 -0.3988949 0.5758035 1.2191406 -1.3816234 0.36681816 -0.14692199 -0.450078 -0.95157856 0.7186288 -0.34415707 0.23982938 -0.9785497 1.2685351 -0.16517927 -0.6905216 0.63171494 0.29122007 -0.2932047 0.7337326 -0.85476655 0.20202596 -0.4748891 -0.25950953 -0.577762 -0.4133981 -0.20376903 -0.1253906 -0.3959567 -0.32969913 -0.68992734 -0.56582004 -0.35110918 -0.090729445 -0.26292086 0.5525052 -0.30673546 -1.0124552 -0.45105892 -0.042847347 -0.28699574 -0.09216389 0.013454058 0.81330895 1.0933102 0.36959186 -0.28335062 -0.33759326 0.46704915 0.778217 0.66470635 0.7182613 -0.72417146 -0.43718717 0.5892752 0.4437773 -0.28341612 -0.46435997 0.1878165 -0.039962128 -1.1563606 0.30638084 -0.3893761 0.016237244 0.07452342 -0.1761296 -0.29899108 -0.1930774 0.3960284 -0.28700018 -0.91419697 -0.047250614 -0.44511703 -0.66272473 0.83391994 0.81108105 0.929372 0.025924046 -0.16865812 0.87920886 -0.72020817 0.7715304 -0.29567662 0.2514272 0.56726754 0.7688439 -0.49075496 0.42116916 0.42594174
马上 -0.16595705 0.42947668 -0.057316367 -0.98738897 -0.50465566 -0.34304714 -0.2979179 -0.5001556 0.34097663 0.060629457 -0.54770625 -0.31749934 -0.06742103 0.75376993 0.66268945 -0.090058014 -0.34580773 0.61683464 -0.6088287 -0.32237604 -1.1743037 -0.15870531 0.39554328 1.0542661 -0.22852077 0.26363513 -0.8198262 0.29345796 0.20597424 -1.0895395 -0.15306503 0.4922982 0.17565918 -0.17952636 -0.0930334 -0.5321134 0.90230733 0.16160008 0.046818394 0.026727637 0.6297943 0.46298724 -0.15329756 -0.25577646 0.5046439 0.26645395 -0.7124343 0.6520735 0.31200212 -0.10989648 -0.067836 0.5708441 0.108093 -0.114702925 -0.58343214 0.6037408 0.6777862 -0.13861763 -0.7475767 0.55650294 -0.104442075 0.022446787 0.5504827 0.35786626 0.60084444 0.05662883 0.2394999 0.11824469 -0.9036502 0.04987536 -0.15286946 -0.22862512 -0.28064123 0.23840007 0.75881195 0.63025564 0.074472725 0.582121 -1.1462693 0.17520793 -0.47205937 0.43532908 -0.61544776 -0.22489457 -0.25786576 -0.38969135 0.18154716 1.7200673 0.46516547 -0.4333888 0.61438626 -0.20402737 0.044569395 0.16466191 1.584347 0.52183014 0.47224134 -0.36665434 0.3426963 0.023725664
飞 0.6156724 1.1293962 -0.93459654 0.43642044 0.23267171 -0.82767904 1.0246266 1.2613897 0.16063628 -0.785027 1.0593927 0.45670098 0.04611883 0.2350373 0.35695755 0.52455723 0.2878228 0.021436961 -0.03249463 -0.8512347 -0.028223023 0.12793015 -0.12313168 0.19897932 -0.05580908 -0.034067973 0.57136506 -0.29767388 0.058982596 0.10375014 0.8393907 -0.16292104 0.37514555 -0.73995775 -0.49065918 0.6427323 0.47637922 0.38985848 -0.13588746 -1.0861675 1.079291 -0.9423847 -0.01506734 -0.15626702 -0.01803797 0.23991917 -0.6693442 0.39611676 -0.23894136 -0.0010466549 -0.33979604 0.24850236 0.22786212 0.77216566 -0.130632 0.43419445 -0.14694288 0.2666819 -1.2224247 -0.50237143 -0.21866368 -0.74468 -0.52139974 0.23615855 0.2781755 -0.3047629 0.42370385 -0.19433044 -0.17431876 0.5804505 -0.34251103 -0.09834884 0.1698857 -0.8847942 0.7852548 0.19726752 -0.4810591 0.28874326 -0.6804189 0.85813624 -0.5201523 0.28478146 -0.04969339 -0.2870816 -0.83103687 -0.67165655 -0.3344082 1.4309129 0.5845908 0.5145487 0.5843055 -0.3870417 1.0226874 0.004353519 0.6634093 0.8531028 0.20087667 -0.38879454 -0.002414328 0.16170883
查查 -0.06054207 -0.10231624 0.593389 -0.1916267 -0.21100388 -0.52571565 0.0067293714 -0.38753137 -0.20229037 0.27418783 -0.10921477 -0.48790538 0.027972382 0.25181162 0.27492878 -0.42253911 -0.05583947 -0.79889226 0.4791661 -0.21257414 -0.26947096 0.0054732854 -0.019211724 -0.39253223 -0.42815673 0.8925372 0.6621871 0.36075646 -0.015135421 -0.15149376 0.5332586 -0.10610145 0.18142726 -0.24208292 0.8436283 0.63769275 0.07953573 0.32050228 -0.16819169 -0.22028363 0.6193908 -0.57769406 0.2775832 0.29587492 0.8795076 -0.4107835 0.21293615 -0.78891253 0.26248196 -0.042109847 -0.034028273 -0.44756958 -0.41425774 0.5378727 -0.6900936 1.2696867 0.10115251 0.5611928 0.3555909 0.20285444 0.30324325 0.19064267 -0.5895135 1.1401709 0.84262127 0.4494511 0.5098716 -0.407196 -0.36096793 0.89069784 -0.2770666 0.051157586 0.5610943 -0.36365712 1.2288594 0.09557674 -0.17330067 0.30846232 -0.036049414 -0.30614582 -0.9916903 0.7918546 -0.15247254 -0.17878105 -0.26685733 0.0601208 0.1358459 0.9711028 0.55821073 0.7679377 0.31555435 -0.07672634 -0.25175205 -0.008840188 0.5709084 0.37006527 0.7303626 0.021894708 -0.10691201 0.6438697
经济 -0.3841572 0.912138 0.07132638 1.326536 -0.6080158 -0.7587834 0.07159417 -0.03258721 0.5330478 0.18596086 -0.74806017 -0.8590777 0.30784327 0.70259637 -0.24491546 0.3514326 0.4905732 -0.47848898 -0.0005646924 -0.10858207 0.016979244 -0.16492945 0.31060162 -0.41724765 -0.06090163 -0.007837764 -0.030881537 -0.51244324 -0.42002985 0.3221544 0.8691463 -0.38465592 0.6766568 -0.40995368 -0.44585645 0.86242205 -0.38923007 -0.33569193 0.81981236 -0.7257834 0.7705269 -0.05601054 0.055418633 -0.27980387 -0.039565023 -0.011044831 -0.16006948 0.017583316 1.1875173 0.4233379 -0.39122674 -0.60461366 0.56602484 -0.5047382 0.45303708 -0.72647476 0.6303269 0.33412614 -0.58942914 0.59949714 0.7389262 0.6410553 0.037231963 0.084888965 0.22113173 -0.17398007 0.69347376 0.54064405 -1.5039918 -0.7235483 0.031896155 -0.3775922 0.46670786 -0.37042516 1.2282548 0.3178557 -1.056506 -0.07839186 0.39966762 -0.74813336 -0.61116725 -0.46140864 -0.04452783 0.41350755 -0.9016375 -0.85653436 0.85226417 -0.30777344 1.002158 -0.29973102 0.70471185 -0.045831252 0.5270858 -0.5298755 0.47526988 0.1055616 0.37027553 0.38974252 0.608135 -0.12256718
点去 0.2664221 1.0392464 -0.27703547 -0.4522416 0.74669737 -0.038900346 -0.29580843 0.7506452 -1.2284672 -0.14395432 -0.45362222 -0.31533608 0.9865086 -0.18215595 -0.36169407 -0.050426282 0.81796676 0.3700864 1.2528838 -1.2239347 -0.21254556 -0.8684631 0.05535028 -0.4896279 -0.49702522 0.44788086 -0.046339437 -0.24940282 -0.5458657 0.14452063 0.33937147 0.6258092 -0.22418694 -0.4391114 0.12429785 -0.23513445 0.23481604 -0.13813668 0.08279099 -0.24349102 0.6533096 -0.6961241 -0.51812416 0.047989737 0.4226284 -0.27525422 0.5332095 -0.44989437 0.5958677 0.3090346 0.07054699 -0.1944414 0.42289343 -0.5992323 0.3561916 0.7493908 -1.0436919 -0.1182732 0.8065748 -0.3557859 -0.4733001 0.21366704 -0.29787782 0.60775447 -0.5896883 -0.6158509 0.26346138 -0.13479981 -0.79653 1.4595191 -0.37120113 0.23916513 -0.21133646 0.025634035 -0.09561732 -0.055170894 0.20264891 0.43725464 0.05959889 -0.24857056 -1.0865366 -0.97833127 -0.79607236 0.4491401 -0.77501094 -0.55660164 0.7148707 1.018225 0.54951286 0.5653792 0.2977532 -0.49235317 -0.3604325 0.9188148 0.80655277 0.3053685 -0.2867274 -0.72910684 -0.22964478 0.3682261
年代 -0.75525075 0.45769697 -0.9146376 -0.5253728 0.007955706 -0.38998348 0.35237363 1.0613639 1.1606358 0.23532322 0.12558722 0.19067091 0.7035321 0.86977994 0.6534635 -1.1127309 0.21682191 -0.2572766 0.6060213 -0.81180394 1.0662847 0.61430234 -0.5189935 0.62990314 -0.5817672 0.4687527 -0.7400486 -0.6420678 -0.70300955 -0.13665628 -0.5531682 0.14038064 -0.202048 0.5620517 -0.15800537 -0.50967455 0.33702216 -0.59238476 -0.11899577 0.26002914 -0.4367006 -0.09490377 -0.8908256 -0.15397994 -0.111075245 0.52910155 0.22271028 0.5041719 0.5281436 0.9557385 -0.482065 0.028423576 0.02987565 -0.71437144 -0.4208821 0.25504762 0.86858433 0.45401022 -0.13537228 -0.21768367 0.10446435 0.41796467 -0.64814854 -0.6388004 -0.9905561 0.85899985 -0.0511995 1.0358967 -0.8265892 0.31006375 -0.40235898 1.295056 0.3804788 0.028680352 0.7309489 -0.032447357 -0.1835569 0.45772445 -0.751909 0.756663 -0.21005668 0.16334447 0.040743507 0.4046478 0.3883253 0.15626639 0.18938924 -0.20325913 0.11356777 0.23724495 0.942246 -0.27294928 0.24284548 0.33516344 0.82276386 1.3781477 1.3304528 0.160568 -0.013967475 -0.17949408
下雨 -0.0110495435 0.4323204 0.8502602 -0.07643166 0.10325461 -0.17600016 0.5163843 0.4593945 -1.1447345 -0.2288179 0.22705005 -0.13047639 0.3551889 0.31920937 -0.06292595 0.10785767 -0.071942575 -0.14625391 -0.069592 -0.34341994 0.086854376 0.12312917 0.39796686 -0.17722434 -0.6840345 -0.23256078 0.16010489 -0.38449034 0.1986613 -0.3471801 -0.022969205 -0.9068861 -0.15327112 0.064286545 0.4838965 0.18796788 -0.7039095 -0.27140284 0.7029552 -1.4152821 0.44960374 -1.027611 -0.36851737 0.598171 0.17338176 -0.35986188 -0.5884931 0.55832815 0.2513791 -0.63525057 0.43603545 -0.13558176 0.19151326 -0.16404843 -1.0069557 -0.19684014 1.056579 -0.050871614 -0.453379 0.3766357 -0.30012676 -0.16833211 -0.035802912 0.06773729 -0.37482724 0.2934071 0.33157295 0.57586277 -0.22716472 -0.20200953 -1.3233794 -0.4653172 0.26850262 -0.67416877 0.3507635 -0.16041534 -0.5552169 0.39265707 -0.5537814 0.051849518 0.08968297 -0.35504234 -0.52991265 -0.48462653 -0.029269395 -1.043839 0.19557816 0.4864544 0.7973448 0.47398075 0.20506942 0.41679576 -0.49013162 0.45902583 0.9900412 0.45061177 0.4789142 -0.094382316 0.117889315 0.37330395
20 -0.27858028 1.1057587 0.13000181 -0.4755998 0.43193877 -0.27545187 0.14641142 0.560259 -0.3897322 -0.7240195 0.035472766 -0.52736795 -0.59030116 0.5192728 0.023771772 0.20112598 -0.30979472 0.6527525 -0.46824926 -0.43906936 0.2764262 0.89084435 0.039565276 0.03456502 -0.2175645 0.28093863 -0.82726705 -0.30492014 -0.5705909 -1.0772078 0.08044182 0.08325617 0.45041454 -0.32482195 0.48158652 1.0085152 -0.2818418 -0.5104691 -0.22129266 -0.49750015 -1.0227042 -0.1714913 0.13339299 -0.4538444 0.4245688 -0.7519046 0.018529704 -0.28340873 0.2553072 -0.7863761 0.7346815 0.6921923 0.22194694 -0.8725347 -0.9956295 0.32817164 -0.3292524 -0.17688194 -0.8936526 -0.20132291 -0.39381832 0.1560823 0.6602384 0.07343227 -0.87289673 -0.92948264 0.35444146 0.17140074 0.4069278 0.49820536 0.06431835 -0.5011826 -0.003134484 -0.25683257 0.32481873 0.37151107 -0.29178995 0.1041352 0.06390177 -0.13119671 -0.6654826 -0.65195644 -0.340124 -0.7510576 0.0379906 -0.2900432 0.13070278 0.752484 0.6974388 -0.11691644 0.5647015 -0.10994073 -0.34596452 -0.9325117 -0.34865558 0.5115785 0.024950946 0.23815067 -0.019501712 0.584967
九 -0.26339722 0.3918444 0.15233526 0.3516002 0.16574574 -0.4990231 0.3142714 0.021291431 0.08445457 0.21241859 -0.24168625 -0.6307576 -0.27058208 0.57829267 -0.10361629 -0.3570832 0.8257687 -1.1543522 -0.7176833 -0.5514778 0.38838303 0.37830245 0.45833328 -0.22521661 -0.42287338 0.4476209 -0.60006005 -0.108495146 -0.7344821 0.41570166 0.12938878 0.09496296 0.32320285 -0.66605145 -1.030246 -0.2941603 0.28734758 0.008784377 0.42362782 -0.8804109 0.2648445 -0.15463635 -0.7375126 -0.8368965 0.061097044 -0.8469419 -0.08799396 -0.55044633 0.5797987 0.32240316 -0.45232892 -0.2785876 -0.25601596 -0.24537694 0.09663387 -0.01104293 0.684328 -0.5083174 -0.44390798 0.9805389 0.39990997 0.05862422 0.25892374 -0.5195059 -0.579761 0.563653 -0.11123253 -0.03211439 -0.9842727 0.13432086 0.15307187 -0.33279058 1.1901395 -0.55483514 0.22677934 0.09288615 -0.50982416 0.30288607 -0.3167438 -1.0851213 -0.0334754 0.25002682 0.3282758 0.2497179 0.32726952 -0.630028 0.26768315 0.59289753 1.1920233 0.18504168 0.9117129 0.3589701 0.0083171185 -0.9155427 0.21271014 0.4733046 0.31842124 0.329422 -0.114072226 -0.21433942
找到 0.15428665 0.72103196 0.2643007 0.87354153 -0.57774186 -0.15070002 0.5425337 0.73468834 -0.6693785 -1.1265087 -1.1221018 -0.55907035 -0.35080934 -0.095482394 0.1305519 -0.33188918 0.16603343 -1.0918844 0.38439623 -0.06951227 0.76958245 0.36447215 0.057292975 0.44149882 -0.15829045 0.49302185 -0.094059624 0.76859957 -1.1104099 0.032148242 0.3103118 0.89738864 1.2565072 -0.58421487 0.09940588 -0.1972014 -0.11604592 -0.6801031 -0.026940757 -0.79190624 0.57391685 0.13653935 -0.6088451 -0.42263117 -0.63864666 -1.1933252 -0.8949805 -0.7307948 0.06981089 1.1209781 -0.24942455 -0.11193161 -0.29349968 -0.12443195 0.16444427 0.06179951 -0.34658742 0.37178656 0.9189911 -0.033462048 0.29313877 0.32778984 0.1850898 -0.17636523 1.5260603 0.100698546 0.38312113 0.4479519 0.70991534 0.4053462 -0.18656239 0.34379336 0.2593985 0.26366574 0.5728511 0.3822923 -0.00137852 -1.1308712 -0.3077131 0.5031043 0.17161304 0.75638086 0.114477076 0.7227018 -0.10453203 -0.010995554 0.21212538 -0.44648972 0.14334528 -0.42883784 0.70570743 -0.51646423 -0.5605586 -0.091003865 0.64474726 -0.24694635 0.7816728 -0.23755924 -0.5458537 0.07908984
主演 -0.32503656 1.0848378 0.34228978 0.21837303 -0.2756591 -0.22053698 0.06890911 1.0522434 -0.6361413 -0.34536105 0.19703132 -1.1102681 0.28608176 -0.6569217 0.7321107 0.3317592 0.11110516 -1.0038483 0.43396583 -1.0133841 -0.80801535 0.026472142 -0.714612 -1.0493648 0.1812827 -0.24041879 -0.48642546 0.14887494 0.5498958 -0.16763258 -0.5729454 0.34215137 -0.3116387 -0.46538264 -0.61178344 0.33893883 0.9500194 0.22128998 -0.33521777 -0.8117463 0.09656007 -0.51087874 0.15929677 0.19632281 1.3790408 0.50166494 0.43381545 0.85769016 0.2409575 0.47462705 0.10504218 0.23994227 -0.68155056 -0.30566984 -0.14624558 0.38765246 0.99873394 0.39960265 -1.1957889 -0.2718052 -0.5342021 -0.6546544 0.41145867 -1.7851849 -0.5522684 0.46348295 0.8976552 -0.13822158 0.13549118 0.43791145 -0.9112385 0.25802222 -0.5884018 1.3815582 0.11573126 -0.3650055 0.38700813 -0.17987745 -0.5410166 -0.31853974 -0.35825184 0.6646017 -0.14950825 0.16502988 0.96830297 0.14715946 0.021580024 0.110946625 1.0103189 -0.29934746 0.22575504 0.08994774 0.13046743 0.2943558 0.4755536 0.7704178 0.045717187 0.038049247 -0.25971335 -0.1729305
专辑 -0.17422357 -0.037398297 0.3503726 -0.71297294 0.19430545 0.06113652 -0.49008775 1.9286187 0.6057329 -0.053314615 -0.0060776803 -0.3548465 0.31238678 0.43733975 0.6718541 -0.21620971 0.60233235 -0.4689413 -0.5794803 -1.4727294 0.3395858 0.08000356 -0.20511173 -0.3518661 0.2603422 0.4440132 -0.80062854 -0.07079418 -0.52448964 1.0450455 0.4463225 0.10238002 -0.9233755 -0.78354853 -0.57040423 0.2944546 -0.5724493 0.53870577 0.46264195 0.56236523 -0.26317486 -0.8336714 0.30212617 -0.21677366 0.13648438 0.21261878 -0.06915613 -0.0901125 0.33892444 0.9505705 -0.19807072 -0.011712392 -0.18095827 -0.12834169 0.41577497 0.09954133 -0.07037515 0.30190125 0.08779573 -0.4341704 0.7596793 0.007632458 0.149663 -0.5601389 -0.24047883 0.8354151 0.77818596 0.7220327 -0.596412 -0.01453281 0.95445484 -0.3365016 -0.069776796 -0.7656393 0.44598487 0.03540847 0.5634837 -0.2519208 -0.974399 0.01382807 -1.2513757 -0.22484419 -0.26976955 0.65594757 -0.4524199 0.027241532 0.8249331 0.66216356 0.29848644 -1.1627586 0.5005948 0.093274996 -0.17194314 0.41407648 0.029916093 0.11464811 0.58050144 0.088228025 -0.44514143 0.304208
