1518 100
播放 0.49325085 0.441442 -0.39034235 0.17946137 -0.59858406 -0.10650949 1.1730504 0.7261906 0.15080209 -0.60545653 0.43570477 -0.22627161 0.10788311 0.34912258 -0.66566336 0.017170813 -0.049839914 0.11596565 -0.27878892 -1.0037652 0.9321006 -0.17132181 0.5806447 0.18292572 0.112224884 -0.5182785 -0.5157622 0.29276 -0.7894078 0.19819662 -0.71769613 -0.22688788 0.60007423 -0.46576038 -0.16244686 -0.06016265 0.26581916 -0.48236078 -0.31882256 0.3476259 -0.62997764 0.5885388 -0.77667034 0.42131943 0.13564092 -0.4056646 -0.20725507 0.4446951 0.8022722 0.6777374 -0.07260821 0.7953828 -0.84362966 0.33186424 0.5261434 -0.3709517 0.2664369 -0.20220055 -0.35935828 -0.12328358 -0.29971904 -0.21035011 -0.45111904 -0.319573 -0.15073396 -0.3472269 -0.18262501 0.46234187 -0.324689 -0.07254992 0.6223696 1.2712637 0.26034558 -0.43482146 -0.36683267 0.5405522 0.5325092 0.0047403043 -0.23085156 -0.38894388 0.2476237 -0.5395833 0.9342802 0.0963573 -0.7194667 -0.12859838 0.20013775 -0.025287759 -0.31322503 0.42632765 0.20367274 -0.067807324 -0.4452139 -0.5313673 1.1141797 0.13061166 -1.0645732 -0.69878566 0.13111514 0.04649595
明天 -0.21528113 0.04488597 -0.14626196 0.78291786 -0.13136353 -0.8832915 -0.07597209 0.44364616 -0.4452161 0.793941 0.61309075 -0.0098356465 -1.3624047 0.13497265 0.068781845 1.2490178 0.8099995 0.19752172 -0.1127529 -0.034278594 -0.9052865 0.5745051 0.7559068 -0.54070574 0.73996997 0.50249815 -0.12112289 0.19193038 -1.0338173 0.3044801 1.1090337 -0.53124446 0.25079858 0.24907576 -0.21723616 0.56548566 0.74203056 -0.69969547 0.20370603 -1.0214132 -0.45748278 -0.93172824 -0.7561186 -0.21208386 0.2638435 1.0898492 1.0217471 -0.31531733 -0.7320671 -0.16036157 -0.2066345 -0.26045236 -0.017361121 0.09723737 -0.050024908 0.14918134 0.084311604 0.8851412 0.60178924 0.95723754 0.56243736 0.38907725 -0.5147088 -1.0357879 -1.1376756 0.45258036 0.73016036 -0.28991958 -0.43653432 0.96490294 -0.13761415 -1.3676571 1.3050333 0.3964502 -0.47020644 0.5667163 -0.383909 -0.6342111 -0.09369273 -0.41800943 -0.7699495 0.19091186 0.8217265 0.59502715 0.03921532 -0.47841877 -0.32433236 -0.47214943 0.77441186 -0.72742045 0.46362376 0.6181719 -0.10973051 -0.056615204 -0.828771 0.8637407 0.9694983 -0.55641705 -0.9508028 -0.36991942
提醒 -1.3193332 0.46982843 -0.36769402 0.15820505 1.39506 0.8500862 -0.50575125 0.05917666 -1.3239508 0.5935907 -0.036179435 -0.8487763 0.42503205 -0.020343773 2.1260839 -0.5513683 0.9593087 -0.06886077 0.582107 0.1414264 -1.3079007 1.3056935 0.37173602 -0.7877448 1.4842364 0.35665256 -1.2808659 -0.37799272 -1.0814356 0.22943334 1.7890217 -0.7986864 0.2903495 -0.41011938 -1.1560675 -0.38548738 -0.95794326 0.044812392 1.1228937 -1.3037139 0.098295525 -0.5838733 -0.14271663 -0.55089265 0.68041325 -0.53199947 0.799957 0.65791684 -0.34010696 0.28974727 0.33516097 -0.18475325 -0.29040885 -0.7071167 0.6388109 -1.6237679 -0.07776551 0.19689517 0.16371833 0.5058135 0.12615375 -0.09444853 1.3818872 -0.15726401 -1.3212965 0.39305657 0.45306638 0.074725546 -0.9296395 1.0936242 0.35312507 -0.44033852 1.3237953 -0.4308062 -0.713278 1.5031302 0.8178006 -0.20254742 -1.0333445 -0.67373323 -0.3929648 -1.2901276 0.5172475 1.1101767 -0.07297425 -0.2720103 0.05392972 -0.016643232 1.0837218 -0.24969432 0.42244208 0.15600558 0.37686065 -0.38220304 1.2173724 0.92953825 0.78738743 -0.1930065 0.5435959 -0.50390536
视频 -1.442646 1.5167861 0.35121453 0.088338085 1.0044024 -0.52271837 1.2073416 1.3372375 0.56851375 -1.7641313 1.3907198 -0.007613197 0.9796671 -0.3668765 0.5341475 -1.4117874 0.6741748 -0.46969953 -0.06529292 -0.21971844 0.496224 0.7279066 1.83128 0.98298883 -0.8739426 -0.043867815 -0.5770698 0.328578 -0.0124748675 -0.7417766 0.48204008 0.29211205 -0.07702073 -0.316874 0.46600285 1.3465095 0.70579916 -0.7920242 -0.6197463 -0.16208988 -0.11072674 0.07638322 0.38694626 -1.161161 0.88662565 0.20523223 0.23973803 0.15526426 -0.4932045 0.8481082 -0.69199866 -0.14928043 -0.76715034 -1.1266079 -1.5860431 -0.24544525 -0.3713136 0.21475789 0.7659311 0.33390433 0.63542676 -0.10752098 0.87696695 -0.19216517 -0.92135215 -1.1857738 0.67258054 1.4715823 -0.86021566 0.56094307 0.36219454 0.3709041 0.73623013 0.16685306 -0.4988658 0.31630257 -0.5939934 -0.27912208 -1.5050063 -0.516845 -0.67848694 0.5540129 -0.5899581 0.67624766 -1.2083913 -0.41366512 1.212001 -0.41685256 -0.53131217 -1.7122006 -1.4667149 -0.5615592 -1.1228557 -0.78704363 1.0772288 -1.5345597 0.60569674 -1.467051 0.47212836 -2.015164
一首 -0.9810907 -0.42066088 -0.16849005 -0.65375733 0.79208046 0.8928657 0.4928352 1.7127243 -0.34796444 -0.10318226 -0.29039854 -0.51552904 -0.95276725 -0.07019291 -0.8263798 -0.80625814 0.30758813 -0.4172431 0.13958135 -1.7234762 0.89151216 -0.36299747 0.40063244 0.7667269 -0.42367905 -0.3951384 -0.08581011 -0.47244248 -0.3638346 -0.85883385 0.31186607 0.49758205 0.88523287 -1.8780893 0.17293355 -0.36983603 -0.3661195 0.12664725 -0.25760317 0.008226794 0.62043875 -1.2189155 -0.7486742 0.36476502 1.2262423 -0.53090566 -0.6084732 0.89582294 0.47981197 0.2647338 0.54863685 0.23274904 1.1450709 -0.10006687 -0.49665713 -0.648132 0.42422098 -1.1473508 -0.7973686 -0.21416491 -0.18710598 0.34072864 0.46323603 -0.5002375 -0.94945854 0.86798227 1.2838607 1.1164886 -0.46563613 1.6596662 -0.17127156 0.8147174 0.27388296 -0.91570646 1.4981736 -0.27615932 0.28883684 0.49211094 0.3184385 -1.8373483 -1.3650702 -0.3459782 -0.22581235 0.076664135 -0.99308926 0.3302963 0.9754799 0.4746534 -0.6499492 -1.0017906 1.2739531 -0.13916895 1.5125736 0.8448499 1.3448063 -0.12168381 -0.51055217 0.090863496 -0.013805717 0.6613449
查询 0.03901814 -0.0034607688 -0.38634366 -0.70537317 -0.32907683 -0.9759472 0.46772102 0.11339341 -1.2510743 -0.48579422 -0.38939375 -0.36065197 -0.08651331 -0.3120839 -0.4478806 -0.33316654 -0.7561592 -0.39175436 -0.52913916 -0.5141788 -1.0282192 -0.45860386 -0.03510642 -0.16006713 -0.5750153 -0.27485403 0.01612753 -0.072827816 -0.29384008 0.41439614 -0.09643211 -0.52941 -0.3829833 0.21609361 -0.8367749 0.037254497 -0.16786157 0.25953233 0.77722794 -1.1829789 -0.45901617 -1.6087419 0.4575141 0.7645603 -0.067483336 -0.38061348 0.07590031 0.34969935 0.035309866 0.15446976 -0.17904402 0.017029397 0.21928065 0.034819614 -0.148418 -0.33118117 0.22318432 0.16408516 -0.4311859 -0.15151112 0.51125693 -0.19576682 -0.7575843 0.2441572 -0.2536177 0.9646797 0.6108582 0.43428662 -0.38491973 -0.92641675 -0.6104556 -0.21804973 1.0960349 0.66444623 -0.5210502 0.89115983 -0.69358605 0.638901 0.591552 -0.19613066 1.0269134 0.26698783 0.09689659 -0.04919425 0.4979403 -0.31274837 -0.26440942 0.39009288 0.7888654 0.2560316 1.4326535 1.4965907 -0.98144615 -0.09839836 0.49014497 0.21161862 -0.052190088 -1.0473211 -0.16182993 -0.4530969
空调 0.9060515 -0.05813781 0.41926616 0.2213128 0.37405404 -0.6124319 1.1101375 -0.3605877 -0.4572488 0.17376846 1.0407262 -0.4722411 -0.32854822 0.99897975 0.059144624 0.28487307 1.6366818 0.47680447 0.27249902 -0.98170555 -0.10173516 0.07245198 1.1753767 -0.84936416 0.5939693 0.25820422 -0.9945533 -0.69849044 -0.95297474 0.22047365 1.1786163 0.9592743 0.06288202 0.041019976 -1.1055303 0.3746912 -1.6641631 -1.052762 -0.6720579 -1.7963432 0.90233946 -0.6898644 0.8355305 -0.98896736 0.70995027 0.9152269 -0.4552839 -0.9350357 -0.30306488 0.29778105 0.2813174 -1.4043791 -0.8529197 1.6219699 -0.6550932 -1.0683463 0.33424178 -0.4131085 -1.0252004 -0.7270337 -0.12242002 -0.42277473 0.71520543 0.1369174 -1.1791531 0.91189903 -0.42132795 0.04921129 -1.1066202 0.024833899 -0.55475295 0.32457015 -0.037767198 0.15097888 0.5995774 -1.1873715 0.25111258 0.6471478 -0.16005366 0.20935626 0.7578137 -0.85075516 -0.82219034 1.185331 0.045518454 -0.35664648 0.62367564 0.33744335 -0.5636792 0.4658725 0.60340416 0.23835106 -0.69745535 0.14615308 0.44308448 0.87462604 1.4446458 -0.5823766 0.040877044 0.037260566
农历 0.29490831 0.7508595 1.223575 0.94981605 -0.2898874 -1.0395181 0.23462728 0.9274546 -1.0211343 -0.5347374 0.24679755 -0.13270484 0.62332535 -0.088978186 0.59630877 -0.88576907 0.8742801 -0.20584351 -0.14430419 -1.9676322 0.2398868 0.52255213 -0.18031293 -1.5143278 -0.49563614 0.843416 -0.9432991 -0.3483998 -0.2397794 1.3391025 0.32241064 0.5565919 -0.98324144 -0.6629129 -1.0606233 0.86970234 -0.99352664 -0.18152578 -0.04147853 -1.5485249 1.457946 -0.5485006 0.53375626 -0.2624138 0.24001446 -2.333286 -0.015010166 -1.3812833 0.3178451 -0.16823937 -0.36488307 -0.7740236 0.72075087 -0.34588963 0.26211056 -0.33901465 -0.83957684 0.70091736 -0.5445554 0.7434182 0.020782864 -0.592563 -0.44324917 0.17760825 0.14351274 1.0191826 0.54374444 0.9163488 -0.7929718 -0.27433547 -0.043623947 -1.3348699 0.039747175 -0.7848603 -0.3946175 1.2710098 0.48945194 0.24441567 0.13714592 0.028046561 -0.47325736 0.47865313 -1.6041641 0.684191 -0.0931807 0.09346378 1.6544728 1.9566109 1.4560373 0.50179523 0.45700857 -0.51652545 -0.25055265 -0.3570061 0.7524875 -0.0029050966 -0.06828504 -1.1914324 0.37446192 -0.05384497
闹钟 -2.3401413 0.35039955 0.25316972 0.91721743 1.3920711 -0.27220207 0.46191046 -0.86071 -2.1658423 0.14298405 0.9997647 -0.22262692 0.9005925 -0.6706782 3.137328 0.25825518 0.19631489 -0.14053623 0.3858661 -4.377456e-06 -0.78855324 2.0908885 0.1915905 -1.4612453 0.83311623 0.96165687 -1.6946723 -1.0703942 -0.6240831 0.06614846 1.4247223 -0.23785621 0.6427895 -0.3453436 -1.6080343 0.22359905 -0.39139143 0.5256877 0.5362521 -1.7612419 0.09260611 0.15963662 0.37715572 -0.32681537 0.47247273 -0.27969 0.71760464 0.63246876 -0.23545066 -0.6625484 0.16025978 0.56282157 -0.08301151 -0.48088598 1.0115997 -0.60330856 -0.07562141 -0.1567486 0.7348841 0.6922318 -0.35020736 0.14136077 0.7164185 0.57328355 -1.3816705 -0.7388872 -1.3162972 0.68105215 -0.8072699 0.81372774 -0.07074913 -0.77466846 0.9341488 0.12826514 -0.78371465 1.2270356 0.25079128 0.044273198 -1.9067097 -0.8247799 -0.77336425 -0.4154255 0.22990768 1.2977797 -0.23925109 0.3874939 0.24306354 -0.43028232 0.88270396 -0.19391628 0.7299664 0.6246712 0.056255225 0.2563955 1.2831632 1.394717 0.36307126 -0.36875394 0.32359877 -0.6786604
我要 -0.6987965 -0.14484344 -0.201303 0.20608921 -0.1987059 -0.1539123 0.034428556 0.23643412 -0.1072012 -0.56761056 -0.47054234 -0.10005661 -0.7467137 0.42433643 0.25309834 -0.018334942 0.30063933 -0.19070294 0.4369867 -0.327788 0.05920611 0.19242796 -0.24561842 -0.3522536 0.11252362 0.4216912 -0.3846642 0.33849317 -0.39885452 0.15212172 0.22339803 0.08406828 -0.20860305 -0.18620016 -0.1278056 0.20251304 0.62336123 -0.28438136 0.3793803 -0.28860283 -0.53639185 0.188945 -0.27468494 -0.06912464 -0.08338461 -0.2810786 -0.04627471 0.18732889 0.40518373 -0.5114868 -0.2683371 0.5121896 -0.37497672 0.42064217 0.036224753 0.43696237 0.10399223 -0.087626964 0.15449807 0.23347132 -0.2560871 0.16345614 0.42960915 0.44941047 0.02849517 -0.20962545 -0.3638643 0.0097057065 -0.29987285 0.20297039 0.43948883 0.18102314 -0.32369354 -0.4777304 0.17855982 -0.08642028 0.055456724 -0.12870497 -0.26439878 -0.102165885 0.23209797 -0.17478952 0.28145745 -0.2625637 0.1869159 0.2874752 -0.6755307 -0.09398038 -0.28721365 0.2676909 -0.039026957 0.40467206 0.30063152 -0.2111705 0.9240112 0.3148852 -0.19620143 -0.19626544 -0.24429949 -0.29765612
打开 -0.20722678 -0.03807527 -0.46580294 -1.1217917 -0.8096755 -0.20042142 0.34385243 0.94946355 -1.2197603 0.045300096 -0.8515563 -0.9279064 0.3222831 0.26060155 0.014143276 0.19239683 0.24218413 -0.72061 0.33170772 0.55502087 0.14787133 -0.41164172 1.5188187 -0.16036864 0.18795705 0.46562824 0.5294441 0.5191399 -1.2468704 0.2953694 0.2235561 -1.3881829 1.1596289 0.10544285 0.37178054 1.1740313 0.08491093 0.054515112 -0.7164291 0.41207162 -1.0635725 -0.21669179 -0.43951416 0.42428675 -0.48831293 -0.7545817 -0.13603489 -0.81276685 -0.77140903 0.16639937 -0.9198386 -0.69180447 -0.32263663 1.0582062 0.28010583 0.1393507 -0.4402293 0.25434133 -0.61067235 -0.0944804 0.42876267 -0.7881117 -0.35875875 0.6386498 -0.7437781 0.61466485 -0.15049621 -0.080735244 -0.56341213 0.10995646 0.7332169 1.5891539 0.6130349 -0.018159363 0.33034354 0.7508044 0.58197826 0.18571503 -0.2954689 -0.03713717 0.36298507 -0.025422866 0.070763245 -0.43876654 -0.22448064 0.050236035 -0.40564388 0.48740393 1.2142799 0.012054833 -0.69977254 -0.057362076 0.2207104 0.5747587 -0.70410174 -0.69007856 0.6363523 -0.36871943 1.5713611 -0.48028496
告诉 0.053531077 0.12354907 -0.13814445 -0.66238207 0.25301617 -1.1305016 0.056452636 0.20861328 -1.0338552 0.20834549 0.17430739 0.3821929 0.0066605546 -0.16842076 0.68936473 -0.049493022 -0.09347099 -0.79285085 -0.014122623 0.061217766 -0.29493272 -0.40351835 -0.89875764 -0.8209973 -0.39670378 0.31065774 -0.48495197 -0.26472324 0.29091632 0.12168629 -0.37512475 -0.3927845 -0.5490572 0.07563588 -0.68405443 -0.0035600157 -0.5429298 0.12306923 -0.37143037 -1.0858662 -0.47316256 -1.0908998 -0.32575282 0.9933539 0.060130887 -1.5292503 1.2882311 -0.3171605 0.374128 0.27780128 0.36610878 -0.3239642 0.4147221 0.32747355 0.30509865 -0.28321233 0.3005056 0.7097372 0.17775555 0.4978751 0.9407101 0.040534157 -0.33932096 0.533173 -0.34796774 1.8289568 0.98636377 0.77537984 -0.31225193 -0.29874033 -0.7114161 -0.53585124 0.38107327 -0.2195519 0.5570053 0.92329115 -0.73918515 0.59894377 1.1935947 -0.4628802 0.60931015 0.17357312 -0.21181764 0.07676527 1.2883317 -0.5000017 -0.2506782 0.016940106 0.89179313 0.7931625 0.87506753 0.8467122 0.023723586 0.11992014 1.3283062 0.3388052 0.3308101 -0.30891106 0.39583886 0.057077665
10 -0.36588868 -0.6211092 -0.01892078 0.57191986 0.35170582 -0.7455406 -0.27837348 0.13784648 -0.56833905 -0.38011563 0.45316425 -0.15797792 -0.49908903 -0.1593371 0.7713259 -0.40021628 0.29233673 -0.17795777 0.57645994 -0.15345065 -0.43923715 -0.32609966 0.13369565 -0.5575319 0.8146659 0.34890994 -1.2633228 -0.407034 -0.48179656 0.24508415 0.8230948 0.5469842 0.25974295 -0.15788867 -0.17450203 -0.7949234 -0.58331984 -0.920408 0.25584665 -0.9769135 -0.7069943 -0.764284 0.08253863 -0.9738276 0.11677865 -0.3868119 0.61146486 -0.41847828 -0.71724534 -0.42399332 0.46719396 0.03893846 0.093192734 -0.2731496 -0.12604576 -0.44209382 -0.44822323 -0.31148836 0.4084691 0.37577325 0.90733063 -0.45867383 0.83302265 -0.6186771 -0.9000127 -0.34953117 0.6320138 -0.5091749 0.01309666 0.14901981 -0.4493738 -0.6691252 0.42233992 -0.049913034 -0.10719771 0.30741954 0.4252649 -0.12097887 -0.12900433 0.56354487 0.20675641 0.23668158 -0.3715259 1.0810012 -0.32898194 0.10987178 0.90119326 0.2382455 0.561539 -1.3261124 0.01862625 -0.11124759 -0.3029618 -0.3307619 0.2911495 0.34332848 -0.09016336 -0.41408166 0.6710454 -0.17678283
下午 -2.3959754 0.83088803 -0.99649245 0.02952275 0.17790917 -0.050665878 -0.8739935 -0.790485 -0.81417716 0.86215615 -0.5744697 -0.20038752 0.59910727 0.24603379 0.6866681 0.13029525 1.1131688 -0.23684417 1.5400006 -0.21021898 0.280435 0.9805772 -0.09171519 -0.09048644 0.11523813 0.28102413 -2.0883684 -0.43414846 -0.30669218 -0.25216955 1.1698436 0.3760664 0.41983092 -0.71639365 -0.06927664 -0.79706264 -0.42262077 0.2580633 0.40477479 -1.1817083 -1.2136533 -0.5133832 -0.6652468 -0.9435475 -0.5898623 -0.025450721 -0.70608544 -0.5973305 0.5719202 0.8828254 0.2571195 0.038736463 0.2359461 -0.40144452 1.1587757 0.54986924 -0.13409333 -0.40622237 0.549447 1.5438719 0.57719046 0.2360018 0.2553163 0.45078596 0.013727598 -0.50578415 -0.48266843 0.7756172 0.5428092 0.15265352 -0.041885197 -0.79932594 0.1050126 0.023750616 0.1521957 0.56238407 -0.39013183 0.6518267 -0.6583528 0.1823517 -0.34627143 -0.20260835 0.06091221 1.1734239 -0.3780657 0.14311522 0.13698846 0.42906722 1.3485056 -0.40362972 1.9476078 -0.14382458 -0.6913625 -0.95045316 -0.14232415 0.007929033 0.55573237 -0.36653346 -0.13721146 0.16991223
歌曲 -0.01497024 0.3189415 0.21792036 -0.5838783 0.39428487 0.11705472 0.4772245 2.3944595 0.40046066 -1.1517568 0.08913693 -0.74416935 -0.81706405 0.19405487 -0.029638397 -0.49897766 0.3844515 0.08275027 0.3726666 -1.7185591 0.8107566 0.8723466 -0.16443554 0.75146633 -0.44924295 0.09937082 0.09983089 -0.2752224 0.8393809 -0.84565043 -0.65245134 -0.29279912 0.8178627 -1.6305815 -0.0047699437 0.68646 0.14078581 -0.2167748 0.043651175 0.24360397 1.386315 -0.6921021 -0.085593574 -0.3592281 1.4591286 0.14683819 -1.4093379 0.3915425 0.24039678 0.16757286 0.59863585 0.44289786 0.9589862 -0.28876454 -0.4878708 -0.29162714 0.81802905 -0.35153714 -1.1611654 0.022482619 -0.17078844 -0.47496334 0.5149086 -0.18086872 -0.93486893 0.61448526 0.5715429 0.5162466 0.68312156 1.5518966 -0.27795386 0.8005815 0.21838549 -0.801117 1.9317622 -0.9734017 0.18663488 -0.13806418 0.3717773 -0.613879 -0.8373087 0.3548029 -0.27181396 0.10277003 -0.5499633 1.0510134 0.9290299 0.186939 0.32644415 -0.8870988 0.5949156 -0.9068562 0.9973755 0.49327606 1.2837331 -0.087870836 -1.0894145 -0.0933774 0.264521 0.5821673
频率 -1.5819278 0.8616131 -2.001463 1.5697637 0.27491215 0.99961835 0.63754743 0.48849666 -1.0305984 2.7098844 -1.0096968 -1.2215059 -1.928844 -0.2655917 -0.7629424 -0.17247152 0.3867915 0.89831716 1.3476336 0.31606767 0.91697246 1.416927 -1.283942 -0.17825374 -0.84372264 0.7241014 -0.6474348 0.64529043 -1.0338372 -1.2952095 -0.201338 -0.40100345 1.1174049 0.60268795 -1.41102 2.1147609 0.89671236 -0.25292903 -1.7672992 -0.5570614 0.5023211 -1.3405119 -1.4962467 1.965141 1.1330992 1.0792036 -0.85974723 -2.5482626 2.0722458 -1.109566 0.20622951 0.10865635 0.5836281 1.0612162 0.33475497 1.0108805 1.6202188 -0.19653147 0.09856412 1.3294035 0.81500053 -0.2313122 -0.06898759 0.28333777 -0.94676155 0.2163727 -1.6763322 2.7182283 -0.1933699 1.2274212 -0.9030472 -0.4964294 1.0721226 0.29012367 1.4880779 0.04641043 0.48913115 -0.012658332 0.0048389495 -0.23969953 -0.89646554 -0.78543454 0.21209577 0.0655277 -0.7851968 -0.2617915 -1.459814 -0.30045432 0.66175324 1.5983391 1.1389488 0.99573225 0.5679374 -0.660622 0.44531715 1.7749329 1.7520838 2.0263433 1.0544866 -0.14462
收听 -0.43577695 0.44023737 -1.6883568 0.44777933 0.35858518 1.1286961 1.5803 0.9503342 -0.12709856 1.1730899 -0.7179683 -0.09031369 -1.0316424 -0.55390567 -0.9069737 0.52157265 0.4667302 0.6506887 1.89314 -0.6423287 1.8260735 0.49801567 -0.94914985 0.79295397 -0.24148719 0.6977459 -0.48512813 0.26339945 -1.2013348 -0.5294139 -0.63728344 0.1659392 0.37533677 0.026330525 0.23703681 1.6492872 0.95503116 -0.54958403 -1.0582292 -0.17832671 -0.8089478 -0.86651766 -1.3877019 1.8474349 0.40162304 0.5436141 -0.04650392 -1.4828906 2.6676543 0.0039963173 -0.41285616 0.8693242 -0.7491384 1.3108385 0.3549597 1.3560487 0.39984208 -0.7728635 -0.7379424 0.5031141 0.4866152 0.32419634 0.41451567 0.446102 -1.6613156 0.5990492 -1.2578024 1.7801826 -0.54291743 0.14519185 -0.21151412 0.78113484 1.1135323 0.6256869 0.35613343 -0.2826019 0.41482756 0.1868073 -0.045890883 -0.08430543 -0.07757503 -0.099407814 0.032345705 -0.12743777 -0.50970095 -0.65982866 -1.3239831 -0.66009825 0.1749305 0.72284216 0.8570985 0.51498616 0.23108633 0.22852075 0.7516471 1.4963775 0.5171507 0.4758663 -0.026925327 -1.1100852
几号 -0.60964495 0.6582462 1.5648139 -0.23968515 -0.47801438 -1.462889 0.3641743 1.127748 -0.43049824 -1.6223055 -0.32431358 -0.8710919 1.0470295 -0.4391299 0.86136955 -0.91332364 0.37933773 -0.5540591 0.4688636 -1.9596757 0.50773156 -0.6075987 -0.1346838 -1.498132 -0.65276796 0.35995537 -0.48625576 -0.67300963 -0.64237934 0.7593809 -0.66163105 0.6314258 -0.7664309 -0.55214965 -0.5506896 1.1746153 -1.4663582 0.30795735 0.40222067 -1.0935509 1.5619136 -0.6207057 0.6010955 -0.33784708 0.4786513 -1.6633149 -0.33912292 -1.5278927 0.5575206 0.13808987 -0.05004152 0.06375357 0.645991 -1.1020359 0.57871956 -0.21471463 -0.11583745 0.726932 0.13751417 0.8414715 -0.4087151 -0.90897423 -0.7740765 -0.124917455 -0.22579984 0.3088306 1.0478709 0.71605563 0.5519089 -0.45767635 -0.44642425 -1.1326736 0.13794783 0.08903233 0.16581047 1.8328171 1.7964847 0.14180283 -0.018526794 0.9367916 -0.31324127 0.7523341 -0.50411683 0.61983186 0.3679526 0.76678294 1.3280262 0.39035815 1.5585145 0.70927286 0.94888777 -0.23955294 0.13220443 -0.12731662 1.1891094 1.1109067 -0.08111196 -0.5002543 0.33808312 -0.6801652
电台 -0.46567795 -0.408699 -1.9525373 0.57055575 0.6250574 0.7423808 1.188671 1.3772482 -0.4137733 1.0731065 -1.3925241 -0.44501275 -0.5156871 -0.48397666 -0.5775832 -0.58381313 -0.43802026 0.21942687 1.5147289 -0.27522954 1.6570444 0.18459547 -0.123869605 0.64963883 -0.33665055 0.24138476 -0.54440254 0.64815706 -0.31098554 -0.75573 -0.06583063 0.07634142 0.7550969 -0.29239365 0.7353201 0.89560205 0.5057757 0.05777988 -0.38182315 0.33626637 -0.73534405 -1.3213892 -0.9308798 0.87546086 -0.080233224 0.890795 -0.42778823 -0.68948907 1.6286443 -0.2123846 -0.3653611 0.2881923 0.52081376 0.9541245 -0.0542553 1.6633035 0.3966659 -0.62927395 0.017554313 0.83988124 0.14249729 0.023478609 0.46452928 0.8704729 -1.3803939 -0.07138207 -0.55137277 1.9357827 -0.3415329 1.1394067 0.30648503 0.74024177 0.8638494 0.2505281 1.2903707 -1.3105848 0.22445694 0.24813953 -0.18968394 0.0077330107 -0.77158576 0.078768656 -0.27952605 0.118368655 -0.6605637 -0.8392456 -1.0003196 0.6449205 -0.3338163 -0.70894104 1.1181452 -0.5176499 0.79830164 -0.35369644 0.44012704 0.26491338 0.87610453 0.34250084 0.6429126 -0.8627429
电视剧 1.2864381 1.6945069 0.63186884 -0.1391038 -1.6160288 -0.18101162 0.47852254 0.952249 0.28895107 -1.0542741 0.32232925 -1.5119135 1.5456667 0.43967518 -0.2896762 0.4510354 -0.20011291 -0.9398075 -0.23451582 -2.2622457 0.0058080493 0.5496064 0.86975384 1.1652443 -1.1881617 0.4930306 -0.15317912 0.12727639 1.5191998 -0.30695358 0.341326 -0.6158918 0.7596474 -0.65125877 -1.1213704 1.0698026 -0.5166826 -1.2487366 -0.31932947 -0.6749064 0.36822724 1.5760616 0.05485448 0.1353841 0.12681855 0.7933771 -0.90400475 -1.1597644 0.1014333 1.3352453 -1.1372983 -0.47511402 -0.920572 -1.0441036 -0.3974956 -0.13779245 0.9747094 0.25747427 -0.7842365 -0.79547065 -0.22908604 -0.39377165 -0.44156656 -0.50819004 -0.88271266 0.73846453 0.5504466 0.82091326 -1.4622453 1.1837722 -0.855692 1.3863999 0.44933346 -0.16560401 -0.34963045 -0.18887834 0.82287407 -0.21101685 -0.1338313 0.2169318 -0.9139774 -0.36638674 -1.41536 1.6654787 -0.44561762 -0.72655964 0.24827567 -0.15958217 0.09256875 -0.5178416 -0.27255782 -0.098490566 -0.8719746 0.89905584 -0.18665488 -0.6541214 -0.8140808 0.6886079 0.42904904 0.592019
随机 -0.5121065 -0.84112865 -0.24161147 -0.106974564 0.58675194 -0.019605823 0.052684613 1.8668377 0.19783099 -0.469947 -1.0041093 -0.722875 0.016008338 -0.063907064 0.33077285 -0.7629107 -0.39493906 -0.1914015 -0.88742566 -1.6444132 0.37541553 0.21209624 -0.38081944 0.5406902 -0.13948338 -0.57523 0.0052142222 -0.6774708 0.09102294 -0.29015517 0.054484513 -0.5126229 1.0052869 -0.4273686 0.18739752 0.3782313 0.0034774572 0.2936163 0.106698304 -0.028266508 0.31312597 -0.33158937 -0.5922313 0.35725015 0.6522245 -0.15879016 -1.1305352 0.72005624 0.012502176 -0.15286748 0.99551874 -0.64544815 -0.07600161 -0.18565339 -1.4000849 0.49717826 0.30561793 -0.63336164 -1.494957 0.26235664 0.109402575 1.2039936 0.3762302 -0.44224286 -0.41674915 0.4442142 0.48686323 -0.27909327 0.395977 0.6197856 -0.0004607404 1.5095655 0.45200926 -0.63614035 1.4535819 0.029710643 0.09816177 -0.4061148 -1.0502315 -0.2404762 -0.5029243 0.15388921 -0.58804214 -0.20440467 -1.0077446 0.88954383 -0.2603621 -0.13116336 0.02348147 -0.6777398 0.3744715 -0.04885552 0.9482096 0.8084072 1.603282 0.2774404 -0.540317 -0.13063994 -0.3085867 0.22248349
电影 0.32974097 0.48232892 1.1693747 0.69204795 -1.6744795 0.25639382 -0.43606988 0.71060336 0.17227216 -0.7805814 0.027929384 -1.1743379 1.6291078 0.21367647 -0.33060834 -0.33514035 0.5840606 -0.8607326 -0.19984038 -0.85372925 -0.5931688 0.03863299 0.31068167 -0.008633131 -0.19944324 -0.011944411 -0.6870391 -0.68633187 0.6924851 -0.19896497 0.52063406 -0.1524559 1.0159522 -1.403404 -0.33801606 0.33991387 -0.42731005 -1.6408691 0.016395075 -1.0624706 -0.14377362 1.1139755 0.42527997 -1.1552731 0.074464455 -0.04959511 -0.22083928 0.44112772 -1.5718766 0.80332804 -0.8496607 -0.43781632 -0.07136874 -0.5052006 0.042777266 -0.012595819 -0.21006934 0.33769077 -0.67775434 -0.81979996 -0.65967643 0.5505238 -0.7305996 -0.3784317 -0.41691735 -0.28879684 1.0270349 0.8717806 -1.0288085 1.2399714 0.40397677 1.3077707 0.4197825 -1.2491772 0.5014149 -0.32437187 0.21794859 -0.5249451 -0.47828272 0.5608077 -0.72765046 -1.0876635 -0.43721807 2.0036988 -0.3502514 -0.57312566 0.6257078 0.58011156 0.19619073 -0.25745764 1.097814 -0.8253442 -0.08745991 0.19102104 -0.87125885 0.38621575 -0.82984114 0.8006304 0.5894203 0.37150887
星期 0.40259078 0.5795868 1.2995853 0.62947476 -0.6530501 -1.2884812 0.36835757 1.2900447 -0.4877238 -1.5767628 -0.5589208 -0.8490313 0.87958884 -0.05618283 0.3562536 -0.2927723 -0.15608367 -0.11803516 0.46353674 -1.5876108 0.6214471 0.6352345 -0.11309008 -0.7473198 -0.1516049 0.65414536 -1.1125691 -0.19627757 -0.12516432 0.839413 -0.30283773 0.60354495 -1.0237026 -0.85148346 -0.7067208 1.1126897 -0.54601514 -0.37879536 -0.3848342 -0.69037074 2.0563564 -0.628833 -0.046824865 -0.291499 0.24069533 -2.1333818 0.13489169 -0.5533995 0.0073465025 -0.05315494 0.27505293 -0.9666148 0.14152376 -0.2526773 0.25760818 -0.026861375 -0.700786 -0.024494698 -0.5428582 0.0040862206 -0.9670157 -0.6673036 -0.049902678 0.5770236 0.7479553 0.88716245 1.0726675 0.61128896 -0.8110096 -0.02099024 -0.47758043 -0.34234422 -0.14993499 -0.6867888 -0.34019366 1.2554728 -0.14956379 0.32791576 0.2497921 0.7914609 -0.36615267 0.43799973 -0.113346785 0.38416335 -0.059958365 0.23198098 1.7783719 1.5931593 1.1733518 0.35552388 0.33728957 -0.30195844 -0.8467468 0.057254832 1.1724453 -0.22742409 -0.48380527 -0.70283085 0.15801656 0.5161192
模式 -1.4602332 -0.27558678 1.2599605 -0.89989364 0.46467546 -1.6470157 -0.25467387 0.460048 0.40156916 -0.53551227 -0.42598686 -0.91713095 -1.3072264 0.53921044 1.2709687 1.2738378 0.65609515 -1.3572657 1.1914082 -0.6427381 0.48061916 1.0603225 1.8402027 -1.1131133 0.11521857 0.9188287 -0.78733486 0.97036386 -0.7233894 -0.5403002 2.4192138 -0.41580486 0.23822619 0.06896443 0.5221359 -0.072334 0.44205803 0.14343919 -2.0343413 0.50253004 0.16758458 0.15931816 0.31281856 -1.3223053 0.3067889 -0.088072225 -0.63083243 -0.60701615 0.3150059 0.5545569 0.47064918 -0.64215636 -0.43858072 2.0123136 -0.6372609 -0.039811336 0.9690495 0.77994907 -1.2309945 -0.38090307 -0.24763332 0.26449913 0.5325186 0.48023656 -0.70647675 0.6703098 1.0788367 -0.5048327 -0.069908634 1.11095 -1.4222218 0.6159661 -0.20761046 -0.53367126 1.2505563 -0.4585091 0.8016965 0.05104888 -1.0476545 -0.2179978 -0.13954508 -0.3819621 -0.21538298 0.9528667 0.01650959 0.942042 -0.49335673 1.2864758 -1.165686 0.80982435 0.9738439 0.03997421 -0.7042711 0.316758 0.23160106 1.3854902 1.3777131 0.4327681 0.9551355 1.3261342
北京 0.19274428 -0.5508199 -0.827642 -0.21504739 -0.6105058 -1.6647058 0.42364007 0.6828462 0.14140387 -0.051136483 0.3669576 -0.33726284 0.25864542 0.7145501 -0.5975973 0.3997367 0.03155097 0.095023416 0.49390125 0.4288251 0.4298109 0.49370974 -1.6968203 -0.06842317 0.36817956 -0.23705742 0.26304212 -1.0071423 0.24226554 -0.7490357 0.7517361 0.9504979 0.018767836 -0.1555897 -0.34655878 -0.026809623 0.21882176 -1.1779306 0.02513763 -0.4750169 -0.4097521 -0.47604668 -0.08284782 -0.27194786 1.119436 -0.1831945 0.62599605 -0.5605063 1.2162648 -0.39234173 0.50572366 0.4560107 -0.19140185 -0.5895804 0.07434637 0.80527747 0.053547565 -0.27487856 0.46270087 0.492934 0.350206 0.11897832 0.017637866 0.14011793 -1.2206796 0.68855804 -1.1630486 -0.2925846 0.46381912 0.5200805 -0.48609784 -0.7241249 0.100689456 0.5592575 0.6848396 0.75688064 0.101081826 -0.12676203 0.39840716 0.8894289 0.8678023 -0.16709112 -0.51353204 0.2571275 0.5635957 -0.34192166 -0.19290008 -0.08743574 1.1201578 -0.10853137 -0.0206403 -0.2096451 -0.23025271 -0.014443566 0.3053744 0.35914212 0.3710483 0.2458671 0.36385956 -0.9786796
几月 0.8406489 1.000924 0.13168027 -0.21319973 -0.96197665 -1.2797182 -0.121943876 2.0905845 -0.6620756 -0.39345428 -0.7821193 0.27073136 0.21634084 -0.6030248 -0.59017295 -0.10206842 1.3223559 0.545575 -0.18858953 -2.6758504 -0.5245661 0.87271 -0.54115 -1.4683459 -0.35490632 0.7786181 -1.5099014 -0.9007598 -0.42619333 0.69190025 0.17782265 0.28698465 -0.6757186 -1.7077221 -0.72708505 1.4311191 -0.65671283 -0.8210602 0.6883496 -1.8886056 0.7068303 -1.2261379 0.44305763 -0.37248844 -0.2095871 -1.830012 0.116126694 -1.8179272 0.5626152 -0.08759704 -0.34946516 -0.30395603 -0.38448355 -0.68430823 0.46697736 0.5100916 -0.5305169 0.52083707 -0.7616781 0.9811011 0.54218316 -0.5201397 -0.19255103 0.9197403 0.2707861 1.306789 1.2171776 -0.3476677 -0.7898595 -0.2200648 -0.91496766 -1.7253196 -0.61525214 -0.60008204 -0.25389266 0.59434843 -0.09576266 0.51875097 -0.5383436 0.59332645 0.7814534 1.1177415 -0.5921155 1.0855482 -0.6482127 0.4939854 1.1103258 1.2865806 0.8470242 0.5315656 0.32581174 -0.32420766 0.23699988 -0.14291729 0.7817125 -0.55212116 -0.63686085 0.08816436 -0.39115024 -0.042365238
广播电台 -0.7043884 -0.32585627 -1.9616022 1.4283786 0.47724682 0.8043946 1.6285608 0.55622095 -1.4670256 2.5709763 -1.8468654 0.071576826 -0.53324205 -1.8256037 -0.5326101 0.014978132 -0.023102637 -0.13862291 1.4454387 -1.0157123 1.6456288 0.15298012 -0.39908856 -0.2362005 -1.2932358 1.0166222 -0.5710413 0.94645 -0.4113616 -0.07136925 -0.107322395 0.84003365 0.7909391 0.97472495 0.64130354 1.9206394 0.19559792 0.39562088 -0.97825915 -0.5743179 -0.2581892 -1.5101576 -1.467893 1.0073539 0.091426335 0.6351775 0.5441811 -1.6153415 1.7873024 0.12973039 0.6124432 1.0234867 0.1653143 0.18401244 -0.21627657 2.0399406 0.5262764 0.3324167 -1.436881 0.3450378 0.4139911 -0.19409893 -0.15616408 0.7261594 -2.192651 0.47964206 0.20653217 2.137978 -0.7496767 0.44313964 -0.9264248 -0.54302907 0.83561313 0.8212755 0.16960558 -1.7395918 0.99288046 0.71536905 -0.062765725 1.7660427 -0.9388857 0.124853075 -0.73006666 0.7103244 -0.17977417 -1.4996036 -1.4099315 1.2006708 0.14756103 0.3134979 2.1008692 -0.2605706 0.9940401 -1.3826797 -0.34145427 0.43042082 1.4508066 1.6073452 0.65003884 -1.0986564
晚上 -1.9117297 0.933851 -1.3754226 -0.4068271 -0.20474851 -0.16840611 -0.20997122 -0.75394106 -0.13801534 -0.09642404 0.4005855 -0.500009 0.02019213 0.71949226 0.18159245 -0.39581048 1.1660808 -1.2439525 0.6414789 0.09190935 0.14046527 1.1382419 0.4532675 0.70872915 -1.2431768 -0.8768947 -1.70055 -1.2294719 -0.7606921 -0.7251456 2.0761552 -0.3736295 0.46175689 -1.5157149 -1.2719265 -0.5629923 -0.68254143 0.81329423 0.47837454 -1.5705025 -1.3424578 -0.3377917 -0.10408184 -0.92646575 -0.25429618 -0.2253268 -0.4599404 -0.026084583 0.19767857 0.575933 -0.9753309 -0.021544853 0.51794183 -0.8048566 1.2320364 0.5878182 0.8007753 -0.8287236 0.3339122 -0.14380145 -0.61934453 -0.5750751 -0.0049517616 0.44193444 -0.15222234 -0.16684483 -0.9938092 0.49622986 -0.34296525 0.52592975 0.7035247 -1.0140352 1.0304931 -0.22458307 -0.8000483 0.6454483 -0.08069557 -0.21577616 -1.0616395 -1.423541 -0.37535968 -0.09408788 0.4146491 1.6905177 0.23224849 -0.0070782523 0.12333805 0.2798532 0.80268437 -0.85651034 0.6511976 0.47707453 -0.20544194 -0.07047434 -0.7513662 -0.031578347 -0.20136243 0.0030946475 -0.06885087 -0.2804749
上午 -1.4211873 0.33658597 -0.5672868 -0.05124545 0.2317636 -0.9033956 0.14154807 -1.2791317 -1.0581386 -0.33308834 0.21055315 -0.6765595 1.3547583 0.8121875 0.61296576 0.59175855 1.2063806 -1.1817589 1.252787 -0.28895107 -0.10859112 1.2594472 0.83762187 -0.5495821 0.27135295 -0.67183197 -2.5913842 -1.3430244 -0.4346807 -0.20251602 2.5946376 0.8823424 1.0547428 -1.5968144 -0.9620988 -0.58165437 -0.9301444 0.7362332 0.09655467 -2.2540276 -1.2343612 0.3698214 -0.14147568 -1.7010735 -0.06822855 -0.75004673 -0.16832425 -0.5024252 0.06334738 1.14304 -0.057507403 0.13222286 -0.11669932 -0.55761933 1.6172917 0.53775215 -0.3360033 -1.0883001 0.07092064 1.0777098 0.6606955 -0.2331161 -0.5621716 0.10162482 -0.61016595 -0.9397213 -0.9277151 -0.87002647 0.5818788 0.4168699 -0.030376691 -2.3031147 1.0629708 -0.28757972 -0.26554394 0.31183755 0.46402612 -0.3930629 -0.46134055 -0.4791494 -0.37946767 -0.13725865 -0.73749906 1.8631788 -0.7075849 -0.56515926 0.49400452 0.59143156 1.5175923 -1.0430813 1.3969085 0.6271691 -0.6412689 0.19123307 -0.48076352 -0.09852808 -0.6414216 -0.6074114 0.08930626 -0.27124748
循环 -0.8974868 -1.4529114 -0.9031433 0.012220068 0.99702597 0.13825779 -0.31676358 0.8365207 -1.615237 0.18336676 -1.120899 -0.77869165 0.6980181 0.63594496 0.14457026 -1.0679775 0.14171484 -1.1729355 -1.0709133 -1.4436796 0.21478921 0.20695516 -0.654261 0.3818365 0.926398 0.5849781 0.0028670754 0.8482995 0.41061258 -0.19557536 -1.1487973 0.6935189 -0.7296964 -0.064717166 1.0464733 0.3454249 0.8691978 -1.2506173 0.25477418 0.6743051 -1.4313989 -0.7284758 0.30385858 1.0111499 0.5244285 0.27864042 -1.2858922 1.4437149 -0.16071577 -0.7904152 0.5586342 0.16718933 -0.50802344 0.41248754 -1.0559785 -0.0017669698 1.0256449 0.45484835 0.6859212 0.69182354 -0.06286506 -0.59896386 -0.10379029 1.1111082 -0.19236518 -0.019089848 -0.41517195 0.69136196 -0.9567516 1.3581486 -0.065632544 1.9135426 -0.23521322 -0.22682388 -0.25365904 -1.0472494 0.09841395 0.45895654 -0.014091478 0.7953321 -1.2207339 0.14883143 -1.5276352 0.5207606 -0.22688733 1.3263748 -0.75208277 0.9790857 1.0975978 -0.13764004 0.14015582 0.97879714 0.55349004 0.89592224 0.7391712 0.7884572 0.67295027 -0.6305077 -0.17994234 -0.1627099
之声 0.755333 0.5867607 -1.2794223 1.1515489 -0.52232134 -0.03316796 1.6990356 0.73839253 -1.0939273 1.6157621 -1.090944 -1.3770759 -0.14720634 -0.9146986 0.24582542 -0.89773583 -0.7480995 0.17143987 1.6267631 -1.00799 2.1057367 -0.24179615 -1.2127836 0.092910886 0.036353122 1.0478551 0.27932593 0.055658657 -0.62227535 -0.16200188 0.15867625 0.21724692 1.3394606 -1.0203378 0.15008901 1.310222 1.4627471 1.0701997 -0.6825384 -0.35052443 -0.50818694 -0.7201559 0.54151493 1.0345751 0.50901514 -0.31833732 0.07012617 -1.3064969 1.040461 -0.21929829 -0.18035105 0.045182474 -0.1338391 1.0938329 0.08891564 0.45807323 0.13365 0.08293724 -1.2895167 1.2538321 0.8071875 -0.72823685 -0.49672395 0.82626104 -1.2988837 -0.42140532 -1.5774965 2.0444074 -0.026030982 -0.24158598 -0.05475463 0.666375 0.90847397 0.41643313 1.0433203 -0.972529 0.13517413 0.26029646 1.2761806 0.9575682 -0.19150177 -0.79184645 -2.1122253 -0.5450787 -0.11562656 -1.4396011 0.030344525 0.61070436 0.553294 0.59816635 0.33646685 0.007701542 0.85406846 -0.6830124 0.92044425 0.09158984 0.30565596 0.0515156 -0.07187978 -1.4329453
主持 0.56211376 0.118829936 -0.6152403 0.30353445 -0.63318026 0.42544362 0.13928305 0.6856756 0.038728844 0.2262549 -0.31416512 -0.83055836 0.2530873 0.43657452 -1.0388833 -1.0612433 -0.4501953 -0.58714896 1.1340889 -0.40737584 1.0995154 0.33095112 -0.06829293 0.27505782 0.16811866 0.03842979 -0.012128966 0.61889493 -0.035252336 0.34765312 0.18540713 -0.47548816 0.712727 -1.0783117 -0.6972876 1.3731943 0.5580801 -1.1717399 -0.35372356 -0.43145573 -0.004415292 -0.047547895 0.24133801 0.8368567 0.9788279 1.0876329 -1.125798 -0.8314639 0.8714922 -0.005358838 0.18317077 0.4879728 -0.25282827 -0.2739851 -0.11738181 0.27451184 0.19277336 0.13541017 -0.07981029 0.17695835 -0.08790677 -0.26061305 -0.4863537 -0.20791341 -0.8019642 -0.120180376 -1.1277983 1.2305262 -0.3112857 0.8845124 -1.1549243 1.3225698 0.56262755 0.22827113 0.93698704 -0.44477212 0.018216515 -0.16609403 0.47863844 1.0696758 -0.23995271 -0.4400523 -1.2717614 0.056068297 0.13852781 -0.28946215 -0.37035704 -0.33129996 0.50524974 0.73828024 0.28230652 -0.4145216 0.026894893 -1.1517919 0.5088144 -0.40443403 -0.39350933 0.67685604 0.16830118 -1.4681584
温度 1.0846868 -0.3497324 -0.84214747 -1.3862981 0.1306001 -0.6503991 0.3495173 0.45559472 -0.0025359734 -0.05723975 0.0614028 -0.77499634 -0.35433963 -1.3313967 0.22435252 0.43557283 -0.09378274 -0.85621864 1.0757396 -0.3973993 -1.0786796 -0.119416244 1.481101 -1.1305588 0.84914255 0.24919346 0.07095604 0.029532975 -0.492145 0.23654634 1.0071536 0.55108666 0.61327 0.27143165 -0.386096 0.37715358 -2.0537481 -0.5383103 -0.32430154 -1.4177771 1.3819582 -1.9195802 -0.06643082 -0.7375436 0.3007045 0.23495713 0.45570466 0.14499846 -1.636671 0.78224397 0.22227831 -0.9114302 0.9561776 1.1879162 0.880024 -0.68939096 0.701598 1.7476177 -1.5229005 0.63733155 -0.25186917 -0.0562721 0.5830823 0.96087223 0.16231845 0.45420977 0.43131933 -0.09656533 -0.838888 0.9923429 -0.14248967 -0.5396134 0.8540202 -0.25285453 -0.35722122 -0.66719854 -0.49473175 -0.38762224 -0.018475631 0.2489236 0.9735716 -1.6651609 0.027503053 0.55201256 0.5381325 -0.15036434 0.58826 1.6155052 -0.51568276 0.7334936 0.57137406 1.2280481 -0.18499665 -0.03087012 1.0956192 0.22099209 1.5924166 -0.52194166 0.20291413 -1.5091023
音乐 0.798703 -0.23573808 -0.89468914 -0.46955535 -0.06253284 0.7748579 1.1900492 1.5543019 -0.71805596 0.317558 -0.26453707 -0.472576 -1.217345 -0.14867389 -0.21554674 0.24567428 -0.3973525 0.21961436 0.104577355 -0.7980023 -0.44591522 0.61191005 -0.56793475 0.7886224 0.3934836 0.06526116 0.34480518 -0.29442888 0.12945966 0.12133615 -0.07580787 -0.2497783 1.3333547 -0.50011843 -0.23677166 1.1553034 -0.8076759 -1.1239158 0.2434266 -0.26060995 0.10637934 -1.0343968 -0.6364732 0.56501377 1.2287757 0.9668387 -0.26709765 -0.4762608 0.3887406 -0.0077066687 0.95554453 0.9861265 0.23189162 -0.17080596 0.09121963 0.04966287 -0.29182526 0.18013394 -1.1620923 0.4215289 -0.19446625 -0.12113538 0.2336935 0.72702223 -0.99925566 0.61825347 0.23965207 0.3753819 0.65773183 0.6043562 -0.13242398 1.2413409 0.17451502 0.51563454 1.5336987 -1.2371573 0.20526181 -0.56406397 1.6273324 0.7499233 0.20545234 -0.675563 0.5531143 -0.47284672 -0.12627913 -0.023465933 0.032469906 -0.3383828 -0.34967825 0.031608757 0.2588085 -0.52433026 1.4306439 0.048775397 1.1614175 0.6534389 -0.5661201 0.68540126 0.10006894 -0.69125414
动漫 -0.69070566 -0.18236668 -0.22961922 -0.016141396 -1.1775856 0.15136208 -0.29782027 1.0104712 0.44491988 -1.0457742 0.6772105 -1.2278322 1.0008763 0.81116486 -0.21087529 -1.7752231 0.051764123 -0.117284216 0.026359925 -0.020650147 0.9772899 1.3884317 -0.16081285 0.22528107 -0.5406002 -0.95012105 -0.5612342 -1.1647404 -0.69211584 0.3285453 -0.20851752 -0.7374008 0.6639447 -1.3080032 -1.450881 0.80330163 -0.20865743 -1.4005188 -0.690181 -0.7946365 1.0593575 0.18625268 1.4369327 -1.3923198 0.44275865 -0.12673056 -0.38617083 -0.94543165 -0.7386928 0.49927488 -1.1569244 -1.3383969 0.55521995 -0.7289595 0.21576136 -1.5285608 0.77355677 -0.22190426 0.62256795 -1.255776 -0.7019999 -0.57485574 0.12996846 -0.82165426 -1.5033419 0.2742559 -0.19244818 1.2249888 -2.1380222 0.88346934 0.9457621 0.95941454 0.79601586 -1.2353649 0.87600076 0.9027207 -0.17253473 0.072509214 -1.3942263 1.0974082 -0.94599086 -0.2561523 -1.1672398 2.0848193 0.08787672 0.0387271 0.5945981 1.0661458 -0.22564857 0.476225 -0.59439665 -1.0885496 0.5487079 -0.1885432 -0.035393734 1.6389602 -1.6390427 -0.4944824 0.90448153 0.57479125
后天 0.084967405 -0.20021379 -0.15193792 0.86700326 -0.13758364 -0.6225889 -0.23028414 0.5490472 -0.7230702 0.8248416 0.5830526 0.583091 -1.377368 -0.5215214 0.21616358 1.4498105 0.72722405 0.3079593 0.11178829 -0.27315038 -0.9864234 0.8360576 0.5719058 -1.5683562 0.7753426 0.8241793 -0.27839062 0.0020137676 -1.1425374 0.74453235 1.3314692 -0.23086685 0.09950588 0.07469647 0.20220682 0.34752843 0.5296337 -1.1327266 0.77884936 -1.8156686 -1.1492416 -0.88108486 -0.42164174 -0.10331677 0.13371003 0.47040915 0.93870753 -0.49645442 -0.30315194 -0.81810284 0.12775972 0.40793625 0.03696403 0.0065381015 -0.25794375 0.9344999 -0.017937828 0.3290531 0.4919764 1.1972679 0.61943847 0.5037874 -0.6549571 -0.52473813 -0.8000085 0.5159028 0.68422943 -0.35680038 -0.7346498 0.23921822 -0.161388 -1.6294669 1.2691982 0.43109274 -1.2015209 0.6478692 -0.07144667 -0.81528217 -0.7342172 -0.31005648 -0.22624506 0.15873906 0.37549335 1.3520477 -0.45513958 -0.45348525 0.21606812 -0.58305305 0.9094924 -0.32390988 0.7615157 0.66589195 0.40289715 -0.33771893 -0.31388998 0.69282347 0.48239583 -0.65130055 -0.63895047 -0.40791297
人民 0.07307263 1.4213384 -1.7495077 0.54818726 -0.48694697 0.9946754 1.6800718 0.8241254 -0.6155393 2.809151 -0.055159077 -1.0473984 -1.0178871 -1.2347487 0.5708083 1.263673 0.55644804 1.4866644 0.7915876 -0.41470575 0.0798509 -0.021814855 -1.8141292 0.35082102 -0.6466231 1.7314456 0.10639372 -0.764761 -0.8818623 -0.580296 -0.916156 0.4713397 1.4535675 -0.5560069 0.05174062 2.4984376 1.5625038 -0.0064162947 -1.7178711 -1.1129453 -1.5778053 -0.765545 -0.33141175 0.8518882 1.1715249 0.3450067 0.35103926 -1.3116089 0.96195936 0.5757033 0.74830145 0.560352 -0.51711476 -0.12606461 0.37209624 -0.019145828 0.56273806 1.3826874 0.16329582 0.94461185 0.5095013 -0.25387526 -0.6671012 0.96592325 -0.99603003 0.68587744 -0.29648313 2.4390051 -0.41383636 -0.17745824 -0.46503365 0.03751863 0.6235983 1.4570386 1.5777382 -0.65190196 0.19198924 0.15315278 0.3921171 1.5920948 -0.29538086 -1.1273793 -0.13033079 -0.5341536 0.17035508 -1.3774829 -0.5443132 0.26596287 0.7439845 1.2992716 0.3579429 0.8370236 0.801332 -0.15532869 1.5469395 1.5582888 2.6142266 1.7410113 0.5675098 -1.1285793
中国 0.6021114 -0.4188576 -0.16585366 1.0078641 -1.7117285 -0.0797483 0.98242986 1.3511655 -0.19585845 -1.0494916 -0.25462255 0.33616677 -1.6282169 0.09817634 -0.7979222 -0.5097676 -1.2324275 0.74103403 -0.37343836 -1.3296821 0.49720958 0.12909876 -0.14526358 -0.030901637 0.03777437 -0.3294936 -0.21554184 -0.4632509 -0.6863131 1.5155239 -0.051389508 -0.21474968 0.62026197 -1.2192488 -1.3535485 0.8994732 0.32667696 -1.1602924 -0.43865478 -0.22535735 0.27823034 -0.7308339 -0.43257162 0.7835962 0.9238791 -0.99375474 0.65907395 -1.3567957 0.7246665 -0.485322 0.06383071 -0.6030789 -0.5321645 -0.70670485 -0.7483296 0.23381427 -1.171944 -0.23696928 -0.17926979 -0.18763915 -0.5716669 -0.8997712 -0.30799145 -0.4281253 -0.024936797 0.18265522 -0.21269184 0.09152714 -0.85509026 0.52807456 -1.0622958 1.1214942 -0.37000033 0.11050409 0.29567802 0.6785338 0.25735933 -0.13685809 -0.26433396 1.4843005 0.68399113 0.4623553 -1.617074 -0.82172143 0.66278744 0.8643874 0.3297208 -0.57152265 0.6495987 -0.55774933 -0.7727503 -0.90302974 -0.3362102 -1.1659683 0.95158464 -0.36971706 -0.863912 0.008094689 -0.17533828 -1.2337108
12 -1.1489155 0.004521478 -0.4793269 0.52857655 -0.6034646 -0.5526738 -0.42546448 0.10786051 0.07491827 -0.5881138 0.41076365 0.20664424 -1.0522999 0.9034248 0.033193346 -0.6324036 0.18693355 0.42246658 0.3901116 -0.24282096 0.05130216 -0.052850515 0.05117226 0.43004665 -0.3184542 0.28265095 -0.38674152 -0.9389207 -0.7058467 0.11737739 0.9299069 0.20005639 0.16954912 -0.53920156 -0.29340413 0.42361405 -0.3281402 0.0092474 0.80052334 -1.2468607 -0.30324006 -1.179263 -0.30350426 -1.1288135 0.014102752 -0.8617449 0.86911386 -1.0274328 0.54309964 -0.11347501 -0.2002014 0.07882335 0.01809469 -0.983242 0.12307233 0.08346412 -0.8870942 0.47037378 0.2834094 1.0267231 0.64179367 -0.632936 0.8920584 -0.065566555 -0.90703124 -0.3333053 0.43684298 0.7502634 -0.46972662 1.0906392 -0.16355056 -0.52062 0.57609695 0.075373545 -0.7062259 1.9347186 0.5672536 0.42397395 0.08399491 0.4866842 0.8509712 -0.29850987 -0.06394701 0.49961615 0.22323273 -0.31211373 0.66514117 -0.85245657 0.8276001 -0.91249305 0.20912811 -0.1895855 -0.3681056 -0.54582095 0.06413983 -0.30606306 -0.56279284 -1.5325269 -0.8121537 -0.08641548
设置 -1.0584037 -0.03250241 0.088862345 -1.8219417 0.7159252 -0.539284 0.15191661 -0.4407351 -1.0836285 -0.47260463 0.67348033 -1.7431418 0.7514529 -0.83476126 1.0064514 0.94039524 0.7275239 -1.0864297 0.73711264 1.160438 -0.68821216 0.6131723 1.5259534 -0.601727 1.3873495 1.0820277 -0.84209484 -0.48353407 -0.94433254 0.32068786 -0.15691186 -0.41662577 0.45502183 -0.17052908 -0.15550885 0.41512766 -0.9468437 -0.26611307 -0.6334834 -1.4939139 -1.203809 -0.42337197 0.26957726 -0.66149116 -0.31555283 -1.0037367 0.5828415 0.20962305 -1.1654693 0.022802927 -0.64273965 0.37516382 0.31659627 0.97803074 0.9704298 -0.9052742 -0.31962734 -0.10840017 -0.25376347 0.17734313 0.7636874 -0.4367851 0.12325007 1.142123 -0.96500903 0.28154925 -0.14691545 -0.06096696 -0.36254692 0.53351176 -0.37989366 0.10498176 1.2504234 -0.6146679 -0.7029397 1.6621567 0.23550548 0.54677105 -0.9214943 -0.72977996 0.3117215 -0.9962315 0.24411112 0.70174354 0.2779166 0.9329056 0.10522157 0.5157526 1.4911631 -0.27715313 0.6425074 1.0250734 0.010406014 1.2040823 0.2949117 0.6365818 -0.09142948 0.31391922 0.49568704 -0.513172
广播 -0.7084265 -0.9976341 -1.8892096 0.7488826 -0.1532133 -1.3137167 1.6527271 -0.035828244 -0.30642462 0.896653 -0.48551062 -0.7995327 -0.55112433 -0.5694244 -0.4504513 -0.5510926 -0.8475832 -1.4276036 0.8878963 0.47151104 2.020236 -0.05178882 -0.49870196 0.20693615 0.67022395 0.47084722 -0.13699175 1.4321806 -0.13745849 -0.7376916 0.68816 0.86387676 1.5534269 -0.10529486 0.09362129 0.47290525 0.63406765 -0.12559542 -0.5248438 0.564475 -0.9742977 -0.7997693 -1.095469 0.449142 0.2718034 -0.0281067 -0.06912832 -0.16637751 1.0117111 1.1405921 0.6759291 1.3123121 0.37847364 -0.4600225 0.7332343 1.9307284 0.05681436 0.5479021 -1.3313614 1.1357851 -0.22788976 0.17704135 -0.874761 0.5422746 -2.6816146 0.0021534231 -1.6397741 1.9939635 0.6920457 1.8591955 0.5994299 0.5123687 1.9475428 0.5949593 1.5874668 -2.440308 0.3762706 -0.2071566 1.4537301 1.0986956 -0.8502721 0.55603856 -0.7965017 0.46731824 -0.8788499 -2.0227172 -1.3585813 1.528415 -0.2951395 -1.1608766 1.9795804 -0.3854955 1.7391725 -0.5112813 0.17086467 -0.060904704 0.10195563 0.3241944 -0.34150302 -1.7538693
节目 0.2332114 1.0863516 -0.5097563 0.3288459 -0.98852223 -0.5283479 1.5224311 0.22038472 -0.65742356 0.034651063 -0.6535371 -1.8987422 0.24493694 0.018920906 -0.2501842 -0.19326995 -1.1931525 0.43835714 0.9019286 -0.02242159 0.89398235 0.3372877 -0.20525135 -0.19702326 0.21070825 -0.14631367 1.1368327 0.49199867 -0.9894356 -0.66902405 0.61935896 -0.42008463 1.7091533 -0.7998882 -0.6131348 1.141772 1.0906277 0.09133688 -0.77690053 0.12023964 -0.4718832 0.45265535 0.5625364 -0.16891313 0.2712028 0.43808097 -0.081817165 -0.5554181 -0.13054079 1.1092902 0.19059436 0.76883084 0.089795426 -0.13425636 1.0046549 0.52809083 -0.09895628 0.011402608 -0.567596 0.35440356 -1.1001016 0.3020144 -0.7475142 -0.20489831 -1.7924312 -1.8259356 -1.4129924 0.79523224 -0.0049368716 1.4719727 0.92312264 0.2094953 0.7308831 0.53033376 0.5321098 -0.09951041 1.111594 -0.89761645 0.29701766 0.51011837 -0.23699927 -0.14639397 -0.12258508 -0.32569182 0.400641 -0.43347174 -1.3302248 1.0250266 0.8110462 -0.25618017 -0.40453118 -0.73304874 0.38688776 -1.1993098 -0.31180972 0.34240896 -0.30612874 0.04571711 0.9544663 -1.4230055
2021 -0.03402621 -0.22448328 -0.40584114 -0.16189091 -0.115128584 -0.5619628 0.84746945 0.30719998 -0.30600497 -0.30304784 0.20004322 -0.65280706 0.48522738 -1.3543506 -0.054130804 -1.4627572 -0.48194578 -0.5472227 0.47793713 -0.025978882 0.4687216 0.16150962 0.24229662 0.2910527 -1.2132698 0.10922092 0.6399556 -0.12570614 -0.106602736 0.34369588 0.54718447 -0.6704627 0.063413806 0.40562874 0.85371906 -0.33725056 -0.64275664 -0.6282774 0.24643001 -0.026479647 0.345729 0.5737143 0.2230927 -0.2313062 0.6641937 -0.3121342 -1.0783305 -0.14079194 0.55498177 -0.31226528 0.43361545 0.61011934 0.6678066 -0.34202597 -1.2330874 -0.3171412 -0.39234817 -1.2468258 0.7739046 -0.3868565 -0.1317183 -0.32075813 -0.57305056 -0.09229398 -0.6434296 -0.67741334 -0.4961352 1.266328 -2.2194934 0.54253095 0.26131117 0.9528038 0.8212975 -0.34437972 -0.84091574 0.45470577 0.3823452 0.25688788 -1.1981817 0.08853346 -1.1579556 0.7960992 -1.0105073 0.80313784 -0.8730353 -0.8399568 0.29281372 0.39755493 0.30109197 -1.1732193 -1.5794445 -0.89714956 0.475851 -0.33194247 1.7429882 0.17643869 -0.57930565 -0.6432427 -0.06715488 -0.2953553
上海 -0.24948998 -0.2537708 -0.67043364 -0.16534148 0.17419647 -1.6390281 0.54445845 0.7569409 -0.34422097 -0.6459511 0.48443353 -1.2945596 -0.11926712 0.5350622 0.32634923 0.82705444 -0.060751542 -0.04614608 0.95566356 -0.38439032 0.43104374 0.7154607 -1.6240976 0.04541225 0.12757567 0.12828432 0.54624933 -0.3069805 0.071685754 -0.28605512 0.6649015 0.7904448 0.43498468 -0.35070804 -0.45048666 0.3527807 0.25888973 -0.933345 -0.5453953 0.25811672 -0.5952423 -0.10078763 -0.6983033 -0.29204798 0.26252586 -0.56745887 0.86233586 -0.46518475 0.31200904 0.016025584 1.3287417 1.5028856 -0.05420359 -0.3555111 0.78545386 1.3798543 -0.14102796 -0.63917744 -0.087726146 0.7444461 -1.0334195 0.2243809 -0.049927704 0.40183106 -1.4312496 0.09472345 -0.34776366 -0.46536955 0.945096 0.201642 0.80225855 -0.8981089 0.7397833 0.791717 0.07328355 0.22034903 0.8161188 -0.10641931 0.73835665 0.3947406 -0.69728386 0.4747602 0.6419224 0.16553015 0.5975078 0.40221715 -0.64884746 0.21681724 1.331418 -0.8936639 0.05137128 -0.015244137 -0.26162416 0.12636559 -0.05048589 0.7772168 -0.2985513 -0.35271367 0.053127375 -0.6121486
飞机 0.033913065 0.2717515 0.7313643 0.5940561 -1.1572965 -2.5417 1.6191814 -0.2812137 -0.46148926 -0.9672616 -0.15321447 0.95306695 0.20606638 -1.2208146 0.25068128 0.07810737 0.00048303124 -0.42718115 0.3439178 -0.92419755 -0.9128019 1.3859992 -0.17464599 0.096665196 1.1635249 1.374533 -0.24764848 1.0107508 -0.7297883 -1.0018586 0.26730946 1.1129038 -1.1083976 1.3636627 -1.0622216 1.1001048 -0.56462747 -0.92119443 0.15971865 -1.4674566 0.6627394 -1.2658454 -1.6030338 -0.61983055 1.374967 0.059705008 2.0798497 -0.5457047 0.9241859 0.62016404 -1.0943438 0.6640286 0.22281384 -0.45891878 -0.2963946 1.4358797 -0.6913605 0.6142925 0.3653434 1.0854908 2.2768352 1.237937 1.7311141 -0.1856117 -1.4531645 1.3183737 0.010259834 0.94347614 0.78278494 1.3592775 -0.2857888 -1.0624028 0.5897203 0.9501395 -0.7993482 2.0797396 -1.590129 -1.3668371 0.758528 0.14438291 0.81761026 0.18899192 0.079133704 1.3228692 -1.1513242 -1.6795075 0.22580045 -0.38870683 -0.029449 -0.12295589 0.7103512 1.4883868 -0.5724346 1.5759345 1.6377631 1.0318927 0.005786396 -0.22049074 -1.6826403 -1.4715168
新闻 0.745711 2.083232 -1.0105146 -0.099643484 -0.47478092 -0.12666419 0.6964559 1.1709796 -0.7662249 0.0872441 0.55411404 -0.3552138 0.74072325 0.6399544 0.23989816 -0.12289158 -0.031791575 0.6091384 0.98029685 -0.56954944 0.474032 0.9294563 0.15446794 0.38105923 -0.75559336 0.03667905 0.5282173 -0.07883925 0.1144764 -0.014586816 -0.44007447 -1.1297746 1.2962418 0.8735963 -0.17118873 2.438462 -0.31165648 -2.10531 -1.037158 0.40873182 -0.10119623 -0.12783901 -0.22518659 0.109622434 0.6519219 1.4226223 0.068578765 -1.911657 0.41351983 0.1105524 -0.82546407 0.44257036 0.11359356 0.4201149 0.5898435 0.8479123 -0.85218185 0.06088457 0.5428041 -0.78119016 0.48881468 -0.5423041 -0.7700282 0.9274126 -1.3383355 0.48288077 -0.30370083 0.92855257 -0.6988873 0.80110025 -0.112604156 0.9158444 0.03732726 1.0617422 0.1765602 -0.2970231 -0.0042085117 -0.44263494 0.49182403 1.8697052 0.04424115 0.056401167 -1.0031594 0.12804511 -0.4422 -0.98225003 -0.5500996 -0.62160295 0.42599657 0.69069946 -0.35338184 -1.1820108 -1.1803825 -0.44416872 0.24247915 0.33416057 0.33141577 -0.4228272 1.727026 -1.5754972
早上 -1.8929912 0.43333706 -1.982926 0.8669299 -0.17248785 -0.23460372 -1.1621156 0.20332058 -0.88899285 1.2542278 0.40574202 -0.6329417 0.21935883 0.582481 0.6822894 0.67780197 1.1702293 -1.2971903 1.3363106 0.0769279 -0.6665128 0.6318731 0.592377 0.85054487 -0.36388338 0.1841791 -2.0915473 -0.99240696 -0.6039141 -0.642226 1.5764896 0.049962543 0.27659094 -0.61413336 -0.4742433 -0.23534372 -0.7869853 -0.06927989 -0.30106527 -1.3860563 -1.2554165 0.5861733 -0.81300616 -0.7418121 0.44735727 -0.4622859 0.599075 -0.4845251 0.593659 0.23237877 -0.5367947 -0.42967394 -0.37229076 0.09666118 1.7922907 0.023230774 -0.11107771 0.37649748 -0.3765859 0.45546845 0.4266955 0.181242 -0.36929163 0.450105 0.048043273 -0.05607808 -0.66304034 0.4021367 -0.25222862 0.05139226 -0.14328833 -1.768513 1.2216945 -0.06961574 -1.1321689 0.5476079 0.336606 -0.21283528 -1.0867436 -1.3574693 -0.57087135 -1.0514541 -0.089411 0.49807397 -0.24438779 -0.5661692 0.17327459 0.20687978 1.6038173 -0.031117896 1.4470496 1.1080233 -1.6018794 0.91950434 -0.8032965 0.65597314 1.1374025 0.35433984 -0.60109866 0.4947719
风速 -0.11448824 -0.18042132 -0.07594864 -1.1020749 0.89919347 0.13898799 0.42471245 0.6345589 -0.14527817 0.2709882 0.0147270225 -1.1603187 0.07145064 -0.34106806 -0.13830347 -0.32351744 0.6150835 -1.1909117 0.71382785 -0.49214682 0.088989146 -0.19274561 1.2220198 -1.2424314 1.0327072 -0.6120814 -0.60737747 -0.85908556 -0.68657655 0.043490972 0.69596165 0.7866234 1.0468982 0.26726523 -0.87919766 0.5923473 -1.6693075 -1.3255464 -1.2017219 -0.87409127 0.6879714 -1.1285833 -0.22169024 -0.4444576 -0.19493495 -0.23608574 -0.26428428 -1.2758324 -0.61820453 0.5759242 0.32348946 -1.1895931 -0.6414626 1.3164542 -0.1187667 -1.2432919 0.7701413 0.44014502 -1.25819 0.065279245 0.2629124 -0.31639606 0.594589 -0.082770705 -0.5756296 1.214371 0.39350933 -0.059120823 -1.2680606 0.34211227 -0.8844033 1.1555818 0.49751776 -0.58687985 0.9360456 -1.3638046 0.5932172 -0.5833867 -0.41168267 0.27610475 0.12427304 -0.820203 -1.2017922 0.53147745 -0.53219205 -0.1528773 0.9075679 1.0921327 -0.27478054 0.370278 -0.2039531 0.3199808 0.22790317 1.1548046 1.7252187 0.7321112 0.85726 0.1763301 1.2824947 -0.79959995
美国 -1.0864278 0.4026147 0.41790915 -0.0053056213 -0.71753603 -1.1786727 -0.27715406 0.6690446 0.64779466 -1.3449025 -0.48417598 -0.09258534 0.56363463 0.22188917 -0.15571594 -1.1694622 -0.24784096 -1.0642735 -0.47851947 -1.7195574 0.6909167 -0.25698143 -0.48846608 -0.23970863 -1.34719 -1.7259133 -0.3818907 -0.70825267 -0.15357332 -0.6001322 0.12140347 1.0763886 0.39026034 0.12966092 -0.36502996 -0.05603151 0.11481834 -0.21581978 -1.3103038 0.033866376 0.6775692 -0.43842688 -0.149279 -1.4366323 0.66400164 -1.2397066 0.68911296 0.6676649 -0.84025466 0.16174665 0.43499264 -1.0951564 -0.8584126 -0.3770977 -1.443075 0.3630008 -0.5283067 -0.8710743 -0.7589457 -0.5142335 -0.7531021 1.2134799 0.14950436 -0.34467417 0.8392438 0.797975 1.9190778 0.32051423 -0.49710473 0.19904086 -0.5988137 1.0340412 -0.17929348 -0.22314504 0.5424232 0.12212772 -0.61506766 -1.0646522 -1.2296576 -0.1937875 0.6729448 0.28197515 -1.7153363 0.7627932 0.11402984 -0.11536227 0.5200853 -0.17695685 0.15417996 -0.060427364 -0.20267043 -0.7354484 -0.48576894 0.53938353 1.3269712 0.06643441 0.30480582 -0.055906735 0.23495463 -0.035753924
有没有 -0.07413631 -0.4777968 -0.41676685 -0.052346334 -0.2811193 -0.84086186 0.3928569 0.73067594 0.3558452 0.0928856 -0.673017 -0.065842845 0.13473989 0.10460166 0.7004885 -0.82148564 -0.24983573 -0.6903259 -0.11395888 0.10698303 -0.29149923 -0.28870255 0.3140547 -0.7628998 -1.1361349 0.2015127 0.2708285 -0.6830767 0.06877694 -0.032883015 -0.3512159 0.3942248 0.061780002 0.3015956 -0.029266383 -0.03627752 -0.6010656 -0.06858686 -0.35810977 -0.3734049 -0.33981794 -0.2647179 -0.5110368 -0.20573215 0.6521089 0.37486178 -0.22390172 0.5126989 0.3722923 -0.7303465 0.74739295 1.2315227 0.75337905 -0.19005784 -0.3808329 0.99180853 0.668691 -0.724979 -0.21840712 0.021321323 0.5465746 0.37807873 0.5186839 -0.29480606 0.67410886 0.20126499 0.03373957 -0.3702513 -0.13621053 -0.17643884 0.49802378 -0.69425935 0.2051357 -0.36388037 0.17342371 0.8770834 0.36370346 -0.25651252 -0.7698783 -0.5760445 0.6359452 -0.19185972 0.8106287 -0.41190076 -0.5110522 -0.58125764 -0.113781 -0.2353831 -0.317637 -0.36019722 1.0253074 0.5435564 0.18945354 -0.47607556 1.694836 0.52954936 -0.52207357 -0.30428296 0.21505572 -0.04269645
马上 -0.3635399 -0.98622817 -0.45774484 0.876604 -0.5666752 -0.2705989 -0.46063322 0.69905674 -0.3163668 0.41197973 -0.69194293 0.23027104 -0.19345312 -0.017712427 -0.12814319 -0.38431573 -0.08151626 -0.7038569 0.10938307 -0.6179192 0.031995792 -0.25526005 -0.19196399 -0.33601853 0.4686655 0.4607621 0.4257781 0.6196524 -0.35159305 0.114858575 0.35364395 0.77447504 -0.17181589 0.26096517 0.06243943 0.43479437 0.68113935 -0.19761723 -0.08202704 -0.03645643 -0.16761592 0.37467632 -0.4533437 -0.32823503 0.13723688 -0.7474798 0.7314395 -0.47450012 0.7679295 -0.21297336 -0.41934898 0.08599156 0.12967034 -0.73516756 0.21975176 -0.022380821 -0.76855725 0.9533413 0.05607895 1.0060284 1.035163 0.06684752 0.38763562 -0.24602187 0.25493652 -0.13584456 0.4582092 0.35985976 -0.26297837 0.0069197486 -0.7140751 -0.5594255 -0.57779044 0.15279229 0.21729334 0.6703976 -0.1639083 -0.24142382 -0.30884555 0.89305836 -0.12830378 0.2166392 -1.1347177 -0.6012935 -0.46616852 -0.2514091 0.7860848 0.3594126 1.0362933 0.75813985 0.27318883 0.58733726 0.1794912 -0.031432312 0.35594422 0.6357222 0.5678955 -0.026344163 -0.1459016 -0.24945264
查查 0.11265919 1.082606 0.7785296 -1.032081 -0.10019959 -1.854755 0.28603238 -0.1693132 -1.7174908 -1.0756156 0.38364184 0.6526346 0.36542648 -0.54225206 0.8975838 0.51339024 -0.1828234 -0.39897072 -0.45267883 -0.87069833 -0.4472538 -0.27005935 -0.14930409 -0.6175132 -0.85935205 0.5644005 -0.5378978 -0.46690482 0.18547474 -0.060461856 -0.72604656 -0.1568178 -0.67505616 -0.114366725 -0.8804949 0.33870617 -0.7139014 0.024233151 -0.1439025 -1.6368688 -0.5702611 -1.384339 0.16293454 0.62762743 -0.19356476 -2.0173619 1.070342 -0.0684149 0.4095901 0.81410086 -0.06504242 0.21141717 0.122951224 -0.2816169 -0.0033181882 0.45401573 0.15127844 0.43411356 0.3918976 0.3689669 1.0255364 0.10621248 -0.4976048 0.6762549 -0.72085303 2.1005473 1.278667 0.69116753 0.1394292 -0.2905604 -0.83350813 -1.1697966 0.60733247 0.25241527 -0.32066 1.0753582 -0.72122914 0.45254502 1.4184918 -0.17463325 0.6040915 0.9379824 -0.29045907 0.5374227 0.5724272 -0.346614 -0.16604902 0.13109396 1.3859308 0.58001536 1.0575634 1.2467473 -0.5375598 0.33464175 1.3985711 0.25870875 -0.17420328 -1.2440517 0.15970364 -0.2731722
经济 -0.041179553 0.39811268 -1.5305682 0.77223396 -1.213751 0.89329135 1.929364 0.2635508 -1.7872326 1.3898696 -0.37872595 -0.2668185 -0.4931622 -0.60583246 -0.5836445 0.020538148 0.37491184 1.3774503 -0.20845784 -0.90380424 0.4049352 1.4144381 -0.7710009 0.09894308 -0.075052224 0.32441688 -0.23162429 0.5055864 -0.6255488 0.010873959 -0.6560295 -0.3784552 1.3967907 -0.3202163 -0.6980809 1.5996454 0.5640162 -0.5819743 -0.9109898 -1.0920739 -0.8652457 -1.9502509 0.7471261 1.2238222 1.1562803 1.2367663 -0.42100033 -1.0621786 0.58795 -0.38420737 0.23731512 0.6848859 -0.18626875 -0.2279128 0.30035317 1.1199613 0.4125039 0.16641857 0.0781954 0.5507448 0.23266144 -0.7276055 -0.65349984 0.76423746 -1.5790268 0.20020628 -0.67860365 1.8815677 -0.074738644 0.78974366 -0.53895855 -0.026279898 0.74028957 0.78241664 0.37708235 -0.40202364 1.038647 -0.55248594 -0.21109375 1.1871332 0.63216496 0.62639594 -0.05529205 -0.39048737 -0.44590217 -0.29380238 -1.3526758 -0.47927046 0.84994256 1.3008595 0.24732329 0.0401488 -0.045558747 -0.15884696 1.0274708 0.8270032 0.76074046 0.22830303 0.81056184 -1.1764729
点去 -0.5042807 -0.7767863 1.150893 0.47427857 0.98341596 -1.6791639 0.87173676 -0.020742102 -0.93895626 -1.3783259 1.0024207 -0.98553646 0.19542515 -0.39327082 2.0443237 1.4848746 0.656647 -1.143851 1.2538204 0.8074857 -1.313279 1.0884829 -0.43364638 -2.0009427 0.37126392 1.7728354 -2.081211 -0.17736028 -0.6649718 -0.30495033 1.3242887 1.4025298 0.5959602 0.32592827 -0.6857286 0.6357132 -0.20417766 -0.02391813 0.47022158 -1.7192303 -0.6236882 -0.38671222 0.8433224 -0.44667202 0.19048017 -0.86455166 0.018647801 0.25351197 -0.1733328 0.73887056 -0.63961965 1.5683756 0.43941966 0.43671778 1.0924221 0.2830514 -0.36455292 -0.16782297 0.2900806 1.4371182 1.000039 1.0650452 -0.46617496 0.0120558385 -1.3603348 -0.22935992 -0.25323015 -0.22028477 0.3085902 0.9560973 -0.32920521 -1.4488683 1.2431669 -0.03545487 -0.8273833 1.1994809 1.5315276 -0.57314116 0.09768591 -0.35475135 1.063817 0.45679766 0.6338034 2.0504549 -0.5834421 -0.23486023 0.48666546 0.12851204 0.56405395 -0.722522 1.3658859 1.3647527 0.57787764 1.0501788 -0.3919707 1.3619142 -0.22372286 -0.015129722 0.23699678 -1.125065
年代 -1.2393056 -1.6799407 0.67053634 0.44093668 -1.3245952 -0.14043218 0.13614942 1.7128496 0.7082399 0.030653758 -1.4990014 0.108762704 0.9108868 -1.3048685 0.5634961 -0.033272218 -0.24908909 -1.303494 -0.9896706 -1.2661444 0.5129518 -0.20454441 0.71429867 0.70713645 -0.5679329 -0.9331166 1.0327812 -1.8885356 -0.65167177 -0.16360208 -0.35649136 -0.7152848 2.44169 -0.919217 0.6728973 0.2001171 -0.88386637 -0.07711215 -0.09986202 0.23542233 1.5478543 0.82833666 -1.4459312 -0.97138584 1.2961218 -0.52653885 0.6274568 0.20884004 0.6217197 -0.85447466 2.0297291 -1.8500947 -0.3193091 0.6257654 -1.8026551 0.07482133 -1.0371517 -0.9230561 -1.1319846 0.7328426 -0.24782158 1.5731801 -1.1402298 -0.12579904 0.8629799 0.9752341 -0.38908625 0.39176577 -0.917285 0.7430559 0.4373795 1.4220973 1.9455619 -1.1613473 2.0564535 -0.20369159 1.2656775 -1.1430882 -1.5710026 -0.8071072 -2.2329726 -0.6259415 -1.0154139 0.13515219 -2.3816898 -0.44978786 0.061497252 0.43706885 0.8861139 -0.8601359 2.4403706 -0.3449702 1.7215583 1.6162785 1.8996265 0.45241475 -0.3577693 0.096004896 -2.4475923 1.390271
下雨 0.39313084 0.7610506 -0.4806376 -0.5013601 0.43628234 -0.3293509 1.1235074 0.3543903 -1.5019958 0.049919356 -0.84399676 -1.2990761 0.074080504 -1.1697159 0.6971739 -0.3886226 -0.31550083 0.038632736 0.9424291 -0.023916956 -0.5774622 0.4597752 0.88021743 -0.3492951 -0.19107316 1.2160331 -0.09152264 -0.045291577 -0.68336266 -0.117145024 0.1481378 0.26910672 0.028398188 0.60315 -0.21473673 0.74767435 -0.8338305 0.4125272 0.064991586 -0.70049 0.9422343 -0.6320391 -0.15881544 0.7855588 0.076264665 0.70892745 0.2019812 0.0057267426 0.13911654 -0.05431513 -0.24221298 0.13860528 1.3734972 0.38809395 0.26165462 0.22779836 0.42138556 0.75429064 -0.23772395 0.78259605 0.76528716 -0.21874683 0.4363611 -0.010942844 0.81960934 -0.07828175 -0.009664683 0.15044396 -0.2725166 0.45705628 -0.27248108 -0.16467205 0.99018216 0.226127 -0.13509545 1.1804278 -0.11545845 -0.07847462 0.46004158 0.2069508 0.25926727 -0.7042706 0.6481923 0.36671308 -0.3121123 -0.2636813 -0.059397284 0.7087256 0.8599445 0.22775553 0.5276182 1.2614118 0.028033206 -0.6143481 1.0116235 0.6656541 0.50203943 -0.38256374 0.048455175 -1.1584373
20 -0.251563 0.462083 -0.6977808 0.2798793 -0.23688567 -0.59533757 -0.62474173 0.7009291 0.13572559 -0.22792979 0.4191817 -1.2358268 -0.31207708 0.009751216 -0.0285129 -0.06626668 0.23368308 0.17795126 0.64645064 -0.12718607 -0.43898112 0.5661015 0.103316434 0.021359416 -0.19142394 0.49147126 -0.218516 0.21382579 -0.49974787 0.5889443 1.3988472 -0.4820486 0.32659572 0.13740297 -0.49761635 -0.22196084 -0.13943018 -0.6715712 -0.43662322 -0.7767077 -0.06299151 -0.03742799 0.13308091 -1.3401939 0.10350301 0.23933837 0.40617183 -0.8427638 -0.6869544 0.056623653 -0.046087984 -0.19059488 -0.28390172 -1.1114013 -0.3174456 -1.1031047 0.021576263 0.54604536 0.25822136 0.5027849 -0.015175008 -0.38035065 1.1151778 -0.79676586 -1.2521881 -0.12456718 1.1153879 -0.40995112 -0.99837565 0.7335055 -0.24589111 -0.4686015 0.114999376 -0.353011 -0.51895994 1.1623371 0.431605 0.04390267 -0.88254094 0.8327211 -0.20014752 -0.29250792 0.31243145 0.3153927 0.45478788 -0.01904 -0.07894528 0.4841058 0.002415341 -1.0607858 -0.82005453 -0.32856193 -0.87169266 -0.97992617 -0.15163594 0.18494277 -0.026480384 0.15629543 0.22975098 0.34543395
找到 -0.4564968 1.2556655 0.08076909 0.18489657 -0.19868973 0.08039855 0.89255244 0.5993421 -0.32206082 -0.7302701 0.22864443 -0.6827601 -0.57981133 -0.24926479 -0.17913494 -0.023537248 -0.3033787 0.18794163 0.1947308 -0.30988634 0.068238735 -0.69345176 -0.65804255 -0.003199112 -0.1607724 -0.15312314 -0.16606556 -0.09460245 -0.32624495 -0.38333553 -0.38094833 0.015692478 0.9440792 -0.18042691 0.1270754 -0.058770254 0.7080874 -0.68875223 0.6128828 -0.55522835 -0.72579205 -0.5418184 0.27852786 0.566609 -0.058627866 -0.71943504 0.10109666 0.030968139 0.33193094 0.45166895 -0.4187496 0.453198 -0.5291512 0.37896127 0.7208941 0.65943867 -0.71990687 -1.0236317 -0.34610185 -0.029591274 -0.45055506 0.2730495 -1.3566622 -0.13221604 -1.0336905 0.23828904 0.41330072 1.3754948 0.4787349 0.008224324 0.04068508 1.3126392 0.74816316 -0.14466624 0.6435718 -0.0005354345 0.8371496 -0.5664593 0.5455138 0.1117069 0.6686201 -0.26211765 0.10981555 0.5590129 -0.030030513 -0.75654644 -0.6775451 -0.69488627 -0.31020457 -0.19275762 0.2740525 -0.6651999 0.45855376 0.33914497 0.70789164 -0.8340192 -0.34654683 0.66757333 0.6970081 -0.90355957
主演 0.51072925 0.3234228 0.5062542 0.3456406 0.15285814 -0.43760827 0.48434374 0.5650993 0.092899725 -0.6027466 -0.33771095 -0.7095561 1.177803 0.6105815 0.21190497 -0.48627585 0.019699225 -0.3984193 -0.641165 -1.151748 0.17620519 -1.2455558 1.5146664 -0.70009947 0.40491164 -0.750649 -0.6052429 -0.54942805 -0.058423653 -0.3390931 0.23404543 -0.33259368 0.89358264 0.119215414 -0.108164236 -0.53323275 0.6543522 0.2548091 -0.8368223 -0.42248753 -0.8328259 1.7675778 0.38259915 0.037847392 -0.04312655 -0.12236304 -0.53995377 0.14951508 0.2119846 1.2330105 0.49617043 -0.6866613 -0.36642444 -1.4037137 -0.80704457 -0.38942385 -0.6517278 0.5967944 -1.4355425 -0.24786063 0.18860893 1.3695961 -0.63967127 -0.12790091 0.14473394 -0.70898694 0.32080054 0.7845202 -0.59946185 -0.7307598 -1.8530973 1.2634376 0.31841686 -0.59560853 -0.008976011 -0.049076296 0.30700353 -0.49530682 -1.5796258 0.32537615 -0.2938043 -0.7323635 -1.6391692 1.5261892 0.34530792 0.67379254 0.85733634 0.18090753 0.9548125 0.6303716 0.6304089 -0.17163001 -0.17363216 0.8159573 0.520351 0.88390493 -0.51322603 0.63873756 0.4114072 -0.3604581
专辑 -0.482497 -0.5346932 0.64081955 0.48617804 0.2986584 0.4849789 0.7854099 0.79741675 -0.6402004 -0.84986305 0.26050732 -0.5767043 0.42826697 -0.1612195 -0.07015427 -1.0285724 0.07131058 -0.59987456 -0.21566781 -1.7418973 0.81400913 0.02098551 -0.5952216 0.43209252 -0.24799435 -0.3582656 -0.07493466 0.018982472 -0.19732288 -0.7150401 -0.7897023 0.061805386 0.5915882 -0.9305887 -0.6651376 0.29652387 0.14829716 -0.10980806 -0.17861068 0.31459484 0.5787376 -0.73806494 0.40686476 -0.031655252 1.261762 -0.9115187 -0.13410601 0.0028612036 0.20865965 0.8198729 -0.3635007 -0.06716666 0.12566239 -0.3837418 0.330062 -1.0264379 -0.34642637 0.24430324 -0.955408 0.3311292 -0.5495381 0.11019014 0.5263116 -0.5317162 -1.309952 0.49398494 0.6970043 1.0736384 0.45320842 0.9557939 0.09657397 0.3483164 0.679766 -0.5767732 1.3325843 -0.6272471 0.060630642 -0.019239355 0.3598597 -1.2221477 -0.70315003 1.1482952 -1.065557 0.024746915 -0.4851745 0.93297654 0.79061353 0.39288408 0.4401864 -0.74167645 0.801877 -0.72144747 0.3138571 0.6349011 0.7377743 0.029062133 -1.1565487 -0.89061064 0.65936 -0.3186053
30 0.35725084 -0.81853026 -0.14566332 1.3484257 -0.70448035 -0.79972243 -0.058044 0.7352859 -0.518703 1.0988274 0.022108637 -0.5980183 -1.196605 0.57287925 1.0034133 -0.43392482 -0.17312866 -0.0600162 -0.07558686 -0.09878917 -0.6007836 0.23818138 -0.41085508 -0.74656206 -0.47020853 0.70985764 -0.4823774 -0.019558432 -0.6295049 0.92289126 1.4054824 -0.18268761 0.3360042 0.25848037 -0.96224093 -0.3191285 -0.30410317 -0.20411699 -0.083145574 -0.35154504 -0.34976405 -0.8443962 0.45637527 -0.8229976 0.069096275 -0.44441798 0.5660659 -0.5766199 -0.7867758 -0.807983 -0.35826057 0.13520737 -0.026435 0.48891285 0.026462315 -0.08254216 0.12451754 0.028578483 -0.0060055247 -0.19691865 0.2977031 -0.42216343 0.29253584 -1.1698347 -0.7265419 -0.27857774 0.6861652 -0.20282993 -0.73344386 0.1833374 0.18744099 -0.16452864 0.05351213 -0.60688627 -0.46733695 1.3362913 1.1603109 -0.2798773 -0.9036867 -0.41116646 1.4173117 -0.7136769 0.18933317 0.48601755 0.14014153 -0.45047995 0.17882763 0.92650574 0.37753004 -1.1471413 -0.2947017 0.0840351 -0.7286941 -0.043884594 0.61816114 0.91167873 -0.1594991 0.06727895 0.55285925 0.49574968
路线 -0.29335374 0.7607418 0.7751446 0.4130071 -0.87018865 -1.418811 0.48392013 0.11900371 0.2381106 -0.030579407 -0.15152785 -0.38385597 -1.957767 -0.78551966 1.3134894 0.18165402 -0.3698923 -1.1340113 -0.103319705 -0.19540632 0.7130029 0.7616864 -0.49693483 -0.63321555 1.2971613 1.5641547 -1.3460451 -0.021806939 0.40210307 0.2436149 -0.23729931 2.5165908 0.79144335 0.662769 1.0532222 1.0337554 1.2871435 0.48711103 -1.2226186 -0.7809345 -0.4050226 -0.53332734 -0.30152407 -0.3800598 0.40473464 -1.4859055 1.6616231 1.5052471 1.4950393 0.42472297 -0.8796349 -0.18339276 0.49371898 0.27712658 0.18535568 1.1286032 -0.01298771 1.0183887 0.27731255 1.4799258 1.3184993 1.5198351 0.6042535 0.80400026 -0.76515394 0.51891494 0.95300394 1.5151306 -0.60287446 1.441122 -0.48166937 -0.5651035 -0.12259173 -0.31455544 0.19536218 0.5051071 -0.09296239 -1.3157263 0.105587535 1.1409476 0.91041636 -0.5419639 -0.3656514 -0.09573894 1.5849617 -0.7390033 0.7786934 0.5512597 -0.451974 2.0903685 2.8149385 0.46598017 1.3323247 -0.17190187 0.13001496 0.19740179 1.6888384 0.17186043 0.014926831 -0.9698831
花絮 1.1856769 0.3022888 0.24168569 -0.45275718 0.07428107 -1.4100784 1.1130904 0.978779 -0.1750846 -1.1840477 -0.45660275 -2.2862327 0.841628 0.8944949 -0.10547811 -1.4014297 -1.0218725 -1.1110011 0.3693696 -2.0681615 1.1165435 1.2271007 1.0762666 0.24874632 -0.6832742 -0.13211378 -0.91898334 0.2331433 0.8012851 -0.3824695 1.8811688 1.1569442 0.5677899 0.79813576 -0.94032836 0.019442467 0.9150962 0.71571094 -0.031870805 -1.128724 0.27177572 1.4634075 0.862564 1.0673862 0.4117497 0.82500434 -1.0591016 -0.41783556 -0.62465304 1.0088005 -1.7761267 0.10833607 0.12854287 -1.4565642 -0.5744349 -1.0507874 0.05346522 -0.7245281 -0.87020016 -0.78920054 0.601856 1.2577991 -0.009483339 -1.4604566 -0.7612637 -1.3049914 0.95005983 0.8776757 -1.8703952 -0.18961543 -2.0037692 1.3845989 0.7476933 0.035108376 -1.5045258 1.0305521 0.3033212 -0.74819934 -1.2168686 -0.31757617 0.4806647 -0.690497 -2.0005507 1.4237722 0.8228635 -0.21617065 1.9958993 -0.66074973 -0.744111 -0.67895555 -1.0395818 -0.12303922 0.01654713 0.5622456 0.98720455 0.87921387 -0.3870487 -0.0666208 0.4189549 0.11505074
比赛 -0.4984391 1.352987 -0.25518164 -1.0544143 1.1209981 -0.09010722 0.5485166 0.38383374 -1.6058096 -1.4902806 -0.20356075 -1.6195565 0.9755397 -0.23673552 -0.1639725 -0.90175194 -0.13462709 0.39588994 1.3991171 -1.5276321 -1.6247972 1.152874 1.3608245 -0.42629382 -0.62453777 -0.7619313 -0.6488716 -0.30633217 -0.8308643 -1.3520948 -0.0015858002 0.059362307 0.48570323 0.79466903 1.0687481 0.041744206 -0.7976765 -0.7374804 -0.053512942 -0.0827879 0.71806866 -1.2860173 -0.099060185 -1.4126506 -0.45727846 1.1993167 -0.68927485 -0.032537986 -0.65910715 1.3004336 -0.7189238 0.49301997 0.7151393 1.3901287 0.10302306 0.30083442 -0.66165686 -1.5775957 1.0300893 0.7398586 0.8850811 -0.057114616 0.5344397 -0.16850816 -0.37256274 -1.2316297 1.8058465 0.21794231 -0.5256727 0.9629526 0.27067736 0.34449217 1.1141683 0.22754751 -0.7346538 -0.13607456 -0.46118394 -0.15397753 0.17368805 0.64942235 -0.51184416 0.061025996 -1.1069738 1.6067197 -1.8092858 -0.729605 -0.76975244 0.30856243 1.8572376 -0.08340819 -0.5779685 0.090506256 -1.1320757 0.69335747 0.35382497 1.0185207 0.33434984 -1.4179342 0.39784974 0.5036892
麻烦 -0.49024513 -0.6197205 -0.47974917 0.97452575 0.37804693 -0.53026086 0.26862302 1.0373974 -0.0041530435 -0.61022943 -0.48592708 -0.47111154 0.035996582 0.366789 0.6267365 0.21342449 0.22359282 -0.10855633 0.1021598 -0.11345057 0.118825145 0.0012029243 -0.2790812 -0.82160354 0.3901686 0.048289984 -0.92511344 -0.2968224 -0.28630888 0.59965074 0.3411609 0.53549045 0.5455714 -0.19140749 0.13951473 0.74308497 0.59279513 0.2185627 -0.10914587 -0.37501878 -1.2143437 0.6293102 0.16493998 -0.2577484 -0.8394833 -0.17563875 -0.052235298 -0.4964667 -0.5580314 -0.12444446 0.15139398 -0.51913834 0.27586114 -0.40333757 -0.016698651 0.5100353 -0.41360345 0.30616325 -0.2934803 1.2319384 0.32918718 -0.33814788 -0.5487444 0.79890954 0.048845872 -1.2694409 -0.792633 -0.16622221 0.21631819 -0.3349464 0.36680856 -0.25371283 -0.12195854 -0.39505312 0.79190654 -1.0613327 0.12254753 0.021437649 0.022908289 0.64979446 -0.6438314 0.22650601 -0.18094862 0.29773292 -0.49492246 0.25571665 0.72652715 0.5427844 -0.2090716 -0.92609847 0.1012468 -0.4101009 0.4904696 0.3601798 -0.1558091 0.4383732 -0.24941392 -0.3959224 0.3160468 -0.32540265
机票 -0.6633687 0.002188376 0.0064696237 1.291658 -0.25121045 -1.5427997 0.7626548 1.2051923 -0.17877437 -1.2338758 0.6134561 -1.1692468 0.35901505 -1.1971337 -0.35168093 0.5233085 -0.23650664 -1.5765991 1.1008977 0.35481685 -1.7883544 0.33689243 -1.0079914 0.768249 0.48135924 2.0537891 -0.9898668 1.3802928 -0.61042017 -0.7489899 -1.1471986 1.8643643 -0.33834696 1.9091387 -0.73676765 1.1933888 -0.17061055 -1.9579331 -0.54686546 -1.511798 -0.31330222 -1.0467244 -0.59119207 0.028896654 0.7671719 -0.6623731 0.8758148 0.10937757 0.7034682 0.70223206 -0.90149873 1.6767613 0.23847197 -0.42166492 1.4259614 -1.015085 0.085632555 0.8881097 -0.3247858 1.0370796 0.7973629 0.64918935 0.47319585 1.0277953 -1.3702643 0.54095906 1.2344122 1.1563154 0.41342217 1.6334723 0.61089504 -1.3484235 1.3706113 1.5055829 -0.5537175 1.4056869 -0.8178932 -1.6284243 1.5398337 0.043156955 -0.38818517 1.1932076 1.2789063 -0.17230251 -0.7145085 -1.9362845 1.2695076 1.2555254 -0.007179411 -0.09800278 1.6237979 1.7789211 0.20196824 1.6207526 0.8352768 2.377931 1.26095 0.24260509 -0.8372207 -1.0506434
纪录片 -0.79702127 1.9600407 0.13126902 -0.122028075 -1.2777848 -0.2986801 -0.64445674 1.071751 -0.25773805 -1.0411853 0.06706722 -1.0465187 1.4460934 0.057817657 -0.30484778 -1.1437509 0.08960037 -1.2979903 1.1523476 -1.2186345 0.13447784 0.4310131 -0.3188664 0.22228877 -0.48743707 0.3739629 -0.29515994 -0.5183571 0.5424431 -0.29803583 -0.37517896 0.5207725 -0.3665959 -0.94772285 0.7858291 2.0006342 0.5017134 -1.4310533 -0.91460186 -0.6362249 0.79343426 1.5012035 -0.027461799 -1.2034447 0.7179185 0.44152257 -0.5831671 0.3614612 -1.5989066 -0.4237537 -1.4850512 0.113006294 0.03857898 0.5790534 0.5594166 0.41780835 -0.5959467 -0.5595442 0.09298172 0.08631947 -0.7941091 0.18578403 -0.17766738 -0.1899962 -0.03448041 -1.0070918 0.7800388 1.1785568 -1.0613393 1.6593888 0.85449535 1.2565061 -0.6374903 -0.4325538 -0.49445784 0.8892903 -0.7410498 -0.9854193 -0.13035363 0.7535306 -1.0513393 -0.7719053 -1.7017405 1.5997685 0.12234849 -1.2281809 0.3387764 0.48172697 0.25392348 0.9145816 -0.56510305 -0.8522989 0.3930024 -0.08076982 -0.6590488 0.140144 0.23128776 0.06768804 0.66605437 0.1621422
立刻 0.18520164 -0.27410597 -0.027402274 0.7287719 -0.40432993 -0.841869 -0.33377072 0.9790283 0.0804118 -0.17295668 -0.055402916 -0.20913114 -0.23732978 0.21569237 0.5375982 -0.58235085 0.00029794988 0.3405216 -0.44355765 -1.3136846 0.44621858 0.18577541 -1.6431944 -0.038680404 -0.62092346 0.423208 0.40236184 -0.62874746 0.7243036 0.05271825 -0.23446383 0.56109893 0.4159246 0.20915918 0.2668633 -0.1807874 0.57228893 -0.1563502 -0.0073768976 0.0937102 1.0139483 -0.24519509 -0.13392237 -0.30686006 -0.2757594 -0.20766626 0.05618836 -0.5168132 0.49404067 0.377813 -0.0032582097 0.1510987 0.42140794 -1.1936324 -0.5605582 0.33199275 -0.4670166 0.10382889 -0.11032845 1.035165 0.06138393 0.8397557 0.22650884 -0.19915386 -0.40798357 0.34517413 0.9132659 0.43591323 0.3595981 -0.080310784 -0.5161896 -0.20824678 -0.14649954 -0.34719113 0.36227 0.4310809 0.41394174 0.4002421 -0.32124543 0.8726717 -0.5788872 0.12114512 -0.73883915 -0.15428342 -0.38596174 0.23779577 0.8397028 0.0826722 -0.07430695 0.27838057 0.031340852 -0.21498853 0.3646906 0.21283618 0.7734212 0.06324681 0.09791429 -0.34728208 -0.3092221 0.039674096
天气 -0.0868614 -0.31274477 -0.20399171 -1.0337495 0.8703564 -0.5804152 0.69102937 -0.632322 -1.2504575 0.5031682 -0.10531724 -0.7717875 -0.23567876 -0.31017578 1.3114774 -0.44721302 -0.20977396 -0.38791144 0.43983647 0.23819745 0.27058107 1.1542137 0.45853028 -0.5069312 1.1370391 0.840005 0.24869211 -0.23561884 -0.138052 0.15838496 0.8661381 0.9665045 -0.20265035 0.014384034 -0.2862259 0.45719165 -0.48325118 -0.42019537 -0.5583672 -0.6775848 0.73045504 -0.78370667 -0.47094104 0.36559585 0.12528728 0.2751001 1.0961376 1.134595 -0.4117622 -0.08889694 0.8659886 -0.044871707 1.1607348 0.6492373 1.0596774 0.10363534 0.98895144 0.14854346 -0.49026713 -0.2126332 0.24186467 0.9475443 1.193988 -0.7505735 0.4222464 0.565919 -0.48052114 -0.30958816 -0.77125794 0.79229695 -0.056115255 -0.7447516 0.77387357 -0.31635585 0.3601603 0.87617826 -0.6726031 0.26066756 0.17616 -0.15702851 -0.3802877 -1.6953275 0.5317868 0.015351754 0.21652701 0.11331491 -0.06326771 0.67244244 0.710996 1.1371821 1.2044994 1.9527339 0.5536955 -0.3486433 0.75696546 0.6349658 0.30268252 -0.4619317 0.13785064 -0.80231225
指数 0.4337461 0.34451813 -0.44618523 -0.865944 -0.8987836 -1.4395982 0.8781755 0.7752184 -0.80891985 0.5830087 -0.9644103 0.4775618 -0.46644315 -1.4100881 0.0078915255 1.0857438 -0.47463512 -1.0352045 -0.60977894 -1.3053846 -0.59643483 1.5795324 -0.018357918 0.56675774 0.24341778 1.1093448 -1.1082579 0.9245499 -0.802729 0.5278282 -0.6054699 0.9875406 -0.30837053 -0.54473627 -0.44710737 0.6634228 -0.2544688 -0.15815441 0.1700712 -0.5925632 -0.14875712 -1.2273071 0.6642115 0.60600644 1.5926548 0.97259164 -0.8031164 0.99537796 -0.5017623 0.5526364 -0.26291364 -0.24044576 0.68649477 -0.15482773 -0.22335623 0.15672192 0.617997 0.9743529 -1.7914935 1.251709 -0.20345564 -1.282396 -0.5903393 0.59339017 0.31256407 1.0378314 0.811872 1.4756664 -1.0017484 0.4251357 1.2249156 0.6348486 1.7516524 1.2641866 0.40217495 0.32775286 -1.3511974 0.49006727 1.4606388 -0.5674242 -0.25523898 0.77061 0.65007734 0.85830206 0.9860937 -0.9021842 1.8224248 1.9406404 -0.097830966 0.16337359 1.7262061 1.4826618 -1.0750519 -0.7196029 -0.32448915 0.49728385 0.71298635 -1.435223 0.00282119 0.77363706
备忘录 -1.102935 0.649337 0.22400506 2.218729 1.4415461 0.34464645 -0.39693686 0.08080254 -1.9148358 0.4770341 0.060272425 -0.8044543 0.03330956 -0.13638647 1.8494661 -0.64894336 0.44273555 0.011724521 0.90973204 -0.4294596 -1.7476017 1.4889534 -0.90329343 -0.77046883 0.700452 0.5367961 -1.565882 -0.024594834 -0.8189634 0.018484375 0.8331424 -0.3070909 1.2486328 -0.38408747 -1.2944932 -0.38147464 -0.5917794 -0.7752866 1.487414 -1.010808 0.7002198 -0.6643066 0.048160788 -0.22701333 0.47749144 -0.44885585 0.072132 0.21671948 0.16214745 0.4576893 0.40742752 0.8041446 -1.0511274 -0.8663756 0.8377768 -1.8935913 -0.7857096 0.42003232 0.73126674 1.4069136 -0.28467357 0.73011726 1.0567819 -0.8809154 -1.9607164 -0.3113493 0.401448 0.9119508 -1.1108508 1.152018 0.33311638 -0.6688765 1.3301231 -0.18883066 -0.25779656 0.7103605 1.5216024 0.096000284 -0.9354226 -0.687333 -0.9347236 0.16884595 0.9127389 0.16009745 -0.5084566 -0.3757198 -0.082539566 0.35673445 1.5986489 -0.5240702 0.81156933 0.39508128 -0.822314 0.071888246 1.5776403 0.58975047 0.45973584 -0.8065789 -0.28670573 -0.6843689
交通 0.10209328 0.8848327 -1.8679677 0.46625835 0.7020257 -0.28360635 1.0760013 1.9971114 0.17969385 1.5005219 -1.0825226 -1.8494418 -0.7012419 -0.92129415 -0.31399518 0.8850141 -0.07818149 -0.025772888 1.4072428 -0.8514273 0.4205189 1.1718749 -1.0044568 0.34366438 -2.2181382 0.73649234 1.5147845 0.68885046 -0.3400586 -0.84514606 -0.066306815 -0.24735434 1.8364701 0.50462174 -0.5094772 2.3532825 1.324051 -0.8695855 -0.8997542 -0.37564066 -0.57337654 -0.30368108 -1.335028 1.0149713 1.2596521 1.8287404 -0.82883024 -1.9990947 1.4579453 -0.22008055 0.83228517 1.583633 -0.17606428 0.4178121 -0.8428665 0.7525241 1.2091804 0.12573476 -0.6529961 1.0455745 0.13138063 0.17646132 -0.47392923 1.6612488 -1.1138225 0.6498531 -0.66520566 1.579901 0.10635854 0.035186257 -0.54736453 0.18020792 0.20090029 1.8613721 1.282521 -1.027672 -0.8097278 -0.4982274 0.1561892 1.1653032 -0.24942982 0.31091732 0.6455152 0.09501103 -0.19636108 -0.1850479 -1.0589073 0.39021343 -0.17461926 0.16083418 1.2978579 0.08074415 0.16149396 -1.1320137 1.3440393 0.88513154 1.69061 1.082473 1.1001074 -1.1550654
单曲 -0.9150012 -0.096772365 -0.14405994 -0.5027819 1.1715968 1.1478057 0.6893872 1.4800735 0.39682576 -1.3482823 0.20950808 0.490533 -0.22098938 0.25179547 -0.5021507 -0.92412883 0.8226742 -0.35896394 0.21188548 -1.6733822 1.1854892 -0.23807298 -0.1575016 0.119445 1.1071019 -0.7092288 0.59910774 -0.34932774 -1.0747863 -0.62403 -0.96995836 0.55120456 0.15028211 -0.68267405 0.29527712 0.8554638 1.2145267 -1.3112129 -0.4161632 -0.14525655 -0.051723227 -0.7226323 0.4271878 0.19794883 1.6423308 0.15187487 -0.45619792 1.1111783 1.3271008 -0.17739977 0.3967702 0.28178254 -0.6958106 0.4585534 -0.6707632 -0.74038273 1.2155043 -1.1939182 -0.15931931 -0.40523735 0.5297278 0.720332 0.95400536 -1.4139415 -0.5186887 1.0856171 0.28579733 0.369699 -0.4948039 0.50562024 -0.97733104 0.7395356 0.034057703 -0.11946939 1.2324752 0.28403953 -0.54768896 -0.09133813 -1.0650107 -0.8822785 -0.37185594 0.8475403 -1.2149212 0.41391307 0.29723114 2.0920892 0.77689946 -1.1425494 0.6009471 1.0483245 0.93531936 0.53560567 0.42245215 0.8152014 1.019182 1.2084218 -1.0728712 -1.0997831 0.39356643 -0.33748487
快点 -0.65494746 -0.9111584 -0.12735936 0.13578616 -0.24612704 -2.1468744 0.13813885 -0.20171946 -0.40103045 -0.41716594 0.3737043 0.16216242 -0.5255182 -0.4415775 1.1630881 0.20976478 -0.6355212 -0.45932218 -0.6539397 -0.68612915 -0.3438576 0.5889343 -0.15855734 -0.59551805 0.20188297 0.23260795 0.20094809 0.004944369 0.2297008 0.40856233 1.7780415 0.6898299 0.10724055 0.9508225 -0.5069938 -0.3358253 0.32145864 0.8072226 -0.1600701 -0.80865204 -0.30646417 -0.07540967 0.3152402 -1.1956781 -0.31450725 -0.5325462 0.252436 0.09994194 -0.15822391 -0.3355661 -0.17985496 -0.11644971 0.076937936 -1.2336776 -0.81809616 -0.21641916 -0.45034748 0.09796182 -0.16184801 0.44323763 0.6959099 0.8239267 0.14822009 0.0285038 -0.59000546 -0.07148652 0.47044513 -0.02453521 -0.06655009 -0.16474195 -0.6633569 -0.25820166 -0.5098629 0.7128524 -1.1977161 0.97042614 -0.17412144 -0.23475501 -1.3159821 -0.023349177 0.6896789 0.83540237 -1.3145325 0.35701695 0.223351 1.0058109 1.1424186 0.19042553 0.028866036 -0.4104749 -0.103255376 0.37581503 -0.27952355 0.6623431 0.7627673 0.5115266 0.44051993 -0.88825077 0.026174102 -0.75168395
节日 -0.17138079 0.47887784 0.48057216 -0.2660936 -0.4430696 -1.3608576 -0.10669726 1.4769456 -0.9774478 -0.6674352 -0.06935724 -0.20393431 -0.10175911 -0.55975264 0.6753246 -0.5157556 0.15682788 -0.31946105 -0.2787933 -1.5068275 0.5020257 0.77836585 -0.084809855 -0.35124156 0.043610133 0.77866346 -0.4749546 -0.6711265 -0.10070729 1.0020509 -0.5161657 0.594968 -0.4992172 -0.9576443 -1.071762 1.068104 -0.79727465 0.15029563 0.15868881 -1.0122994 1.5840365 -0.5271159 0.1405319 -0.5310542 0.5292318 -2.2187526 1.2368115 -0.93601745 0.55543923 -0.03568781 -0.5874718 -0.5817022 0.8356352 -0.17842418 0.89376575 -0.21556954 0.14557801 1.0461527 0.15425788 1.1936328 0.1849717 -0.5347537 -0.2698346 -0.031184088 0.17729193 0.95028204 1.1491027 0.3482567 -0.3101716 0.2630568 0.05053496 -1.0583645 -0.08817402 -0.4065373 0.21096312 1.6503842 0.67373544 0.270921 0.11076485 0.50486946 -0.029698743 -0.25969598 -1.4732858 0.3264431 -0.115754016 0.4064893 1.368353 1.2749854 1.1307818 1.1780496 0.5011589 0.02532073 -0.5976631 -0.22617191 1.1502897 0.43291256 -0.040205017 -1.4883151 -0.04363832 -0.22200699
11 -0.9630331 0.15919355 0.04891675 0.09405906 0.35340777 -1.0170724 -0.6995218 0.7532978 0.23001285 -0.21808802 0.7137391 0.33143762 -0.39208937 0.9890561 0.62868166 -0.6862536 0.3663877 -0.09806445 -0.41674083 -0.3532503 -0.46085533 -0.114212096 0.39782566 -0.72495776 0.09567949 0.092280366 -0.40610555 -0.85824883 -0.22265722 0.064881995 0.24064729 0.29970914 0.18191451 0.47800702 -0.51263213 -0.003139397 -0.8262803 -1.7931248 0.6749246 -0.50941044 0.03744917 -1.0055093 -0.124893904 -1.3743681 0.15158401 -0.29230192 1.1277349 -0.74084824 -0.28171918 -0.0732749 -0.15775321 0.24660267 0.5944804 -0.43010873 0.10487312 -0.072443865 -0.20936592 0.021469042 0.8791709 0.39376992 1.3309109 0.3338425 0.057107083 -1.0235627 -0.768879 0.4328206 0.41064215 0.26195925 -0.15778534 0.45797092 -0.094368465 -0.99401885 0.27334785 0.028511431 -0.32255927 1.1086437 0.47233623 0.12196974 -0.40444088 0.37662777 0.31364655 -0.6494529 -0.58296895 0.5562227 -0.3604853 -0.29760092 0.42600647 -0.4886752 0.8488143 -0.7061712 0.44796067 -0.21165127 -0.050971434 -0.18547234 0.06810061 0.10623845 -0.028178006 -0.72533214 -0.0868067 -0.37969694
小说 -0.10498788 0.6122896 0.53117466 0.08547791 -0.34832016 -0.8913569 -0.75064665 1.6018255 1.378107 0.818373 -1.7217476 -1.7612884 -0.31795642 1.2786809 0.15773872 0.5313469 -0.7140014 -0.51413316 0.63820285 0.000782765 -0.044999056 -0.31202993 0.34946492 -0.011587991 -0.32705173 -0.37291622 -0.338545 -0.10145465 0.3084747 -0.5117977 0.36098263 -0.67059565 -0.5977897 0.057559118 -0.8388816 -0.10007632 1.1802874 -0.900924 -0.49434033 -0.0975637 0.23387426 1.2985504 -0.5956876 -0.7317242 -0.3811045 0.6327309 -1.364307 0.4102283 1.2032734 0.41971853 -0.13875414 0.32232764 0.8516266 -0.37392828 0.509957 1.0358596 0.7630496 -0.7338429 -0.027662527 -1.2334487 -1.0823567 0.93226814 -0.24633639 -0.7489168 -0.7983063 0.0993264 -0.97924304 1.1069058 -0.33679664 1.1630708 -0.23427981 -0.830972 -0.9307358 -0.32188267 1.3570659 -1.0214002 0.49571124 0.35515702 -0.5268506 0.71633214 -1.0524659 -1.1005644 -0.9077991 0.48566005 -1.028955 -0.9133192 -0.8683594 2.2034633 1.3714411 -0.77356577 0.42803708 0.20899045 0.30135435 0.9270789 2.10748 1.7902713 0.51006866 0.5231073 0.5635137 0.5967957
随便 -0.034333732 -0.13540138 -0.08192418 0.41152585 -0.36880577 -0.31652686 0.5611081 1.4178736 1.3225837 -0.41253147 -0.47769535 -0.7159941 -0.29120234 0.27021876 0.10447469 -0.8112158 -0.48971426 0.09760274 -0.4846325 -0.57855415 0.5998099 1.0680169 -0.28540123 0.16303937 -0.6656441 -1.0298145 -0.1318812 -0.6198863 -0.54644334 -0.012259418 0.56873804 -1.0619888 1.0920392 -0.2271364 -0.95893866 0.3334049 0.13221788 -0.44738528 0.12625752 -0.16682489 0.35266417 -0.35133573 -0.32283834 0.02170426 0.24440235 -0.14213662 -1.0245558 -0.59397763 0.5584876 0.12143885 0.069225274 -0.042734332 -0.13824038 0.017273897 -1.2185636 0.48274055 0.23657824 -1.6832464 -0.98790747 -0.7218086 -0.2705 0.87176776 0.38645294 -0.53157216 -0.93589735 0.24031241 -0.13922681 0.008894421 -0.54169923 0.56675446 0.5063342 1.2705896 0.46176547 -0.50637233 0.8237471 0.5999029 -0.020563161 -0.40738153 -1.4199296 -0.107165255 0.3811848 -0.11524004 0.09376256 -0.23141092 -0.99547786 0.04503506 -0.7467757 -0.07853555 -0.5217552 -1.1233083 -0.6179394 -0.7930254 0.42475972 0.05352549 1.3765805 0.5630071 -0.74207675 0.44274986 0.015213133 -0.24046442
回放 -0.8497724 1.591403 -0.17861028 -0.48630986 -0.3511508 -0.16950879 1.5078781 0.07081775 -1.2179358 -1.2788517 0.12144354 -0.6949121 1.1599894 -0.8920843 -0.37489295 -0.6574276 -1.3206899 1.027648 0.9960495 -0.26826918 -0.13538976 1.2097845 1.2861935 0.070163265 -0.7930749 -0.3722362 -0.5203577 0.06756939 -0.85245836 0.090974234 -0.19419537 -0.9438447 0.96178937 -0.06350042 0.048071 0.96286136 -0.9169238 -0.14767852 0.36543107 -0.735994 0.4843979 -0.87301177 0.044622544 -0.4970406 0.30062506 -0.10234908 0.672826 -1.0483291 0.7867639 -0.3959946 -0.43953484 0.04970849 0.1616563 0.07955602 -0.212788 0.48235893 -1.1802154 -0.79789346 0.83316547 -0.0028515272 0.3204228 -1.4735035 -0.3794386 0.70207435 -0.86011654 -1.0668025 -0.1955072 0.69662833 -1.1545792 0.7191917 0.18895178 0.5459423 1.901592 0.24015437 -0.73147416 0.90637964 0.38229203 -0.7553546 -0.30453765 0.848233 -0.25316456 -0.092398964 -0.7009128 0.47368145 -0.9457606 -1.1751211 -0.66940266 -0.36842898 1.3386294 0.020292785 -0.75729245 -0.9197803 -0.5701288 -0.93990874 1.1916789 -0.4104704 -0.453761 -0.69613093 0.59297043 -0.85927516
听听 -0.63354933 -0.320443 -0.61243755 0.11137559 0.17414635 -0.037458554 0.8796347 0.99603546 0.33242497 0.17341904 -0.8007112 -0.7926028 -0.56212115 0.10212114 0.31581265 0.00755933 -0.56905675 -0.26704302 0.08296597 -0.5065593 0.91871125 0.6718727 -0.30968952 0.47368664 -0.2845985 0.13918479 -0.39285398 0.12330737 -0.43459865 -0.19258587 0.028371556 -0.22388798 0.8115703 -0.6331459 0.113359004 0.54626656 0.60133123 0.036870915 -0.03545693 0.54162467 -0.6842458 -0.3211716 -0.5121932 0.81617284 0.5155022 -0.18417087 -1.1287065 0.3246658 1.4237103 0.015278713 0.92861265 0.7996841 -0.47068018 -0.82716364 -0.31347567 0.67187345 0.1099878 -0.83673275 -1.0942106 0.029203493 -0.19447432 0.10259032 0.18483622 0.65983766 -0.93180805 0.11297579 -1.0900433 0.6838994 0.010822247 0.61904514 0.32022312 1.0676484 0.165544 -0.003481322 1.2077249 -0.49559096 0.37386996 0.20558493 0.16819854 0.19728519 -0.57078844 -0.2960704 0.32068145 -0.825855 -0.782275 -0.16563007 -0.41482738 0.020447325 -0.09296085 -0.6980907 0.25886947 -0.35848877 1.3877075 0.39368448 1.5827429 0.13311017 -0.21366386 0.6615817 -0.025048275 -0.09562976
2020 0.5803034 0.6758576 -0.12490546 -0.50957644 0.42362273 -1.1111964 1.1915146 0.607061 -0.25514567 -1.403083 0.06720632 -0.98082787 0.23511279 -0.6808659 -0.2104072 -1.3968955 -1.347598 -0.35176954 -0.016938275 -0.5186232 0.37880617 0.18714623 0.663484 1.1392393 -0.7872644 -0.07647232 0.2531862 0.049773403 0.23291495 0.08826314 0.2378229 -0.3143661 0.42008057 1.0057638 0.82288796 -0.12383915 -0.024091797 -0.26107156 -0.6478622 0.0019339795 0.4598425 0.35353863 -0.33013442 0.63566405 0.46237972 0.05785496 -0.6124432 -0.021707116 0.4882065 0.16512868 0.09982776 -0.337365 0.11115507 -0.9374217 -1.5367562 -0.14937241 -0.65336126 -0.5125986 -0.06853768 0.32046324 0.33870763 -0.12996532 -0.14326747 0.11058063 -0.7578515 -0.4636859 0.056105666 1.2036921 -1.7817621 0.67173404 -0.44239625 1.5336227 0.943549 -0.16593428 -0.7377658 0.2909344 -0.25244483 0.13069297 -0.13466997 0.24474235 0.097516105 0.32008404 -1.333819 0.27607134 -0.5913601 -0.49540114 0.4709733 -0.84535104 -0.7171738 -0.46853808 -1.5390388 -0.33188766 0.39999843 0.4358075 1.7633878 -0.70543367 -0.31487998 -0.6030361 -0.35815307 -1.1818308
一零 -1.1359023 0.28155577 -2.743338 0.6497132 0.75070137 1.1076299 0.4686069 1.0262036 -1.1036701 3.0944715 -0.7119605 -0.5569359 -0.4963157 -0.93769115 0.71663666 0.37151453 1.0105002 0.99646777 1.692424 -0.5030485 0.91521716 1.8223875 -1.9882687 0.43332562 -1.2881694 1.6186565 -1.6222861 -0.5911759 0.060134 -0.049413048 -0.7431901 -0.25915772 0.3727585 0.5286915 0.19858584 1.5343132 -0.20559058 -0.8209741 -0.62321717 -1.0789729 -0.6564216 -1.3007231 -1.8171413 2.0929694 -0.29497185 1.145546 -0.40974227 -2.0537622 1.7846808 -0.1700537 0.5183075 0.32358256 0.58356535 0.64631635 0.05540521 1.6848655 1.0810584 0.6885606 0.16697447 1.7162123 0.47532582 0.20285739 -0.053386364 1.1828059 -0.9843837 1.0877535 -1.0937972 2.2174158 -1.108128 0.444068 -0.5765048 0.6041214 1.3142498 0.34836942 0.5027673 -0.82678646 0.07752671 0.85615677 -0.73684835 1.1738437 -0.24048567 -0.7875181 0.52335143 0.971367 -0.9552041 -0.7417231 -1.9989535 0.12763257 0.43266135 0.4369165 1.0623411 0.4359994 0.31554765 0.06570132 1.4654717 2.089926 2.4735105 1.3175598 0.48892713 -0.97984856
播出 -0.09001685 0.38750777 -0.74056304 0.9443256 -1.1895441 -0.21532062 1.9199662 0.109003976 -0.91362685 -0.85262233 0.4512735 -1.0909331 1.3047155 -0.1444647 -0.7557954 -0.35298485 -0.5007946 0.32759604 0.38427484 -0.43468428 0.6829267 0.6392038 0.1887284 0.41182578 -0.8747507 0.058968943 -0.07218735 0.041335016 -0.21264347 0.8960137 0.31981868 -0.62116295 0.5203711 -0.5445082 -0.43471557 1.2125413 0.4007993 0.59584963 -0.3861235 -2.28915 -0.835931 0.9712394 1.1085811 0.5336412 0.55242515 -0.9713596 0.14989418 -1.4897566 0.29710594 0.19572498 -0.62746346 -0.27724734 -0.8423352 -0.20100194 -0.93624943 0.08466366 -0.08413205 -0.43782157 0.27700248 0.32339835 -0.6150843 -0.60239756 -0.96890277 0.24037485 -1.3513986 -1.2196956 0.32383013 1.4452189 -1.0529739 0.9421093 0.09780017 0.98499376 1.0513144 0.02171182 -1.2979498 0.87315774 1.5247846 -1.3454924 -1.1058768 0.81057864 0.39913523 0.19122615 -0.4200401 0.14018172 -0.0065764803 -1.4783165 -1.2886099 0.7858015 0.6629752 -0.55304646 -2.1960082 -0.08875702 -0.6139356 0.09114272 0.062980264 0.0588428 -0.21359086 0.38340065 0.38906097 -0.3150645
调到 -0.5093363 -0.31780246 -0.5475246 -0.9749893 -0.4954206 -0.7549741 1.0445873 0.17032301 0.44464135 0.19810635 -0.21165472 -0.9085549 -0.09956189 -0.83087784 -0.9394421 0.28708798 -0.54765534 -1.0283556 1.1646947 1.2064635 1.2911706 0.6962366 0.0011712987 -0.926465 0.54477924 -0.6732649 -0.034768105 0.3832072 -1.4972637 0.5038267 0.4193211 0.35848182 0.7500821 0.07343711 -0.50260884 0.6519312 -1.3640772 -0.9860451 -0.8126959 -0.11315646 -0.6378374 -1.0903648 -0.20847064 0.056713037 0.5110947 -0.9910541 0.027747348 -1.1490144 0.58971995 0.3070704 0.9684584 0.004284231 -0.599876 1.6701655 0.22817963 0.19514069 -0.6681771 -0.15035415 -1.0052443 -0.0062912903 -0.6689605 -0.12779978 -0.4029291 1.0076559 -1.1405408 0.5507612 -1.0399091 0.4771963 0.59114575 0.18451478 0.28350186 1.2612107 0.7955345 0.45613953 0.80393946 -0.5317381 0.00562485 -0.5300154 0.5316815 0.2932391 0.5207468 -0.23838848 0.23531394 -1.4528844 0.19072194 -0.9302862 -0.66774774 0.5535562 -0.22823721 0.41083777 0.659687 -0.3492054 -0.6613263 -1.0703938 1.359556 -0.041798495 0.65993977 0.25698876 0.48497048 -1.4056786
删除 -0.7085557 -0.071226515 -0.14687628 -0.30936995 0.36162546 -0.3815917 -0.26005992 0.69473845 -1.2434094 0.08139389 -0.20141679 -1.3823621 0.21473758 0.2188142 0.5438558 -0.49111918 1.1463821 -0.07172196 0.5750876 0.26212597 -0.52952564 0.17702922 0.085680604 -0.6496404 -0.07196479 0.74475676 -0.61603075 -0.0140158925 -1.5716877 -0.11034622 -0.022550529 -0.18429242 0.2672551 -0.21562712 -0.21094832 0.09822126 -0.3826436 -1.2297308 0.49987778 -0.40199333 -0.4712185 -1.8712047 0.08968338 -0.34036294 -0.008594273 -1.2608647 -0.18663226 -1.108112 0.031582512 0.98924613 -0.35427412 0.11142906 0.41201207 0.44238275 0.038171005 -0.9409628 -1.2222025 -0.46074066 0.7187742 1.391962 1.1481633 -0.27653092 0.37337786 0.04690921 -1.3003466 0.9170408 0.6375078 0.6088931 -0.7351816 0.9748547 0.10992903 -0.10211656 0.8501582 -0.781037 -0.74447143 1.9051076 0.5760233 1.1358598 -0.04543578 0.15259778 0.2565442 -0.44854152 0.7071684 0.49006456 -0.7339999 0.45755967 -0.19678389 0.56325287 1.8400996 -0.61509377 -0.025727758 0.08604706 0.12143875 0.15082866 0.7122509 -0.14563671 -0.1772816 -0.7000349 -0.030590607 -0.7537739
查看 -0.20867033 0.55311495 0.17964472 -0.09624511 -0.8355586 -1.838434 0.6915231 -0.41301042 -1.354702 -0.46811816 -0.40535226 0.30219188 0.17137219 0.024617111 0.1937718 -0.07418798 -0.9854924 -0.16497949 -0.007669393 0.2744486 -0.41256267 0.0377374 0.11918234 0.24903244 -0.8932621 0.051067077 -0.037030768 0.11375009 -0.36603525 0.49040392 0.88946205 -0.4555525 0.2495898 0.17944276 -1.0066555 0.80651295 -0.709125 0.34724125 0.47938257 -1.9117444 -0.6536206 -0.14352731 0.08142401 -0.049746335 0.37827542 -0.86346644 0.3747247 -1.0947765 0.8463413 -0.27682492 -0.037191886 0.111231446 0.3964666 -0.79986215 0.11049951 0.27769014 -0.7046686 0.441564 -0.08079197 -0.6739932 0.719026 -0.2786863 -0.982884 0.5862409 -0.4484999 0.97936213 0.25937557 -0.1036983 -0.69050705 -0.4430515 -0.18384174 -0.69872516 0.6669943 1.1071535 0.5519232 0.97012734 -0.05243285 -0.60519534 0.8953221 0.81227404 1.0776572 1.2797022 -0.55089784 0.16516477 1.0598207 -1.6956689 0.17567746 0.394397 1.3627954 0.15110077 0.43683374 -0.22163098 -0.750627 -0.76295274 0.21714465 0.13588509 0.052441496 -1.1018963 1.0553328 -0.35321683
故事 0.28426906 -0.15808445 0.020502226 -0.6483549 -0.4933883 -0.07504617 0.78777015 0.617181 0.5444421 -0.520083 -0.33568683 -0.6031058 0.11728412 0.5123255 -0.89935094 0.08800952 -0.4528154 -0.35604805 1.0371541 -0.068734065 0.96266663 0.21206056 -0.13573052 0.19519348 0.4463944 0.02114959 -0.1750115 0.47700185 0.26622128 -0.5861026 0.7585718 0.7638351 0.26673263 -0.07901715 -0.7653372 0.5641832 1.4962486 -0.44884375 0.049223583 -0.8882643 -0.550195 0.7641129 0.5512969 0.7807542 1.208793 0.54974955 -0.36109418 0.26963302 0.8356006 0.13685656 -0.6329966 0.7908237 -0.5463379 -0.8561694 0.43361604 -0.08065284 0.2910341 -0.6667389 -0.33135968 -0.9273327 0.2567203 0.86154586 -0.0029681236 -1.0107665 -1.0076382 -0.34933648 -0.81108546 0.48682836 -0.33659568 0.67019725 -1.6133553 0.3138604 -0.023625297 0.48256028 0.06423667 0.08850334 0.4960214 -1.20798 -0.74136585 -0.09161563 0.6258838 0.14686878 -1.4484434 0.28580356 1.233454 -0.04600998 0.6038025 -0.79438627 0.4262319 0.16535622 0.17044197 0.03636834 0.54122937 0.5190013 0.75656295 1.1773198 -0.78899366 0.328317 0.45883608 -0.649396
记得 -0.58793914 -0.1719129 0.54246515 0.22022943 0.4369321 0.19904025 -0.3659549 0.49729604 -1.0763582 0.25986552 0.21871084 -1.1987495 0.7250419 0.5554033 1.7819692 -0.052758332 1.4978435 -0.7460068 0.45540228 0.30890182 -0.96231383 0.48142025 0.34943146 -1.3265842 0.5543947 0.9997331 -0.81854117 -0.42548358 -1.4444307 0.48211175 1.247694 -0.31150588 -0.00847263 -0.24988689 -0.9007406 0.15530115 -0.94799244 -0.29357305 0.95492697 -0.9834148 0.057223566 0.018917922 0.41429222 -0.048348017 0.6417078 -0.084931195 0.1173724 0.23420574 -0.14062572 0.1853933 0.13409738 -0.39051664 -0.18295155 0.38881147 -0.06375411 -0.6083029 -0.8246261 0.19153541 -0.46347883 0.34104633 0.43441403 -0.094573684 0.25590444 0.001394986 -0.76997346 0.6643159 -0.26676145 -0.2461583 -0.6825393 0.19688827 0.34411427 0.21163553 1.1416855 -0.30857652 -0.72529596 1.1359633 1.1915705 0.28813905 -0.6022021 -0.49708652 0.21920885 -1.1472161 0.7089892 1.2088534 -0.12992093 0.08373094 0.5845431 -0.37875956 1.0468997 -0.20842668 0.41369182 -0.1058231 -0.08784683 0.28246367 0.24934326 0.71884835 0.59157974 -0.44724625 -0.71054125 -0.022456275
顺序 -1.0933332 -0.7389485 -1.174056 -0.17785527 0.24105869 -0.9006092 0.966157 0.69396234 -0.9474799 -1.39808 -0.008667197 -0.9272549 0.13093467 0.2007833 -0.5230986 -0.49659452 -0.5005674 -0.7029776 -0.87629384 -0.97012997 0.47052413 -0.30591327 -0.51294273 -0.017536564 0.5176019 -0.89624333 0.42926648 -0.093016535 -0.38693544 0.30077252 0.97572654 -0.014000389 1.7277845 -0.47483823 -0.8362279 -0.03773429 0.6471147 -0.1371767 -0.11794598 -0.96815187 -1.3698893 -0.6577281 0.9251314 -0.07656618 0.54660344 0.36905858 -0.75769603 1.1703191 -0.640595 1.184155 1.124702 0.6446129 -0.33746508 -1.1786394 -0.24211824 -0.716277 0.13335504 -0.18647671 -0.8478558 0.36277232 -1.008992 0.73968625 -0.5764715 -0.4172285 -1.539984 -0.3323246 0.17175166 0.45466194 0.68087816 0.739382 0.49467888 1.0596863 0.77396965 0.558748 1.2409047 -0.9150895 0.28624317 0.084034465 -0.25085157 0.30194223 -0.7008876 1.2111596 -0.4676058 -1.0366426 -0.23837507 0.47444153 0.19163512 0.86057484 -0.31107023 -1.1881754 0.122308545 0.18277992 0.35179627 0.28507948 0.99099624 -0.17216934 -1.0534636 -1.7772915 0.651102 -0.7503589
切换 -0.6385727 0.41946095 0.481435 -1.5527354 -0.43725073 -1.2329371 0.51824605 0.14805344 0.011051493 -0.30900705 -0.65311307 -1.8138586 -0.14975177 -0.44515863 0.014720224 1.1450218 -0.06472799 -0.7468516 0.9649226 -0.6663615 -0.40573245 1.1782447 1.48386 0.15138845 0.9678901 0.8141694 0.26107466 1.6217856 -0.50755435 -0.06850229 0.86256033 -1.029197 0.44209498 0.21489081 0.07658551 0.18552685 0.114536166 -0.10356369 -1.7116987 -0.6380322 -0.65419614 0.3148369 0.07552888 -1.6421107 0.36941904 -0.361389 0.22511984 -0.06287062 -0.6241345 0.30808625 -0.41729257 -0.6505971 -0.32161388 0.718626 -0.62755114 -0.6069968 0.0015274149 1.1129777 -1.362296 -0.7331244 0.24866588 -0.115942456 0.7116526 1.0407982 -1.0689064 0.6172151 0.7274122 0.7847931 -0.9491341 0.7120235 -1.0535024 1.2092805 -0.22670396 -0.550637 0.09039248 0.9033714 -0.48925886 0.5119972 -1.4729502 -0.10821599 0.5663731 -0.7214883 -0.23796737 0.3126641 1.2514429 1.2239711 -0.72167027 1.1457285 0.72047937 0.8005596 -0.07420822 0.3202909 -1.0337361 0.75146884 0.75487095 0.9545428 0.48624313 0.5694402 0.53771406 0.49748352
