1746 100
播放 0.45882088 -0.75597 0.441784 0.2851254 0.13141495 -0.90241873 0.42032203 1.0513314 -0.51422894 -0.71974003 0.60651815 0.18051352 -0.76025456 0.8655368 -0.19852646 0.1803375 0.29555854 -0.09410143 0.58114743 -1.6538901 0.6320755 0.07436186 -0.26446345 -1.0448728 0.7971367 -0.6146884 0.39061132 0.19374494 -0.18522926 -0.7716217 -0.7229946 0.41041493 0.71814513 -0.7043634 0.10302485 -0.06071229 -0.4422142 -0.64064574 0.23711817 -0.31189194 -0.74129695 0.1096226 -0.83383137 0.43985602 0.59818196 -0.11245544 -0.56003684 0.7899915 0.07312718 1.1311064 -0.20244552 0.40165818 -0.78788805 -0.7323833 0.5115802 -0.5635914 -1.00659 -0.4937683 -0.33022147 0.35167298 -0.052457716 -0.285309 -0.064297564 -0.36558685 0.93768066 0.093848564 0.716734 0.8500183 -0.70552456 -0.47093254 0.55331993 -0.1562618 0.21581167 -0.9830149 0.43621007 0.30917808 1.006307 0.04151933 -0.030933928 -0.34031662 0.63235694 0.08763716 0.69135374 0.35464853 -0.8233534 -0.22173582 0.021834312 -0.25668785 -0.11800354 1.4841579 -0.72836727 0.087309204 0.8884019 0.47412047 0.09244361 -0.29951555 -0.1007609 0.67960215 0.21229374 0.8602168
帮 -1.4750634 -0.009021007 0.4771085 -0.42503726 0.4379966 -0.8640238 0.10559289 0.4109032 0.0826465 -0.85445046 0.37889358 0.24929811 0.48661035 0.067599095 0.65395665 0.6519696 0.4293604 -0.6485176 -0.24458963 -0.69225496 0.96944743 -0.003931134 1.0768806 -0.72633475 0.27622685 0.7708818 -0.5067736 -0.23859069 0.6642081 0.94587326 0.08859662 0.0023412437 0.3575665 -0.81562454 0.5385065 0.43120012 0.15240254 0.19589435 0.009161735 1.0569158 0.6925161 -0.043782257 0.1371802 -0.41346765 -0.56526035 0.07530042 1.175575 -0.2126583 0.021156427 -0.25756353 1.636581 -0.1133468 0.14733033 0.72252905 -0.25565434 0.1456936 1.4041198 0.4877501 0.10160329 0.68701375 -0.2094481 0.23992564 -1.286068 0.4936754 0.6164364 1.024981 0.8775956 -0.72267395 0.016164051 0.1861689 -0.40036252 -0.67972285 0.17542769 -0.2602003 0.3242761 -0.24654925 0.08106308 -0.047144867 0.13298304 0.23065726 -0.3864917 0.15810509 -0.7402208 -0.13931142 1.0538856 0.22869307 -0.063507505 -0.39751953 -0.17754403 -0.46718034 -0.5957807 0.73097885 0.19292457 -0.5283172 -0.4821769 -0.18987982 0.11250045 -0.6482365 -0.2464123 0.89833957
想 0.20688397 -1.2323222 0.20026913 -0.5054401 0.54022914 -0.69423693 -0.3519801 -0.07772393 0.1314561 -0.65840214 0.46366638 -0.8202132 0.47628412 0.501815 0.82678854 0.22482586 0.9187888 0.32808712 0.10317583 0.12831625 0.097243235 -0.01853266 -0.7882306 -1.0454675 0.712791 -0.3109343 0.63737285 0.119054124 0.23204173 0.015503301 0.5827722 -0.4480244 -0.6450479 0.5501603 -1.002234 -0.04390338 -0.027783016 0.122144 0.86062735 -0.88712806 -0.6667459 0.11738856 0.6880433 0.68021375 -0.80285966 0.1781012 -0.9167639 -0.5045998 -0.44425136 0.0010264514 0.4080186 0.3992322 -1.2793742 -0.9876514 -0.36853263 0.20519374 -0.76830494 -0.1301431 -0.44890162 0.057065215 -0.41888285 0.3822677 0.12068166 0.13681509 0.27754325 0.02401 0.463447 0.3956908 -0.19753937 -0.31982553 0.42186242 -0.2775513 -0.24265033 -0.6210794 0.59643245 0.31161356 0.050058413 -0.0010313706 -0.9319512 0.11449713 -0.07785966 -0.39090043 -0.011453302 0.5642138 0.5422494 -0.05395325 -0.66329676 0.26484865 -0.25421715 0.2266279 0.34709954 0.55316395 0.13053723 -0.47300738 0.1923427 0.8104882 0.13004594 -0.34825277 0.9750717 -0.25034568
点 0.60479593 -0.71898866 0.022395713 -0.4816746 0.040038507 -0.348513 -0.77114433 0.35309348 1.7538401 0.07820869 0.15795287 1.0536056 -0.053589284 -0.61998135 -1.7788383 0.53886104 -0.3910477 -1.2042731 0.24192765 0.62596464 0.85348016 -0.1491154 1.26607 -1.4441416 -1.677561 0.77876765 1.3732413 -0.012983616 0.6357488 1.0904365 -0.2426069 -0.30488375 0.5367187 0.2692067 -0.26479003 0.35228664 -0.18073589 -1.1020477 -1.0727285 1.3904655 0.5227047 -0.8930624 1.0704718 -0.17043649 0.5793372 0.89075005 0.048700124 0.67708707 -1.4201099 -1.1712074 0.7715432 -0.80849755 -0.38933936 -1.0410112 -0.92389596 -1.0230916 0.1038887 0.93757075 -0.17158552 -1.9552301 -0.73145854 1.0526197 -0.04146753 1.5739423 0.99108124 -0.16053532 1.0698808 2.4279442 0.033831324 -1.2052609 1.43828 -0.21926789 -0.3766103 0.3096035 1.4104171 0.19188543 -0.3770811 1.1534709 -0.5625098 0.325698 -0.8802893 0.7633822 -0.9347574 1.2284142 0.43918157 -1.7912675 1.2742497 0.9369475 0.10436354 -1.4714074 0.23678261 0.38285464 -0.9649983 -0.24889982 -0.07624987 1.2535357 0.57324827 -0.5361596 -0.7064681 -0.121917956
听 -0.9161164 -0.60316485 -0.7440432 -1.4730359 0.09192676 -0.11312598 -0.32331303 0.29139078 -0.23535465 -0.15652277 -0.2881692 0.51402617 -0.8327786 2.1692224 -0.93815583 -0.614198 0.22298263 -0.417331 0.584154 -0.65026253 0.19964994 -1.2634317 0.4511643 -0.0382837 -0.3372343 -1.4597095 -0.5013127 -0.32708573 -1.2149166 0.6688347 0.75829965 0.79753196 -0.3954658 -1.0656126 1.1115612 -0.36195827 -0.9678995 -0.057688694 0.06520334 -0.8186075 -1.7485049 0.2715899 -1.0783404 1.2974378 1.7602807 -0.7561137 1.2948533 0.3995264 0.20042227 -0.24019976 1.4604765 -0.12513216 0.6417749 -0.41166368 0.04355251 -0.6358434 -1.0294113 -1.2544616 -0.5029606 -0.2452392 -0.113857664 -0.8336641 -0.63769484 0.1494218 0.31908506 -0.23634608 0.13712807 0.9691322 -0.25779328 0.06638899 -0.05109752 0.3560799 -0.21618147 0.67553276 1.3649445 -0.32516548 -0.36413693 0.598245 -0.26529202 -0.9836915 -0.265904 -0.82142645 -0.25295898 0.6750659 -0.433286 -0.6892971 0.46120808 0.250535 -0.9387336 1.3855497 1.1765836 -0.83914083 -0.3889545 -0.03313781 1.2347856 -0.7530674 0.035089683 1.010852 0.3297223 -0.19402795
明天 -0.7243327 -0.9403843 1.3780141 0.30402377 -0.40335515 -0.21150494 1.0327151 -0.058985353 -0.12910742 -1.2152522 0.09140456 -0.16226672 -1.0932375 -1.3628048 0.16673784 -0.75733525 -0.5711146 -0.90722257 -0.7752999 0.32951048 -1.2447907 0.765265 -0.010181409 -0.12232976 -0.9223113 0.7875496 -0.8799717 -0.92736304 0.37678513 1.1340657 0.22730778 -0.11512042 0.036066033 -0.07244266 0.4790212 0.63586855 -0.50422436 0.062675424 0.15382878 0.6368026 1.9800115 -0.8413952 0.84995466 -0.01957486 1.194853 -1.3442076 -0.32543436 0.73817974 0.04819192 -0.137696 -0.1261227 0.43535057 1.328631 1.3441215 -1.7981745 0.43793312 1.119969 -0.5074757 -0.5157338 0.3331269 1.035623 0.79757047 0.70318377 -0.5171412 0.29133394 -0.24498491 -0.08372245 0.10696204 -0.9943021 -0.37829655 0.4347873 0.81761926 0.07810785 0.6754241 0.6837718 0.85255164 0.045135275 0.5397664 0.8070775 -0.30940166 0.048055634 -0.71400064 0.30085653 -0.73985755 -1.3815842 -0.3637794 0.9434565 1.2670081 0.13583596 -0.39360946 -0.62938046 0.52377665 -0.27978832 0.24766707 0.37182835 1.1568531 0.21767859 0.051586907 -1.2213558 -0.9121355
号 -0.1339761 -0.6256025 0.64570546 -0.102374524 -1.1368055 -0.7255924 0.5600693 0.7163759 -0.03791944 -0.48121542 1.5601342 0.55211323 -0.012537251 -1.4852012 -0.39818472 -1.3042811 0.814054 -0.78188276 -0.666666 0.2898251 -1.1198016 -0.9215004 1.3312341 0.45260176 -0.8615118 1.5828362 0.04313792 -1.0451207 0.59879327 0.13873439 0.60598576 -0.09512708 -0.28364673 0.7296431 -0.123091266 -0.07777824 -0.8577305 -1.832402 -0.08168002 0.120444685 1.4156886 -1.0455986 1.123168 -0.7088931 0.6408066 -0.94596 -1.1626084 -0.5634115 -0.47027504 0.28229955 -0.09486327 -0.11577348 0.489901 0.29752934 -2.2436094 -2.2011223 1.0213522 -1.0485587 0.17917551 -0.9792774 1.5620165 0.99014366 0.92384374 0.28785628 -0.7013967 0.14469713 -1.4374119 -0.07709616 -1.6746831 -0.8926795 0.26628733 1.1029108 -0.028242612 0.005454942 1.6057262 0.34493136 0.28913876 0.9347882 0.110727064 1.675104 -0.39952052 -1.0259826 -0.36039793 0.3732291 0.22802426 -0.6484507 1.7849056 0.8862181 -1.340206 -0.48587346 -0.24815115 0.6418348 0.41088238 0.44412637 -1.6472492 0.659338 1.0275759 0.21786223 -1.2362452 -0.15973283
提醒 0.7492235 0.5746497 1.2157182 -0.48407373 -0.7785828 -0.17981741 2.8675098 0.16581564 0.32098296 -1.5757459 1.31823 0.6571243 0.7860362 0.6516715 -0.780694 -0.69308734 2.6620827 -0.63458574 -0.20483729 -0.004721795 0.6946418 0.7057302 -0.14172319 -0.8201619 -1.4700817 1.4825417 0.021586835 -1.5933917 0.15685026 1.9435852 -0.93563205 -0.56439877 -0.24152876 -0.29661444 1.0306606 0.8826469 -0.8720785 -0.883219 0.24978356 -0.4994598 0.031965636 -1.0378232 1.3556819 -0.13041794 1.3956835 -1.6720318 -0.53825754 0.48461884 0.04551916 0.18718155 -1.4042428 0.30050114 1.0271208 -0.2529046 -1.2130836 0.0995289 -0.38777423 1.097532 1.7766948 0.06035306 1.6301961 -0.5498284 0.7669263 2.0095725 -0.5417503 0.7998247 -0.6066441 2.18604 -1.0767413 -0.69146055 1.187182 1.1283 0.030805318 -0.6259708 0.15603688 -0.86312985 0.14054188 1.8662968 0.5611241 1.9472519 -1.2236937 0.80115676 -0.8828846 0.2052562 0.92713135 -0.83975935 1.5334983 0.3299326 0.3156758 -0.025622675 -1.2699121 -1.0596838 0.75582504 0.93802536 -1.0507596 -0.3853152 1.5698419 0.24487007 0.30875552 0.03213641
视频 -0.31515828 -0.34184852 1.136763 0.10977215 0.50995463 0.08509785 0.9089582 -0.21546295 -0.5023937 -0.23826662 1.7637216 0.15499552 2.6278958 -1.2708945 0.29552495 -0.5790121 -0.43888614 -0.57906985 0.31318232 -1.9505522 0.28091586 -0.056108933 -0.02952898 -1.3697046 -0.036625866 -0.38329893 0.15781128 -2.0170841 -0.12416572 -0.68399554 -0.478634 -1.1727259 -0.3035263 0.83578897 0.22210501 0.61523104 -1.1239442 0.5533064 0.58230364 -1.2439727 -0.23800865 -1.238451 -0.14901713 1.1479487 0.22017238 0.099559605 -0.13143006 -0.2600827 -1.3040286 -0.048736546 -1.5205159 0.9558128 -0.87996376 -1.5306917 0.6202096 -1.7701869 0.15903266 0.60372865 0.007852274 -0.71338856 -0.7719577 -1.2736645 1.2399619 0.934508 -2.0331745 0.050398894 0.52112967 1.3603059 -1.6179597 -0.5782887 -1.0730525 1.4715225 0.47372162 1.1711402 0.31658855 -0.94863975 -0.99773085 -0.62037283 -1.0749698 1.7995949 -0.7161799 -0.51080084 0.95963424 2.6291137 0.34744442 0.4299495 -0.15203655 -0.18678395 0.64105886 1.3792884 -2.2959971 0.094330534 0.7703661 1.0234135 -0.47147456 1.094509 -0.37329152 0.83896965 0.37779814 -0.42585874
放 0.8562481 -1.2083865 -0.6723409 0.23426098 -0.53049666 -0.78060865 0.018704396 0.08531016 -0.30577824 -0.43042853 0.22963604 0.8428941 -1.1442516 0.59948677 -0.38783848 0.31179094 1.003542 -1.0426865 0.80308807 -1.1498196 0.11640137 -0.21676214 -0.007764982 -1.2938162 0.08876481 -0.6509359 0.61019075 -0.48762938 -0.16843097 -0.358755 -0.14144059 0.30128053 -0.14983737 0.065342404 -0.22661914 -0.4911841 0.19419266 -0.14853235 -0.36191955 -0.1425035 -0.67694443 0.07183591 -0.74794483 0.6981209 0.518778 -0.08231635 -0.4079202 0.10299016 1.1710571 1.3537784 0.4325084 -0.14470683 -0.8120644 -0.62416315 0.8425354 -0.27720526 -0.90530336 -0.17875719 -0.09112523 -0.4522214 -0.8305987 0.2616192 0.7293171 -0.34767362 0.34251526 -0.5558003 0.28864145 0.72499114 -0.5983912 -0.61282086 0.19919811 0.27232975 -0.13875872 -1.2974503 0.69783986 0.25230026 -0.3714681 0.17383529 -1.2949814 0.20116271 0.21201043 -0.2546316 0.5915114 1.1795868 -0.80046874 -0.21600565 -0.04489246 0.14631325 0.092827655 1.5491235 -0.04915267 0.52528495 0.61551225 0.42989028 0.40146622 0.27054796 0.77838296 1.0352744 0.40136725 0.28080308
年 2.6441407 -0.020563241 0.82645375 -1.7694807 0.03316294 -0.7411703 -0.37155327 2.22865 -0.42281124 -0.7316372 1.6254191 -0.8344661 1.0362937 -0.92264926 -0.33940545 1.4452275 1.0594133 -1.152785 -0.23957857 -1.2413404 -0.7689723 -1.9886814 1.008327 -1.4814395 0.28141618 0.25717396 -0.68468183 -0.04118171 0.4818563 0.58815557 0.063724965 -0.66982734 0.15510689 -0.6381377 0.46834403 0.053077977 0.7960336 -0.26122546 -0.08073448 0.074429795 -0.31073013 -0.2016225 -0.83908504 0.69430554 -0.5056194 -1.9924109 -0.6419508 -0.37714458 -1.4044447 1.106646 0.253442 0.2931709 -1.5013654 -1.3825164 0.5144339 -0.46796697 -0.84570014 0.1486484 0.5257486 -0.5154156 -1.3809369 -0.8870839 1.8658193 0.71835834 -1.7849112 0.6736543 -0.62652326 -1.092823 0.9330162 -1.1381605 0.23659565 0.5991243 -1.1776052 1.4834529 0.97508526 0.46781546 0.29320452 -0.30309632 -0.46272817 1.3541013 0.04714606 -0.14409979 0.30620173 1.0522975 -0.6572608 0.41672498 -0.21991816 0.85682446 1.8014673 0.8938928 0.7423062 -0.099733576 0.7011631 0.59258115 -1.2696333 1.1753417 0.7205139 -0.477641 -0.08493885 -1.0672708
一首 1.547663 1.6454989 -0.119239196 0.353644 0.6810582 -1.0378236 -0.43130252 1.8250495 -0.72460425 -0.71535367 0.9237772 -0.33850554 -0.16655223 0.5750996 -0.019294605 -1.2249491 0.19770662 -0.59783894 -0.20534335 -1.2182211 -0.80481315 -1.684227 -0.69351023 -0.98248667 -0.9681057 -2.0818543 -1.0413289 0.47239655 -0.5280263 -0.020314226 0.55411655 -1.4639835 -0.21919434 -0.53655666 -0.1907122 0.19861126 1.4670044 -0.21955705 -0.07022558 -2.1435757 -1.4708431 0.2580057 -0.35165188 0.55586123 1.0375764 -0.24110842 0.8328269 -0.25752825 0.034868408 1.024676 0.048322108 -1.011495 1.2508097 -0.5759184 -0.46720606 0.12936184 -0.3901771 0.20903732 -0.6755816 0.17030118 0.7900363 -0.282896 0.35481218 -0.35771084 -0.7983544 0.6862458 0.5836748 0.65189064 -0.09770777 0.8406994 -1.0582944 0.5674438 0.03368018 1.2122192 0.16899943 0.40358683 -1.0347463 0.5534658 -0.40883794 -0.4024971 -0.41162467 0.93897426 -0.97248626 0.65218437 0.8379392 0.38703543 -0.1553043 -1.1564008 1.7832309 1.5436664 1.6235642 -1.5986701 -0.043145873 -0.1504905 0.92668146 -1.1371317 -0.6449891 -0.6712273 -0.7866802 0.10494906
5 0.3007139 -0.5941199 0.7061548 -0.68598664 0.63044566 0.6805936 1.0362225 1.4245291 0.82644886 0.558779 0.056033917 -0.36313868 -0.4466082 -0.70137036 -0.9019331 -0.46374735 -0.6630539 0.13900375 -0.12723488 -0.52602845 0.40263146 -0.54147756 0.24902989 -0.069452934 -0.9000285 1.6970309 -0.018664584 -1.1705909 0.28382936 0.4489071 -1.6230416 -0.18060878 1.0170788 -1.1602175 -0.39530006 -0.2524933 -0.48263422 0.6812953 -1.0394789 1.2455388 0.80008125 0.24326503 0.9894439 0.90187865 -0.5398173 -1.6486714 0.6848224 -0.6121663 -0.49106568 0.11933272 0.61482185 0.14178973 0.4212789 0.097637385 -0.42120284 -1.4676266 0.06239499 0.3457729 1.1546819 -0.28271142 -0.023263 -0.012737795 0.4162449 1.5746737 -0.83350545 0.14170982 0.7313404 0.4882666 -1.3289473 0.29623812 0.6915794 0.31722012 0.055987444 -0.6417032 0.056267474 0.49591246 0.29520857 0.3412776 0.881514 0.48860213 -1.7245322 -0.139174 -1.2856987 0.42727742 -0.14667195 0.047796536 -0.23958814 0.4499115 0.16135167 -0.75315577 -1.2344252 0.80219 1.0534142 1.1671662 -1.1041806 0.9669235 0.93507457 0.59168303 -0.43526888 0.6458429
请 0.61976546 0.30653256 0.14903209 1.1352078 -1.1636109 -0.2323272 -0.08817501 -0.42199552 0.36023295 -0.3391125 -1.0458152 0.0753547 0.19369511 -0.41137746 -0.9138754 -0.07324284 0.20633535 -0.139109 0.12650152 -0.045683227 1.0838662 -0.114357784 -0.2532845 0.12356978 0.50636595 0.8340055 0.19349162 -0.6907992 0.12614352 -0.045332957 -0.27103278 -0.8531495 0.967976 0.35916477 -0.43935966 -0.05174869 -0.3346504 0.53577983 -0.40409276 -0.85255283 0.33109993 0.25494146 0.43073222 -0.34036306 -0.24725813 0.64837503 -0.8812685 0.18182917 -0.46982437 0.08069894 -0.22523189 0.14754866 0.20654827 -0.45374426 -0.7945694 0.6528719 -0.15565541 0.39078248 -0.8391638 -0.735623 0.06394139 0.9008187 0.63385326 0.08669523 -0.55991894 0.5340745 0.39020765 0.93513453 0.67763793 -0.14170767 0.7788411 -0.15249355 -0.5078964 -0.28316715 0.644961 0.61603814 1.1945953 0.5121406 0.00033046998 0.18498889 0.5048524 0.17625244 -0.6646082 0.5186023 -0.20634378 -0.68473047 0.98252994 -0.030213142 1.2161293 -0.5068014 -0.12114178 0.26030582 0.80729383 0.3632459 -0.53129303 0.9695277 0.5917608 0.32390448 -0.28927267 -0.19702524
查询 -0.10878131 -0.33776754 0.4953939 0.18491186 0.81769866 -0.304746 0.7838757 0.6707381 0.40713242 -0.6043497 0.743568 0.29696757 -0.04176801 -0.057566524 0.5507858 0.62940806 0.08369134 -1.3411174 -0.12027114 -0.78017235 -0.029606592 1.1735103 -1.2141083 0.63710654 -0.41412246 0.33938822 0.25807706 -0.1410836 0.45041382 -0.8212723 -0.84675235 0.7341511 -0.62010914 -0.27885133 -0.4786043 0.4429605 1.8935794 -0.13000022 -1.4179999 0.8364312 0.8420844 -0.39228326 0.6548063 -0.19711371 0.9308459 -0.04250462 -0.9851286 -0.5958264 -0.4193386 1.0982095 -1.0119087 0.6418075 -0.8839745 0.5426803 -0.74949133 0.23430005 0.23038657 -0.45706692 -1.1603643 1.4974719 -0.31147236 0.14913301 0.41397697 0.08235792 0.2884752 -0.105532914 0.015517263 -0.6098205 -0.2997664 1.1734303 0.1717436 -0.3301731 -0.08466455 -0.60045004 0.22907662 -0.2771644 0.3386204 -0.1490249 0.4286923 0.45862034 0.20566377 -0.31372538 0.41747972 -0.9456507 -0.4362277 0.59102714 0.5748315 1.7460071 -0.28313127 0.0726237 1.9146525 0.90948033 0.20761363 1.2457767 0.9157008 0.92814815 0.9163151 0.5330819 -0.33787644 1.0858918
空调 -0.77789116 1.1881502 0.6126768 0.55213106 -1.753852 -1.2859564 0.6101601 0.91043645 -0.71335 0.048409034 0.35480365 -0.7111351 -0.5173797 0.772609 -1.2981027 -1.6615989 -0.15523124 -0.5141205 0.22618757 0.35389045 0.15276341 0.7882324 0.1647338 -0.09894293 -1.2361684 0.9058749 -0.30091435 0.25763735 0.91654974 -0.036433697 0.06258436 -0.37663385 0.47489256 0.57809895 -0.43032405 1.4224722 0.51410913 -1.8964833 -1.5246958 0.60890394 1.6262156 -1.4942993 -0.24642082 0.04130215 0.994604 0.24788882 -1.4648798 -1.441676 0.332785 -0.8759406 -1.0983548 -0.5326986 1.2452084 0.06946168 -0.5581414 -0.511386 0.73173726 -0.8488706 0.7478633 0.88806444 1.09871 -0.05252336 -0.63960284 -0.33947274 -0.76555675 -0.4359509 -0.503991 1.7818009 -0.97109276 1.3965123 -1.1112124 0.51409763 1.0396254 1.204604 0.7238307 1.5250779 0.20670354 -0.5612502 -0.06322803 0.9740131 -0.8123496 0.67726976 -0.8011407 1.6008952 -1.0144279 0.42352897 0.18616726 -1.2264057 0.060704462 1.41705 0.06545787 -0.0888595 -0.15257533 -1.4070565 -0.65791714 0.15274714 2.1909792 1.3497347 0.85582817 -0.34465596
农历 0.2962265 0.9851548 1.1148963 -0.3351196 -0.7494722 0.4374071 0.495339 0.673283 1.5695322 -0.42865595 1.17061 -1.2546042 0.61504805 1.4099182 -1.9830605 0.8380321 0.6549606 -0.48836035 -0.7157745 -0.8212185 0.36229777 0.2286374 0.23468663 -0.12883694 0.4693772 0.79446465 0.7171959 -1.552521 -0.14941223 -0.13219249 0.7784931 0.41095102 0.62021136 -2.3582747 -0.77292365 0.88854575 0.9938107 -1.2270517 -0.9431388 -0.2785188 1.0404186 -0.825933 1.5161395 -0.9751642 -0.014639235 -0.6429234 -0.7393011 -2.1061149 -0.34119642 -0.2677555 0.2350751 -1.0064697 -1.2402803 -0.21553111 -1.7043912 -1.5482557 0.653899 -1.7186078 -1.2334602 -1.2776419 -0.15157515 0.011704199 0.6851234 1.9821229 -0.94957644 -0.09091461 -0.16351435 1.1134264 -0.43503615 1.2922131 1.9650948 1.1003994 0.2067307 1.2219003 1.2849414 -1.2276137 1.6513717 -0.21529262 0.2845445 1.554104 0.11024265 -0.031021541 -1.3862678 0.8776588 -1.1231877 -1.1086746 -0.33158368 0.30728194 -1.3328367 -0.20548922 0.42381173 0.4296693 0.970721 -0.7230363 -1.9280913 0.9579857 -0.5645101 -0.16585459 -0.60385096 0.07979111
闹钟 0.83793557 1.309383 0.86220926 -0.80209213 0.3157246 -0.68665737 2.2435439 -0.7253955 0.8956671 -1.4977745 1.3324578 0.10398662 1.3353728 0.5794223 0.16910866 -1.4464664 2.049463 -0.74877393 -0.34810123 0.7516853 0.3713738 0.56968325 -0.25838315 -1.4568152 -1.2948061 1.4106919 -0.35427344 -1.6489724 0.41052845 1.4115453 -1.571728 -0.14421335 -0.8254333 0.43898112 1.1135861 1.2299185 -0.9392868 -0.69806373 0.29801777 0.9488524 -0.68306637 -1.7244962 1.9553497 -0.9318083 1.1872486 -0.8935178 -0.25732657 0.12258272 0.16849044 1.1880546 0.72105545 0.8905341 1.0387124 0.30810657 -0.7860489 0.40922213 -0.25015783 0.7919038 1.45188 0.20169665 0.41979825 -0.6867984 0.44006184 2.6607847 0.979355 0.76113325 -0.9025964 3.1699028 -0.35686436 0.23249088 1.5309439 0.5789972 0.67132705 0.21999075 1.5697974 0.5999291 0.41998613 1.514236 1.2174349 1.7248296 -1.1838429 0.58951145 -1.2411165 -0.5101184 1.4484249 -0.6372268 2.061446 -0.17835045 -1.5433977 0.19515285 -0.2578646 -0.11059424 1.3635728 0.12152406 -0.06919275 0.5776679 1.2830815 -0.2904142 -0.49646232 -0.30714822
我要 0.95442307 -0.99884015 -0.0032773037 0.14113678 0.46746984 -1.3570946 -0.07847976 -1.3561918 -0.17122126 -0.77022094 -0.6115096 -0.642371 0.59590334 0.8079199 0.96588904 0.031720523 0.82601386 0.78412896 0.23893568 0.6794914 0.184209 -0.41724983 -0.89539427 -0.96131676 0.28328827 -0.75603557 -0.6765687 0.18117319 -0.1485451 -0.39346075 0.3500918 0.0044014794 -0.9863169 0.54100996 -1.0579163 -0.13595322 -0.26001307 0.08700521 0.36868614 -0.92031956 -0.12632723 -0.5881042 1.1771215 0.57853067 -0.5704409 0.55252576 -0.2558545 -0.3128297 0.48306093 -0.08301698 1.0424277 -0.22631878 -1.1409365 0.20852657 -0.5106168 0.32680503 -0.16697194 0.89434963 0.0376408 -0.22788048 -0.05255122 0.6819305 0.3383024 -0.075506575 0.023571258 0.5472736 0.5117334 0.44591296 -0.3293131 -0.1132887 0.43681562 -0.037773527 -0.20752522 -0.46892306 1.073077 0.79432654 -0.113507755 0.3965828 -0.99122083 -0.28462315 -0.10250284 0.6902688 -0.5945063 0.09164438 0.48379827 0.012676529 0.27700433 0.35499895 -0.4221919 -0.06695997 -0.3519968 -0.25086886 -0.3014031 0.6440971 0.6915325 0.6527326 0.26354283 -0.29122993 0.64287096 0.058158252
打开 -0.79990387 -0.4732236 -0.29430917 -0.11191055 -0.61115897 1.1966228 0.35228458 -0.020145303 -0.18361476 -0.32393578 0.1790828 -0.2530176 -0.28693777 0.24631195 1.4576212 0.5999144 0.7500399 -0.553483 -0.8406626 -2.1870766 0.08088597 0.7385472 0.5287687 -0.5251472 -1.0658952 0.09063727 0.527902 -0.118177675 1.8563558 0.9291788 0.38700148 0.18558143 1.1204536 -0.597376 -0.45781708 -0.058111317 -0.06107692 -0.13614713 0.11393927 -0.8460905 0.7947503 0.4593621 -0.28799653 1.3142368 -0.046011396 -0.6081516 0.2081567 -0.32528523 1.3984189 -0.10895136 0.81217545 0.010212195 -1.0869766 -0.12362168 -0.13373469 0.033414196 -0.96226656 0.17920062 0.36884192 1.5255778 -0.41050088 -0.84257096 0.22272143 -0.495573 0.5317134 0.6225827 0.11670138 0.5471808 -1.8867012 0.3884179 0.13335238 0.49839646 -0.15998326 -0.6617631 -0.033470083 -1.1711603 0.36672872 0.060339857 -0.0016731247 -0.61619776 -0.7765967 0.04910833 -0.846165 -0.0072880345 -1.0257242 -1.1372724 -0.6478159 -0.63287336 0.335191 -1.1880449 -0.43145534 0.15128767 -0.75129324 0.18537591 0.92131245 -0.6175784 0.0857377 -0.07307201 0.8773357 1.3736362
下 -0.9382956 -0.04773933 -0.3648285 1.0460281 0.88408256 0.95106745 1.6527947 -0.6262844 0.45506153 -1.077394 0.5992762 0.0074226307 1.3693212 -0.022237755 1.0919756 0.35562238 -0.76116234 -0.13174771 -0.8428846 -1.37878 -0.014619741 1.1193826 -0.22944975 -0.039384328 -0.12949188 -1.2508808 0.23638637 -1.5697814 0.8029349 -0.95969516 -0.2554725 -0.3088545 0.42139292 -0.6474827 0.07756768 -0.23443848 1.3507626 1.1166381 0.118576325 0.26032078 0.18813615 0.5846748 0.083268546 0.7054261 0.38930467 -0.7124448 -0.89646095 -0.4732422 0.60390997 0.06286414 0.3055706 0.37618068 -1.2401232 -0.9107278 0.6895725 0.45278406 0.21209428 -0.78833354 0.05184401 1.1666526 0.041807547 -0.257257 -0.33331114 -0.03203974 -0.039342444 0.37993968 -0.5037212 0.19972745 -0.7011819 -1.1568624 -0.19830944 0.102413915 0.49363145 0.79291606 0.8729404 -0.28994375 -0.24935491 0.2366541 0.24216093 0.51190907 -0.77643293 -0.7338357 -0.6173629 0.19212519 -0.37318254 -0.16366267 0.39095578 0.4139354 0.41847846 -1.0510432 -0.9190891 1.14228 -0.8278101 0.7243474 0.60303724 0.5812591 0.33596402 -0.52717793 -0.26270184 0.17115723
日 0.1603377 -1.2634165 1.2998515 0.70671797 -0.33764493 -0.042103097 -0.619323 0.86715406 0.5072664 -0.0663517 1.5951829 0.4742289 1.3209759 -0.9551303 -0.71266925 -0.8977103 0.048952576 -0.7394382 -1.7492648 -0.833542 -0.96099764 -0.8221573 0.5270523 0.08559946 -0.26132888 0.86367726 -0.29298833 -1.0764694 2.0143006 -0.13353507 0.3533385 -0.033440635 -0.0965584 -0.5987546 -0.6694602 -1.4209503 -0.31314343 -2.9351475 -0.3172758 -0.060553677 1.6965656 -0.63877165 0.36511567 -0.6389757 0.30274525 0.22915849 -1.5856146 -2.1246822 -1.0615349 -0.18117979 0.19143786 0.55784726 -2.218725 -1.0973326 -1.2187378 -2.6659296 0.022882681 -1.6680101 -1.823974 -0.7912819 0.7483435 0.30465272 0.020703847 0.57964504 -2.1677117 0.3063181 0.8163238 0.30809492 -1.1633656 -1.280535 -0.086918786 0.56391805 -0.7390905 1.1834018 1.5899053 -0.28339195 0.08415795 0.9121626 -0.5363105 2.2464087 0.208197 -1.1625515 -0.19480495 0.5322744 0.24370553 -0.80793387 0.71775913 0.9043653 -0.95196414 0.3898744 0.42010516 2.2842624 0.15104268 -0.40228724 -1.7359486 1.3188919 -0.4731727 0.6148823 -1.192387 0.22600892
告诉 -1.2779264 -0.053789925 0.8441008 0.35198468 0.6038809 -0.95892394 0.06331899 0.29328412 0.39955804 -0.4937964 0.47653168 -0.10100481 -0.7868784 1.5266104 0.13740417 0.5980538 1.5538138 -1.0546846 0.5715743 0.18320774 0.5932322 0.91349024 -0.95518744 1.0878376 0.7721416 0.5915454 -0.4135765 0.06139816 -0.3237119 0.7704574 0.10080483 0.33535224 -1.2042304 -1.3540068 -0.5313554 1.2979637 1.1267638 -1.0839565 -0.5325323 0.77497846 0.10543903 -0.22085615 0.6437491 -0.35948285 0.28614977 -0.8884403 0.30461887 -0.61270046 -0.0075943493 1.4578459 0.43790874 -0.3768248 -0.83690166 0.8630342 -2.2345912 0.05650129 0.5515509 -0.77418405 -0.42566535 0.48939365 -0.5091843 -0.075889945 -0.050063487 1.4867549 0.17522496 0.4468757 -0.56570286 -0.45309243 -0.19193512 1.7991784 -0.25128937 -0.16904832 0.10246731 -0.34738424 0.051406555 -0.63800853 -0.64932877 0.42877075 0.11000595 1.0163116 -0.45262417 -0.2013407 0.70263606 -1.2905596 -0.33150315 1.0698341 0.2750207 1.018169 -1.0371557 -0.39826593 1.3112854 -0.75976443 -0.47779244 1.1392177 0.5243601 0.5246159 0.54779124 0.2292149 -0.8569837 0.65770197
10 -0.44671336 -0.77060336 0.36621487 -0.4211555 -0.47051343 -0.4802486 0.33420378 -0.31377104 0.39055845 -0.30747104 -0.65210855 0.49838656 0.5972358 -0.29454893 -0.2341094 -0.4523996 0.11568534 -0.033338055 0.447131 -0.544604 0.6936875 -0.11596097 -0.9871092 -0.4606857 -0.3049744 1.1140354 0.41578048 -0.55998605 0.23793377 0.5776178 -0.533502 -0.7100105 0.20281309 -0.5283616 -0.26647323 -0.5196308 -0.07906905 0.41106915 -0.1406743 0.93696386 0.583501 -0.0875971 1.2965971 -0.2488366 1.2971835 -1.5545173 -0.2730451 0.90881383 0.14004932 1.1125542 -0.77784055 1.0745475 1.2320051 0.44098184 -0.38354436 -1.0273359 0.9351312 1.2878071 1.5938486 -0.14166178 0.6071293 -0.9394951 0.66323453 1.8114058 -0.27549064 -0.60910416 0.24678451 0.73160166 -0.25857744 1.8367593 -0.75462765 -0.14257085 -0.09241326 -1.0766568 0.5484442 -0.07032318 -0.110081956 -0.2858406 0.18469897 0.61005783 -1.8817165 0.78512454 -2.1870482 0.3737888 0.21608804 0.09459394 0.019765416 0.73478204 0.69786286 -0.1875257 -1.9749818 -0.5083616 0.4910691 0.71443653 -1.1682458 1.7020229 0.37247485 -0.74530023 -0.5460565 0.19604789
下午 -0.5264558 -0.41053474 0.58891237 -2.1223593 -0.4301517 -0.19493619 1.6458799 -1.5379515 0.41183117 -0.31217337 0.71352845 1.2995903 1.0901908 1.3508121 0.15182702 0.7074212 0.44558305 0.37394905 0.14343444 -0.1907175 -0.23041813 0.6928944 -0.68940175 0.53076696 -0.94401497 0.26748985 0.56518847 -1.7264736 0.37080732 -1.175675 -0.5272463 1.5760063 -1.016603 -0.92972434 0.75369924 0.41048872 -1.1405319 -2.283208 -0.15475719 0.13958476 -1.2541852 0.22814372 2.2627814 -1.1274141 1.3480266 -1.4988142 -1.1493886 0.2569409 -0.14570548 -1.4565654 1.8250259 0.86037457 0.45748624 0.7974161 0.2790792 0.08746461 0.7266695 1.7838569 0.7024765 0.34458664 1.2754052 -0.85974526 0.30042806 0.3829111 -0.54846245 0.68023896 -0.86774844 -0.20500559 0.024259508 1.7283317 0.28614983 1.3869351 0.53620535 -0.7721354 1.7310169 -1.7885056 1.6609986 1.2378525 -0.5409319 0.6314087 -1.1842016 1.097445 -1.7216678 0.8431432 0.9044634 0.7412036 1.5101979 0.282781 0.11050598 -0.36817336 -1.0356306 -0.46938947 0.28220248 0.4767269 -0.94771 -0.027309993 1.6432797 0.1977193 0.11637218 -0.7785723
歌曲 2.5293863 1.2176459 -0.86694175 -0.569675 -0.019354893 -0.98890543 -0.22022705 1.9588637 -0.9040761 -0.037332676 -0.6185398 -0.33484167 -0.35994932 0.41060996 -0.5272136 -1.2830878 0.87838066 -0.06677541 -1.9209008 -1.4106935 -1.1417525 -1.3808959 -0.11922792 -0.8338549 -0.5483895 -2.4291086 -1.1632059 -0.14702648 -1.4766916 0.9569941 0.06892783 -1.2835256 -1.0726835 -0.84685576 0.055124506 0.42856982 1.050763 0.3001844 0.17259417 -1.4145579 -1.0200558 -0.37991193 0.42913738 0.9634153 0.81365013 -0.7623555 -0.6869309 -0.5509232 0.0013543329 0.018649658 -0.22744434 -1.1255316 0.15696329 -0.78798497 -0.120560564 0.269391 0.06755486 -0.97167534 -2.2703958 0.737718 0.6163814 -0.8185232 0.37079424 0.35178882 0.7233162 0.4476456 0.66191083 0.28410414 -0.7419478 -0.7689827 -2.1186116 -1.5992706 -0.13514575 0.13551421 0.0867026 -0.30591774 -1.2255656 -0.15835734 -0.6312588 -0.7312626 0.5628466 0.50276417 -0.9174846 1.8056608 -0.9200386 0.8795252 0.0741675 0.3418749 1.319648 1.4794688 0.77706987 -0.13223255 1.641096 0.18826698 0.72225815 -0.09867656 -1.2105794 0.06625928 -0.44069093 -0.40305597
收听 -1.6967071 -1.7220895 0.40859085 -1.0069374 0.77046984 -0.96571374 -0.03345443 -0.2068286 -0.06506701 -0.62947285 -0.061123736 0.53201723 -1.7217648 1.7662531 -0.90176773 0.41443777 0.57104015 -0.80093896 0.12884633 -1.9566579 0.8763178 0.88945985 -0.7647923 -0.56671554 -0.18735291 -2.0073376 0.65219533 0.23557042 -0.33387873 1.4996552 -0.25682652 1.5961925 -0.39603767 -0.30874807 -0.36658427 0.70179063 -2.2790852 -1.2111129 -0.63155806 -1.134121 -1.3273091 -0.22272077 -1.8380917 0.413854 0.7345618 -1.1674584 0.8050305 0.9923517 1.2615364 0.8347335 2.4158487 -0.58869696 0.8933134 0.6753087 -0.6822605 0.8341944 -0.89591324 -0.22654271 -0.5601217 0.21189131 -1.0571089 -0.51887476 0.15467156 -0.56814104 0.05421042 -0.17610157 0.78867036 0.5363607 0.1077573 0.024773747 2.0736508 0.0875452 -0.16612354 -0.9651665 0.59775937 0.02581396 1.2672083 0.67972404 -1.1733874 -0.73670405 -0.23664638 0.63572997 0.20152588 0.11395174 -1.6595768 -0.56226265 -0.40105504 0.29074478 0.69500995 2.8030243 1.5765796 0.0061911847 0.10435709 0.64705205 0.41522676 -0.4340283 1.3013754 2.4729817 -0.19511284 1.1074066
频率 -1.4747453 -0.7668253 0.38497078 -0.111383796 0.9647799 0.44047365 2.414241 -1.7892851 1.495517 -1.0608858 0.36087194 -1.6110487 -0.5469962 1.4991554 -1.3510525 0.24890766 1.1371734 -0.61531126 -0.12328763 -0.7145351 -0.69795924 1.8335018 -1.42817 0.5675877 -2.392214 -1.9483207 -1.0157392 -0.91194195 -0.31396082 0.89274174 0.9535474 1.2769097 -0.87329847 -0.36583778 -0.8627506 -0.24150105 -2.029199 0.062155377 0.46323213 -1.7962471 -2.3558311 -0.26387477 -1.3388389 -0.2946515 0.36444676 -1.246413 -0.25501728 0.36926055 1.0941396 -0.78110135 3.0251508 -0.6200235 2.4593105 1.0836734 -1.6897646 3.0720956 0.852782 0.7399349 -0.6102782 0.8763005 -0.95201766 -0.26872224 1.038274 0.32687598 -1.5812879 -0.5587108 -2.0508497 2.5260515 0.050275218 0.8301291 3.1783152 1.0224155 0.8563628 -0.49958783 1.4512409 -0.9892993 -0.46639645 0.13664816 -2.6624396 -1.2369889 -1.0769312 0.3305842 0.8736581 0.10576308 0.1451376 -1.5286348 -0.77492523 -0.0341819 2.022343 1.5245318 2.3643026 0.804305 0.23162305 0.69142884 1.043108 0.9779729 1.9917997 1.8457693 -2.3879204 0.60232776
几号 0.9553878 -0.6509675 0.62895256 0.9889328 -0.98547196 -0.2816503 0.434344 0.08275499 0.6667295 -0.2824563 -0.29167038 -0.5015321 0.9114038 0.98459536 -1.359438 1.2816007 0.8210068 -1.4502512 -0.5332726 -0.8075228 1.4335605 -0.106247485 0.9182574 0.6017508 0.9989022 0.9613203 -0.4729847 -1.4236609 0.23536696 0.8862778 0.7575556 -0.20446503 1.7177513 -2.0595753 -0.30445513 0.66025466 0.35401773 -0.4844762 -1.5477619 -0.5983663 0.20946433 0.5601648 0.92982864 -1.1560512 1.2413895 -0.65830153 -1.1992978 -2.4536195 0.5944673 1.1815943 -0.81925386 -0.16152716 -1.366981 -1.0828077 -0.9640136 -1.4519953 0.3718247 0.14290762 -1.1202607 0.27394223 0.5213327 -1.6692523 -0.025713813 1.4818953 -1.2391461 -0.40638345 -0.044894706 0.36110774 0.13799262 1.4324905 0.8626333 -0.44109818 0.7770353 1.5618494 0.9597772 -0.8976213 0.4406769 -0.16839217 -0.6672531 1.273302 -0.44008395 -1.0291369 -1.3665252 0.95491153 -1.3667318 -1.0119513 0.943674 1.3609775 -0.8424154 -0.6322947 0.59540534 0.97042525 -0.27951434 -0.87726164 -1.8739867 0.2651639 -0.7396171 -1.549028 0.78584796 0.48493207
9 0.08693504 -1.7990613 0.48920247 -0.63883096 0.6316476 -0.33556563 0.29997578 -0.6829734 0.33792722 -0.008323308 -0.50116515 -0.06609145 -0.05223199 -1.2526268 -0.51547414 -0.20634227 -0.12328696 -0.7023394 0.056579802 0.1160882 -0.0137773715 -1.0672661 -0.44228023 -0.46058494 -0.6386597 0.80987996 0.35874817 -0.8805691 0.40750027 0.30602893 -1.0541192 -0.56474435 1.3321799 -0.73794365 -0.16293854 0.102446005 0.07497687 0.6405043 -0.9248291 1.4508502 -0.23196842 0.21279742 1.3984733 0.4986329 -0.14133872 -1.9625069 -0.2808632 1.2342792 0.36853445 1.1638242 0.39289063 0.17188817 1.3757964 0.1095302 -0.3248659 -0.15607268 1.3558784 1.175531 1.7647182 0.3389937 0.7227855 -1.1107401 0.9799508 2.078329 -0.0672274 -0.11713425 0.012131144 1.051392 -0.8427899 0.6688147 0.6492557 0.3898225 0.5189628 -0.36585367 0.60407144 0.42789012 0.968124 0.027317213 0.098175615 -0.3464236 -1.9290644 1.146285 -1.9206551 0.25822392 -0.96579325 0.120430544 -0.21864308 0.3811064 0.5384876 0.058575407 -0.63267905 0.18320878 0.5313171 1.3127218 -1.5796293 0.81342155 -0.21963006 -0.70299864 -0.62452817 0.50409997
7 0.8481961 -1.7234315 0.39375588 -0.47583842 0.8675797 -0.5723534 0.50484085 0.2545143 0.7893053 0.025417367 -0.30439943 -0.21618238 -0.5010288 -0.6580874 -0.7913904 -0.51211035 -0.18614912 -0.40700155 -0.072060265 -0.0012200384 0.6751451 -0.8912225 0.05429338 -1.0697504 -0.14500685 1.044626 0.36051968 -0.82189965 0.117225096 0.14933692 -0.5265281 -0.6319151 0.69710344 -1.4062823 -0.2776045 -0.29952762 0.035786588 1.5895547 -0.62264127 1.7643054 0.16723403 0.27364406 1.7250547 1.0833534 -0.26873615 -2.4239218 1.0649958 -0.32117632 -0.9029477 1.027047 1.3888869 -0.089132644 1.6495041 0.11239419 -0.54891366 -0.29896826 0.80437785 0.54999584 1.5663465 -0.55937386 0.8570109 -1.6029614 0.7819455 1.4827222 -0.013966342 -0.5255441 0.19399351 1.8013396 -1.1638547 0.7178545 0.046602607 0.17532063 0.12351316 -0.78173316 1.0037442 -0.089249454 -1.1443046 1.3419578 -0.6924193 -0.12517214 -1.6867754 0.3290374 -2.0217528 0.61479586 -0.77631235 0.40347025 -0.089197166 0.23075683 -0.40457445 -0.111423425 -0.46877167 -0.4911635 1.06248 1.4488374 -1.3336661 0.7760658 -0.3696346 0.19089857 -0.50532436 -0.023757258
电台 -0.40015337 -0.9186812 0.08974101 -0.5881976 1.0798906 -0.19361672 -0.16167656 0.6170459 1.2034926 -0.20629877 1.0592207 -0.41433987 0.5057315 1.1373061 -1.0847166 0.58780086 -0.56625473 -0.5879153 -0.078691825 -1.5372938 -0.5631651 -0.22931096 -0.3838602 -1.1177351 -1.217347 -1.9395607 0.13745853 0.049219742 0.51086193 1.7694011 -0.45203316 1.1735723 -0.12108701 -0.8347721 -0.06664882 -0.059703033 -0.6094423 -0.7419387 -0.28270304 -1.0694848 -1.7295452 0.10023487 -0.16915548 1.2441252 1.9493085 0.016106017 -0.0057654395 0.80331457 -1.1421876 -1.0249815 3.0446405 0.11866199 1.6565181 0.5502006 -0.63943774 1.2309662 -0.26208705 -0.039149843 -0.5325456 -0.22215796 0.13542677 -0.19107261 0.3517107 -0.6971563 -0.32765767 0.08455231 -0.25062504 0.6495296 -0.15427025 -0.9017466 0.9599153 0.5392442 -0.23641284 0.5927399 0.978936 -0.81633323 -0.061535943 0.69002146 -1.4334399 -0.15364827 -0.1755007 0.59921736 -0.35327703 -0.035461623 0.85057944 0.12948292 0.24860106 0.40618244 1.8630378 1.8837879 1.6382642 0.84722936 -0.5965066 0.5276542 1.8351238 0.39148197 -0.17235564 1.8219768 -0.65432966 0.085981384
电视剧 0.40541708 -0.08680202 -1.691477 -0.60864913 -0.59444994 0.49235377 -0.09009459 1.3318895 -0.4515603 -0.7265132 2.5341427 -0.08723128 -0.41443637 -0.29692295 0.49473193 0.02253407 -0.99470204 -1.0026518 0.26945537 -1.1626432 0.48626035 1.4343846 1.2341949 0.06229253 1.597585 -1.5736637 0.939798 -0.4094323 -0.41020247 -0.20559321 0.15209046 -0.81432664 1.3651228 -0.7742632 1.2164817 -0.49513742 -0.8016748 -0.2287241 1.1105096 -1.5023825 0.6518235 -0.27745616 -0.26227185 0.15009905 -0.6956423 -0.3868574 0.45520562 -1.4780803 1.0348034 0.9586646 -1.2227505 -1.1853871 -0.6092583 0.66159415 2.3191745 -0.30501094 1.2005132 -0.124257885 -1.9376811 1.0311832 -1.3032078 1.5234646 -0.6237312 0.73826903 -1.1738787 0.8784466 0.7949929 -0.49836951 -0.9894196 0.7826144 -0.5607598 0.25872147 1.2541852 -1.2497704 -0.6375878 0.3912077 0.22049068 -1.7538058 -0.76578313 0.19139934 0.7526683 -1.1643152 -1.7907815 1.6930324 -0.5595044 -0.1794115 -1.2392472 0.20598835 1.7130412 1.776899 -1.4465109 1.0357707 1.423538 -1.0159215 -0.029862124 1.0469819 1.5599273 1.2330775 0.22491354 -0.48863736
随机 0.9284623 0.94760126 -1.596817 -0.3146735 -0.32111996 -1.1091777 0.33431956 2.5549295 -1.1797485 -1.1593752 -0.5693464 0.21721058 -0.5870434 1.3312967 -1.2060125 -0.35447466 -0.2103617 -0.7372444 0.38440216 -0.9905097 -1.2048742 -1.2088299 -0.35145462 -0.89495707 -0.6049541 -0.18572994 -0.7247497 -1.3325381 -1.2394695 -0.08911925 0.66898185 -0.83923036 -0.02880501 -1.2672833 0.021427125 0.693109 0.68511033 0.12887518 0.8471323 -1.2153051 -0.25591066 -0.14371164 -1.1781262 -0.0520837 1.656796 0.4374766 -0.58683664 0.37487426 0.41457286 -0.5830287 -0.23538266 0.2622418 -0.33295423 -0.7090253 0.9862411 0.33096313 -0.83790785 -0.22894052 -0.37228528 -0.3020665 0.05175701 -0.07992833 -0.2167314 -0.24753657 0.009714191 0.6638197 -0.13343883 -0.7854607 -0.3170435 -0.1837708 -0.74089515 -0.8303369 -0.49026516 0.33775416 0.62025523 -0.46363586 -1.0447894 -0.2697587 0.455605 -0.062017463 0.7952116 -0.46449986 0.6129328 0.63300616 0.6176473 -0.1456815 0.2817281 0.122084975 2.1612124 1.3402857 0.9562789 -0.33962974 0.6325808 -0.40342426 1.1081856 0.47862023 -0.33181697 -1.4758172 0.62317705 -0.3427132
星期 0.92968816 0.3437161 0.16909891 -0.5317851 -1.1010035 -0.23168184 -0.7799441 1.3454278 0.65360457 -0.46665174 1.0209807 -1.6529627 1.007836 1.9102024 -0.93219775 0.13186519 0.41977036 0.2707293 -1.1930234 -0.88239276 1.3227477 0.03600626 -0.5513753 0.52887785 1.1908287 0.19451275 0.934343 -1.5395037 -0.5131182 -0.3191618 -0.95474494 0.020424394 0.65527 -2.4352088 -0.37729868 0.8017087 0.6023375 -1.4845551 -0.69087774 -0.60242933 0.91137546 -0.43664655 1.1762155 -0.9367219 0.18630977 -0.14905223 -0.19607554 -1.7488205 0.15966125 0.48791873 -0.88949966 -1.1763191 -0.91431147 -0.539408 0.00044678216 -1.791843 0.33067638 -0.9331506 -0.27710986 -0.75003654 0.59189224 -1.0924013 0.41240528 1.3008229 -1.5220689 1.2147593 -0.09920993 -0.21453246 -0.91559404 1.5055531 0.77699775 0.6877815 0.2519144 0.7685327 1.4337113 -0.056974467 0.981419 -0.54547226 -0.30109328 1.440684 0.101227395 0.23308104 -1.3238813 1.0233462 -0.14206348 -0.58260417 -0.11789224 1.2142366 -1.3482003 0.86717427 0.22931504 -0.36838007 1.368122 -0.8552194 -1.6545558 0.59395415 -1.1849695 -0.5750323 0.06515092 0.32755202
电影 1.275284 0.59963554 -0.3382635 -0.519651 -0.84942436 0.32775766 -0.4676988 1.4322902 -0.11077457 -1.0101368 1.4954232 0.2952439 0.25429457 0.42577863 0.749703 -0.30834913 -1.1450791 1.0132148 -0.3795163 -0.4751662 0.34823823 0.37274635 0.5124622 -0.10852165 0.68267 -0.68621224 0.7981451 0.22457811 -0.46269533 0.85828793 -0.43571264 -1.4198016 1.9924618 -1.27484 2.206505 -1.246768 -0.4477224 -0.9793557 0.06299278 0.3673029 0.51430047 -0.13936721 0.40700313 -0.43267205 1.2542048 -0.40903687 0.76999843 -0.13588642 1.7440763 0.22147328 -0.40943724 0.22151409 -0.14555335 -0.6902993 1.2737731 -0.07826996 0.7209709 0.6245811 -0.61182964 0.11726842 -0.36379597 1.8547716 0.06994535 0.11912631 -1.7283293 0.43815184 -0.5466263 -0.4322301 -1.0768752 0.37948003 -0.6242287 -0.62733746 0.3649574 -0.2312909 -0.36985883 0.25726563 1.2682008 -0.3743745 -0.7868363 0.6568206 -0.5796385 -0.03589043 -2.275544 1.230902 -1.0657464 -0.8908552 -1.2058235 -0.5977249 0.5649744 1.0097928 -0.6911352 0.120596826 1.3059118 -0.24146172 0.20820937 0.16149795 0.85103893 -0.34165233 -0.15937692 -1.5213758
4 0.830526 0.116121486 0.29514042 -0.6168797 -0.18228008 0.34648797 1.4002937 0.97466385 1.1939911 0.3757517 -0.4114786 0.20438112 -0.064230084 -0.46355072 -0.850303 0.4513602 -0.91567796 1.1796712 0.24348171 0.026094357 0.09378942 -0.8539819 -0.8465461 -0.19132414 -1.8555646 1.188946 0.10249727 -1.7083192 0.17310394 0.464609 -2.172445 -0.4528594 1.0475428 -1.9609473 -0.9710746 -0.026615681 -0.32015872 -0.14399606 -0.19516812 1.0568191 0.325784 0.020349992 1.036666 0.44759172 0.0044857035 -1.8950047 0.6105495 -1.012009 0.11235056 0.030427864 0.6865933 -0.2789445 0.5925011 -0.34512648 -0.814657 -1.5252374 -0.097240105 0.66952884 1.3155993 -0.49895522 0.11651496 -0.35612524 0.18695825 1.4958483 0.23678301 0.33145025 0.6260597 0.36983308 -1.2264817 0.6621005 0.1836918 0.24748136 -0.34721455 -0.13716985 0.43201935 -0.1827916 -0.23637338 0.91016656 -0.018654587 0.8978325 -1.0739933 0.7653199 -1.4821697 0.1945519 -0.116776414 -0.08490035 -0.61428034 0.13830289 1.1187165 -0.59129703 -1.0170848 0.29441738 0.9494275 0.63629097 -0.27594215 0.9531866 1.2988892 0.5092147 -1.2015666 0.49844134
3 0.64816594 -0.050449762 1.2055292 -0.8395622 -0.5469581 -0.28088415 1.2186153 0.5883814 0.07164372 -0.2907613 0.3944133 -0.1653553 -0.0649972 0.18841413 0.48770168 0.59937334 -0.7895907 1.1250225 0.16178472 0.07849099 0.7173334 0.22084479 -0.37241703 -0.0743037 -0.56714475 0.93383384 -0.25705266 -1.5520064 -0.11996877 0.45797116 -2.044491 -0.11530574 0.9977587 -1.2742908 0.53005254 -0.5873293 -1.9204041 -0.019097766 0.13168074 0.7495097 0.50165856 0.32477376 1.0130359 0.9140029 0.54518574 -1.5503659 1.2530426 -1.2029808 0.05880066 0.39837766 0.3753458 0.6801082 0.79299366 -0.019525114 -0.97555953 -1.4771763 -0.13014197 1.0284442 1.0702714 0.26731113 0.25935942 0.7717142 0.97421455 1.1859579 -0.20316294 0.104458526 -0.11775273 -0.094987 -1.0181404 1.0324345 -0.16842943 0.036356345 0.04009811 -1.0598648 0.5407944 0.2858719 0.40231192 -0.16591129 -0.1357523 0.8550148 -0.7358502 0.34402663 -1.2201426 -0.61518544 0.092990346 0.14830597 -0.49280638 0.4288919 -0.08161566 -0.42049083 -0.62677485 0.08316965 0.45346826 0.4912058 -0.6960236 1.0002344 1.4420614 0.2734666 -0.4563981 -0.2671871
6 0.88176745 -1.4733728 0.88549006 -0.93304116 0.12442773 0.054871205 1.293523 0.25880677 0.5870765 -0.15730977 -0.7895867 -0.102620885 -0.57965523 -0.81114703 -0.8383394 0.18815985 -0.4232347 0.588066 0.46746108 0.54204196 0.34452444 -0.6117989 -0.41183645 -0.3367047 -0.69193774 0.74251914 -0.1805563 -1.1814097 -0.3381817 0.5107837 -1.6848513 -0.00094409654 1.0972235 -1.5944891 -0.06388124 0.09708073 -0.667864 0.27363268 -0.5901682 1.6231934 0.33154014 -0.024293825 1.1368505 0.8779517 0.053223383 -2.4858756 1.0344563 -0.046372965 -0.39013755 0.53495866 0.85981214 -0.30140576 1.4190819 -0.19474614 -1.1170783 -0.28770512 -0.0540846 0.8535826 1.7108443 -0.32631567 0.28298917 -0.44776154 0.85124916 1.9144131 -0.3669424 0.19237076 0.6321113 1.6831217 -0.71545845 0.5150162 -0.19542785 0.20972563 -0.098924346 -0.88406765 0.6131474 0.46153608 0.002789663 0.7722803 0.17265388 0.5599119 -1.0890735 0.37320822 -1.4818335 -0.17679396 -0.5481893 -0.34239116 -0.50295466 0.42681238 0.62463665 -0.42993492 -0.58523744 -0.43474773 0.36112314 1.5785636 -0.90772146 1.0771929 1.0095825 -0.0049562384 -0.88650024 0.4849674
模式 -0.9930605 0.61497515 -1.4490006 -0.99952406 -0.5838052 -0.5096404 -0.5627236 -0.34256685 -1.8462967 -1.4156159 -0.19816422 -1.6551194 -1.7160797 1.110576 1.1662271 -1.6569335 1.6581244 -1.1863002 -0.35173064 -0.6761206 0.42712417 2.4447014 2.0954363 0.0036632807 -1.3412597 0.95281005 -0.3833564 0.13613282 0.8282492 -0.4533063 -0.6347833 -0.55672485 1.8911538 1.0080788 -0.51831686 2.9787169 -0.45866135 0.10586743 -0.2952953 -1.2844276 -0.9532395 -0.62460655 0.77552706 -0.08238782 -0.03223255 0.12889999 -0.4766519 -0.8734877 0.2325478 -1.5474229 0.4418592 1.372582 1.5381551 1.9406943 0.049081314 0.95941275 0.75243217 -0.48262724 -0.09062661 0.64408404 0.67318135 -0.27636257 -1.7289946 -0.0031504903 -0.2363853 1.2870586 -0.2940566 0.7469487 -1.536815 1.3342716 -1.0176612 -0.32930052 0.32537717 1.0611459 0.47046325 0.68606395 -0.5710565 -0.99140686 -0.8969897 -0.53888124 -0.7408786 0.3992769 -1.2211876 0.3983673 0.8133247 1.1387792 -0.9600667 -0.7141202 0.07612296 -0.6409663 0.2129135 -1.0293471 -0.30149335 -0.95254105 0.99852264 0.47893077 0.08918032 -1.0042523 1.134835 -1.1941158
北京 -0.94105613 -1.078833 0.81655234 -0.22898714 -0.6119608 -0.9767596 0.1366968 -0.023228288 0.20492941 -0.44569048 -1.0106086 0.33982036 -0.15502483 0.36229593 -0.8320711 -0.3761396 -1.4015698 -0.44162482 -0.009487331 0.46832964 0.9063447 -0.3403478 0.0072182952 0.25307563 -0.05856552 1.850765 -0.17547032 -0.20367633 -0.5900622 0.34533033 0.16993333 0.92304957 -0.55970544 -1.1829852 -0.05464868 -0.45741212 -0.5448969 0.5683995 -0.34290546 0.43325046 -0.6635397 0.69550014 -0.7330586 -0.47852385 0.28546327 -1.2019314 -0.90363985 -0.4308932 0.41286868 0.035641126 0.55909145 -0.90804964 -0.02265785 -0.75732327 -0.20975175 0.4806732 -0.8038841 -0.12955981 -0.076130904 -0.024131292 -0.32233205 -0.5230297 -0.8809375 0.49209115 0.37899077 0.9145064 -0.13418914 0.23461711 0.5831445 0.54668784 -1.077818 1.0984604 -0.074873544 -0.43168804 0.43693832 -0.4775454 -0.53247696 0.56682545 -0.08174365 0.3309466 -0.83998805 0.94731396 -0.32361493 0.730988 0.1588179 -1.4636612 0.34332252 1.4318764 -0.4014721 -0.78259695 0.8766321 0.12747663 -0.12099618 -0.15615283 0.4997316 1.4652462 1.121182 0.642381 -1.4973891 -0.20688927
几月 0.25957236 0.7104482 0.40650707 -0.84677345 0.28348097 -0.58715475 -0.29920837 -0.22781847 0.97398216 -1.1182846 0.3954987 -0.581366 1.4019935 0.27779466 -0.14605576 -0.44936737 0.66984487 -0.8084067 -1.3808335 -1.6578752 -0.41049677 0.83593345 -1.2749101 -0.6443688 0.80148 1.4046273 0.90647197 -0.70530903 -0.52593666 -0.09213985 -0.59423214 0.51947755 -0.15061045 -1.4906372 -1.462037 0.59660465 0.19758038 0.2164709 -1.0957845 -1.0113397 0.36270285 0.19697453 0.9331035 -1.2674444 -0.4569387 -1.5522648 0.18811084 -1.7197058 0.3833687 0.97266424 0.4676942 -0.48417875 -0.86828417 -0.22200051 -0.75495267 -2.069781 0.7208399 -0.6230268 -1.3600475 -0.3199724 0.9565494 -0.8357971 0.44500652 1.2981077 -1.3924426 -1.1144557 -0.34663633 -0.93448114 -1.3380978 1.9638611 1.8285104 0.46632487 -0.055053934 1.411172 0.8682408 -0.61560994 0.6562524 -0.3009077 -0.31530076 -0.2900451 0.89688545 1.2057102 -2.3536234 0.47924984 -0.37505966 -0.2723053 -0.23482944 2.35217 -1.1837804 0.90878755 0.9832231 0.32880008 1.394107 -0.04065496 -2.3014004 0.6654886 0.29211533 -0.3035499 0.29389438 -1.0395752
8 0.82580966 -1.2367486 0.6016095 -1.3454306 0.5840214 -1.2013745 0.2491095 -0.41545373 0.2870105 -0.22155966 -0.21559821 0.15417404 0.06379622 -0.80041504 0.03812286 0.47632685 -0.4607397 -0.12367806 0.22479407 -0.11147269 0.06374234 -1.2421027 -0.31478912 -1.2828741 0.14402698 1.0996635 0.5339693 -1.25928 0.21617106 -0.139578 -1.2645507 -0.45202026 0.99785167 -0.9784093 0.029283728 0.22585315 0.04003041 1.2665466 -0.6595631 2.1068852 -0.010581923 0.54651076 1.9149264 0.51140714 -0.29401833 -2.6776497 -0.027994217 0.36802515 -0.14525494 1.5519584 1.1616867 0.1790367 1.510141 -0.02616512 -0.30887672 0.39389768 0.57123595 1.3503559 1.979543 -0.5802177 0.4785161 -1.1334854 1.0255415 1.3792806 0.80756307 -0.1304006 0.14735661 0.63632965 -1.3508697 0.9087 -0.29944947 0.66271776 0.10190302 -0.5451927 1.3183213 0.195627 0.19873689 0.14019507 0.11261941 0.8116057 -1.9327141 0.82072264 -1.6815864 0.81617707 -1.1973274 0.38421115 0.49698403 0.3929524 0.4028976 0.0019640098 -0.56759757 -0.15264255 0.8670436 1.3009285 -1.3628117 0.59600604 -0.5269126 -0.9701313 -0.9263174 0.4002828
广播电台 -1.6200118 -2.0266092 -1.221961 -0.8518482 0.10892064 -0.57526207 -0.2977126 0.10312166 2.0479589 -1.2087632 1.0130934 -1.3653417 -0.00046671048 1.5348905 -1.614676 1.3025316 -0.08412007 0.25010526 0.6369057 -2.2083867 -1.2748773 1.0635939 -1.1132522 0.17638192 -2.1402225 -1.523693 0.20350355 -0.9194821 1.621712 1.3327514 -0.80463624 1.6791598 1.305745 -0.11520523 0.16314307 0.4902898 -0.21507908 -2.1248283 -1.388806 -0.88882303 -1.0722293 0.4707671 -0.7459219 0.5535359 1.8041086 -0.87174857 -0.22463374 1.46714 -0.57232994 -1.2537496 3.0570142 0.34185195 1.5199645 2.274829 -0.32462046 2.0233953 0.9065835 -1.2050878 0.4340828 0.5338115 -0.5749053 0.05445192 1.1005915 2.3223796 -2.3223996 -0.028107183 -1.1105694 0.9129179 0.81505334 -1.1563631 3.0997424 -0.9934824 0.24296434 1.209702 0.505613 -0.041012146 1.4713345 0.11729074 -1.7601248 -1.1963847 -0.490021 1.8113626 -0.32985568 -0.21571024 1.5350816 1.3897507 0.3486412 1.7609218 1.1839411 1.3490951 1.9220161 1.4017042 -0.9794583 0.8753824 1.2269036 1.4714524 -0.9122524 -0.03663389 -0.25015584 0.4940918
晚上 0.049674034 1.0437082 0.46491677 -1.4411898 0.4247422 0.12845644 0.5402437 -0.48028338 0.49276662 -2.5333643 2.015983 1.1314424 2.6547775 -2.1115403 1.3325487 0.22547682 0.5873409 -2.1541667 1.0327173 0.3473433 -1.3650696 1.0065414 0.11697538 -1.2369384 -1.4447873 0.6807544 -0.78960645 -1.1460117 0.3414489 -1.0304676 -0.84696656 0.77617323 -2.338205 -0.84390527 1.5770361 1.463667 -0.9731901 -0.56190574 -0.548485 0.6775883 0.00075880816 0.68141776 0.18451513 -0.8224187 1.2286019 -0.35845596 0.7225152 -0.83027107 0.017261622 -0.01902235 -0.04095707 -0.5556884 0.12437245 -0.5946563 0.576867 -1.1277385 -0.25106078 1.5888702 -0.09663373 0.66835654 2.1481802 -0.54479367 1.6701738 0.7191485 -0.39959392 -0.13950817 -0.40211257 0.613373 0.66236067 1.301407 1.3924834 1.8768753 -0.022361094 -0.10284519 1.5656048 -0.22607015 -0.3689915 -0.45065203 0.39231804 -0.493655 0.3523105 0.031835496 -1.8473771 0.84128654 0.1490231 -1.1684598 0.65600276 -0.7698227 -0.30940643 0.0734622 0.44323277 -0.40249807 0.918608 0.9736811 0.19915551 -0.8078624 1.9439002 0.32237947 -1.4301797 -2.3531137
上午 -0.70591295 0.77044934 -0.38546303 -1.6438082 0.011478223 -0.29273674 0.5314616 -0.40510172 1.4469613 -1.7187824 1.8116332 2.2607908 2.5726838 -1.7575357 1.4605732 0.37225583 0.61828196 -1.9689261 2.1815987 0.80318046 -0.44766545 1.4477849 0.4227382 0.0784939 -1.0461901 1.3500673 -0.39503604 -1.011756 0.058277257 0.018266542 -0.9174139 0.4277309 -0.7203373 -0.11221976 1.4572303 2.844855 -1.3802267 -1.6084263 -1.0925609 2.3122382 -0.9571155 0.71491164 1.3246739 -1.6139057 1.1616837 -0.03720618 -0.42150283 -0.6981221 0.33880526 0.07175314 -0.32334 -0.012754411 0.06574541 -0.63142824 0.39468312 -1.1287615 0.534288 1.6395319 0.41972965 0.29016706 2.453612 -0.63193804 1.4614259 2.65547 -0.46349233 0.2138858 -1.4099979 0.3459226 -0.04906627 2.1245432 0.70629233 1.0422865 0.6611319 -0.42451435 1.5509517 -0.31477523 0.5933259 -0.36626956 0.5585007 0.48291352 -1.0843999 0.10543295 -2.7333417 1.5059646 0.5156335 -1.0525544 2.0243986 0.9479235 -0.9175657 -0.78053737 -0.6496456 -0.121594824 0.6119838 0.85523933 -0.58226794 -0.07815769 2.2268534 0.28817 -1.3909597 -2.0995865
循环 -1.0903049 0.80309707 -1.6508343 0.73123723 0.39746675 -0.33311906 -0.561849 0.91574234 -1.0333362 0.9014936 -0.9329729 -0.23407426 0.1892656 0.64194363 -0.075126395 -1.3174775 1.2530438 -2.566813 1.0866325 -0.26543978 -0.6185534 -0.6938284 -0.57845813 -0.54985225 -0.9639203 -0.79829246 -1.4331709 -1.609271 -1.5980152 -0.27115947 2.3159702 -0.8646213 -1.3484862 -1.5088351 -0.27150938 0.22940964 -0.12887561 -0.37352774 1.0576223 -1.7768674 -0.5053507 0.03925853 -1.2072 1.029624 1.2694037 1.7118783 0.24375184 0.2149784 0.37831843 0.88286984 0.19536947 -0.40476787 0.66789824 0.45182183 0.64081603 0.0776848 0.22102451 1.147344 -1.2405119 0.26286748 -0.4671807 0.8796461 -1.4492512 0.25988895 1.2428757 0.10073671 -1.2454625 -0.7035896 -0.27218008 -0.47729036 0.89341307 -0.66241294 1.313808 0.5463382 -0.82186556 -0.62560266 -0.6009879 -0.45663846 1.5355262 -0.26355803 -0.6301484 0.48977017 -0.5764863 -1.3941936 -0.89151144 -0.34952545 1.038363 1.0940679 1.7586241 0.92013943 1.266556 -0.4425597 -0.8197816 1.2868268 0.44468164 1.1537025 0.7114411 0.7644456 0.8663011 -1.5889256
之声 -1.4719033 -0.6679558 -0.2359287 -2.2155728 -0.056142718 0.11158222 0.4831908 -0.6811803 -0.5286968 1.0146505 -1.3840756 -0.79299694 0.8633162 0.19021182 -1.4420575 0.8739807 -0.11587249 -1.4032565 -0.42784405 -1.9650571 -0.30056986 0.63283813 -0.07189918 -0.95964676 0.018441673 -2.1255846 0.7807089 0.47214508 -0.36566707 0.45408314 -0.16041669 1.001418 1.2209688 -0.41774553 -1.1180311 1.2450954 -0.6796525 0.16357383 0.33856246 -0.5627277 0.23744541 -0.07879023 0.047757786 0.33186778 0.22029379 0.37463447 1.3600124 -1.0011066 -0.79271674 -1.9661702 2.7171752 -0.01053328 0.3243505 0.07864214 -1.0212972 0.7482126 0.848794 0.6987472 -1.5854049 0.45626518 -0.50071096 -0.7825789 -0.72001624 1.1403083 1.2076203 0.16767897 -0.35545206 1.0101206 0.86945665 -0.13965702 0.44619846 0.5935828 0.8459084 1.0809398 1.7091374 -0.4039768 0.44620892 -1.1415964 -1.8961662 -0.8572689 -0.3952287 -0.33532664 -2.3985302 0.3699877 0.106199324 -0.9320938 0.5652851 1.392105 0.51434565 1.2558179 1.9931248 0.6198487 -1.8734819 0.964451 1.105301 1.5654088 -1.168695 1.1670223 0.5209982 1.0090388
主持 0.05529305 1.1064653 0.4265821 -0.631607 -0.3920111 -0.57308275 0.7753893 -0.50208974 -0.35435665 0.32929033 -0.6375871 0.19152436 0.52321553 0.9081341 -0.09466059 0.2393848 -0.48994327 0.006062926 -0.8394824 -2.2582126 0.41553545 -0.20963314 0.09825252 -0.07207217 -2.0900648 -0.62653834 0.08965918 -0.49182078 -0.60032016 0.36944482 0.88379776 0.08671088 1.0258154 -0.5440539 0.2706638 -0.8823331 -1.3403906 1.2460048 -0.063192375 -0.53624505 0.007591287 0.28136697 -0.69659626 0.13365453 0.9076376 0.16364723 1.0870562 -0.2065822 -0.44479945 -0.36594144 1.2754254 -0.5541104 0.1893929 -0.9849169 0.49357072 0.17883553 -0.9631628 0.920273 -1.6001736 0.2705671 -0.21113409 0.015828865 0.64403814 1.6420096 0.62825286 0.21253614 0.33830822 1.0823604 0.36273035 0.84329754 -0.35364547 -0.36167285 1.1882035 0.014909707 -0.09875668 0.30148962 -0.3674313 -0.55162746 -1.3176537 -0.19370455 0.28721553 -0.17084073 -1.172117 0.42213696 -0.29429907 -1.3662921 1.0303242 0.5718768 0.45400006 0.760525 1.5606061 0.66430765 -1.3423692 1.00837 0.17777708 0.7891179 0.30068323 1.8830415 -0.35286036 -0.07577094
音乐 0.584127 0.08632326 -0.043955598 -0.78094894 0.04236185 -1.4944777 -0.7344568 1.387346 1.5784848 -0.97391355 -0.70268816 0.5388181 -0.8304121 1.8485522 -0.38137004 -0.49353132 -1.002615 -0.29296255 -1.8778033 -0.2544029 0.11827278 0.111656 -0.3728883 -0.3297572 -0.70218676 -1.3719064 0.43746394 -0.79131585 0.41462314 2.0762055 0.5150507 -0.50556 -0.22002436 -0.33255905 0.2498352 0.08253852 -0.8722872 -0.01372527 -0.52510536 -0.12612456 -0.74774814 0.8911503 -1.2957501 -0.28592473 1.7493013 -0.1115736 1.3151292 -0.5821452 0.35153785 -1.0027727 1.2890964 -0.17922445 0.4008908 0.029581673 -0.23064941 0.24800202 -1.3164237 -0.7511814 -0.662279 -0.5519109 1.0652659 0.17926171 -0.017481018 -0.1340034 1.2488754 -0.059485838 -0.2912936 -0.20470157 -0.1354809 0.090389885 -0.9572823 -1.122721 -1.1791662 0.31316072 0.3207336 0.28982648 -1.0099348 -0.6838274 -0.27013642 -1.0484769 -0.045126177 -0.6983609 -1.9450904 -0.10247761 0.13873 -0.53980815 0.10579449 0.379274 0.7168914 1.767488 1.8834342 0.19738847 0.25681135 0.08129111 1.116304 0.35398027 -0.5247729 -0.2628188 -1.4582212 -0.06897417
温度 -0.7005187 -0.5874543 0.13669299 -0.3441494 -0.4542434 -0.3328057 1.9728645 1.6980649 0.1233601 -0.2866851 1.3520035 -0.96949387 -1.3318306 2.2266204 -0.3334005 -0.0299175 -0.94082004 -1.2508577 -1.5489992 0.79734474 1.5447699 1.5301287 0.22540824 1.3196353 -0.5879789 0.7817313 0.99091125 -0.6421338 0.7107778 1.6340379 -0.36364383 0.099914916 2.5007582 -1.0857087 -0.45546937 2.2401836 1.767417 0.7133382 -0.7656054 -0.21065208 0.59048736 -0.12761042 1.1564727 0.41462156 0.058371518 -0.093305655 0.1943492 -0.45609054 -0.12017357 -0.9646168 -1.9152391 0.07901401 0.99325883 0.03953001 -0.31889364 0.17636827 1.5343124 0.7412588 1.6536028 2.0667062 1.8616796 -1.1141716 0.31954348 -0.80649334 -1.8099 0.48457035 0.47560167 1.4129021 -1.6866649 -4.8558948e-05 -1.4739331 0.24049002 -0.80595225 1.8272004 0.43440112 0.4146168 -0.80601585 -1.0860198 -1.3512361 0.75377655 1.3292397 1.5508608 -0.9232803 0.20917135 -0.2733809 0.10987015 -0.3892392 0.48647735 -0.60048085 -0.12581253 0.8328489 -0.11906564 0.66231644 0.56879264 0.50952274 0.34070888 0.38608438 0.22727184 1.4054936 -0.6013658
2 1.029712 -0.52287066 0.9404379 -0.92762995 -0.5157799 -0.28704548 0.74667513 0.4543486 0.60519826 0.6558614 -1.2178516 0.43215564 -0.20295113 0.13048503 -0.12899637 0.79603225 -1.182437 1.128391 0.07203851 0.16057523 0.5003343 -0.91638196 -0.21156396 -0.4599466 -0.21506399 0.46134585 -0.027157072 -1.6132631 -0.6898985 0.5273728 -2.1329763 -0.53388643 1.1150798 -1.6545542 0.40755573 -0.60817385 -0.9321953 0.6983015 -0.18471426 1.0826275 0.22348239 0.19732167 0.8884817 1.3167753 1.1621236 -1.5440862 1.0449018 -0.6359339 -0.6471266 0.61533386 0.26010787 0.67027223 0.6416697 -0.2509641 -0.5573938 -1.31711 -0.23725988 0.9046417 0.7427621 -0.1509699 -0.54879314 0.011511439 0.5817076 0.84769887 0.02956293 0.07625348 -0.3058601 0.6150422 -0.8338284 1.2609626 0.8470173 -0.27724198 0.1058214 -0.37057644 1.2976722 -0.110117294 0.011664417 0.718889 0.3813994 0.22220482 -1.6642387 -0.5764784 -1.4041792 0.25331932 -0.32812038 0.5481059 0.36475167 0.83013505 0.53431123 -0.31415075 -0.87964904 0.032169666 0.31280375 0.51807415 -0.3434684 0.90992486 0.2352557 0.23750502 -0.4824212 0.45500323
动漫 2.3449144 -0.41760474 -0.601522 -0.2910634 -0.8842306 1.0036969 2.3239713 0.69993746 -1.832233 -0.72319335 0.30994412 -0.69122916 1.0868418 -2.2289712 -0.97806615 -2.5325723 0.35810277 0.1060933 -0.5806469 -0.20783742 -0.25329256 0.52380687 1.0706506 -1.3043303 0.016706945 -0.16968425 0.9103754 -0.1655542 -0.26619804 -0.2332019 -1.681275 -1.177016 1.5390263 -1.3204912 1.1477019 -0.9116457 -0.7476404 -1.3634609 -0.01947618 -0.48870942 -0.63739467 -0.99512404 0.9195742 0.6246845 0.9201126 -0.32203597 0.6181258 -0.34760636 -0.30412868 0.30658373 0.48958275 -0.9559877 -1.1676549 -1.1243348 1.2987155 -1.0459058 0.77154654 -0.65025157 -0.6443944 0.31675386 -0.052880913 -0.6368837 -0.6425472 0.9086026 -2.2107584 -0.5073632 0.74954283 2.401829 -0.064823925 1.2472031 -1.354933 -1.4504392 1.11286 -0.41285336 0.27733147 0.7304088 1.3853003 -0.8016723 0.19644484 0.8262681 -0.21970744 2.39191 -2.059199 0.03390497 -1.9995105 -2.2917664 -0.82423407 -1.3148295 0.019392364 0.81885916 -0.27214533 -0.74601936 1.8633032 1.6730629 1.0001858 -0.6604072 1.8796699 -0.18256472 -1.7994671 -2.131119
后天 -0.37134755 -0.9735948 1.6449156 -0.5691961 0.88978314 -0.86492527 1.3106283 -1.0183656 0.55541 -1.3256131 0.61793226 -0.8623583 -1.2176756 -0.7003406 0.6881458 -0.8485075 -0.90630525 -0.35818753 -0.7276836 0.56491965 -1.2446424 0.3988776 0.2596656 -0.5430413 -0.8064455 -0.11977484 0.02799647 -1.5425954 -0.15678123 0.056698646 0.38969 0.07493199 0.32446685 0.21587412 0.22738275 0.45188546 -0.664467 0.40739444 0.22920059 0.51517415 1.7470155 -1.1841162 0.9615133 -0.894841 0.82691187 -1.7187917 0.043686308 0.43795845 -0.045899045 0.85594076 1.0935757 0.43682942 1.562115 1.1640046 -2.392239 0.10131453 1.5874406 -0.7899358 0.8080218 0.1179649 0.6225526 0.24387951 0.13534048 0.06859287 0.6344669 -1.1228302 -0.5217609 0.23417938 -1.3302984 0.30522528 0.9733502 0.09447149 0.45217463 0.22728723 1.4261787 0.7466268 0.49576318 0.82764 0.91143733 0.0016390734 0.103698686 0.14924166 -0.6369271 -0.3193386 -0.9011317 0.33838546 1.2581284 1.1018655 -0.55977845 -0.5041662 -0.85406023 -0.13218214 -0.37074926 0.4868985 0.1559693 0.9074164 -0.16129602 -0.76823145 -1.0963417 -1.0116113
人民 -2.482061 -2.0483189 0.36729696 -0.16108048 -1.2988582 0.2758165 0.9356544 -0.22458336 1.8034226 -0.65937066 -1.1963546 0.3929755 0.39703536 -0.15228121 -1.4531484 0.6681909 -0.20469525 -0.064047724 -1.3483226 -0.19402616 -0.7440726 1.7424989 -1.7344279 1.4206524 -1.108972 -1.7104113 1.6053033 -1.733151 -0.106318146 1.5133622 -0.78758454 -0.12621275 1.1083874 -0.37756172 -0.3896859 1.1212345 -0.72187835 -1.0586323 0.019495375 -0.18587124 -0.5260639 0.88112605 -0.8598771 -1.4449103 1.0376419 -0.38638178 0.66678053 -0.17268506 1.9387124 -2.078527 3.0175853 -1.8624626 0.70160085 2.004788 -2.7227244 2.0719883 -0.55476373 -0.4967379 -0.23170309 -0.032847486 -0.46635887 1.2499249 -1.5046747 1.8250153 -0.31620815 -0.45350075 -2.2442162 0.9449145 -0.74767107 -0.09623974 1.8213295 1.8626816 0.94175416 -0.92901367 2.2446613 0.030850228 0.38560194 -0.887697 -1.9068215 -1.0341464 -1.3527193 -0.48708668 -0.91367805 0.70086193 -0.9269028 -0.70226973 -1.5918344 -0.24062002 1.0343466 1.0532179 3.1632192 0.38345468 0.8146644 1.4031987 1.5341793 0.61426467 -0.12576598 0.08591738 -1.064781 1.1217324
中国 0.5528851 0.79823655 0.84385365 0.5396399 -1.0583719 -1.8905352 -1.1303235 1.1041322 0.2273908 -0.8877586 -1.4159834 -1.4731724 0.4106632 1.5907433 -0.28508905 -0.033968687 -0.5375987 0.6787466 0.15304479 -1.2804134 0.7544606 -1.1592737 0.20951696 -1.2424206 -0.8831282 1.5551581 0.60766405 -1.4251646 0.058347713 1.3056314 0.012252582 0.55668557 1.225305 -0.9580852 -0.7874552 -1.3113796 -0.40157834 1.0068011 -0.95841944 -1.6650279 1.8364514 0.60782 -0.09437162 -0.5589808 -0.6934164 0.22391705 0.012097656 -1.9687253 0.59059685 0.024506902 -0.16750489 -0.5019298 0.14794633 -1.4993377 1.4188901 -2.0387993 -1.9633586 -0.34195682 -1.2738231 -0.40274584 0.055728786 -1.1930002 0.72046524 1.0165724 0.5806454 0.9329041 1.7342929 -0.727384 -0.7090195 1.3697548 -0.0026393123 -1.0327963 0.5778659 -0.6364568 0.08762692 0.9989215 0.8702166 -0.47089872 -0.13613063 -0.41636217 0.94709206 0.61678374 -0.43279892 0.1681512 -0.5764088 -1.1093254 0.06716854 1.071712 0.65060526 1.5169113 1.1263555 0.8315303 -0.8347987 -1.7584589 -0.8958003 0.09507621 -1.2890232 0.5324987 -0.9125344 0.94400775
？ -0.767246 -0.55477685 0.1018971 -0.11300271 -0.21921164 0.043708574 0.40613484 0.5756409 0.020410057 -1.6007212 0.49162748 -0.54069513 -0.47293064 0.03135224 0.721512 0.10541115 -0.0031959692 0.50581354 0.29484734 -0.14312008 0.09923072 0.61253214 -1.6956745 1.4661947 -0.9831673 0.6265258 0.39688954 0.40291655 -0.4226804 0.5022211 0.5230121 0.23600858 -1.3552943 0.61283475 -0.7170053 0.86355144 0.057591844 -0.865844 0.047527853 0.5844731 -0.89615995 -0.44371524 0.36729634 -0.91259485 0.50780535 -0.8631632 -1.2815838 -0.011036202 0.7255973 0.6307724 -1.1236272 0.29364502 -0.34127367 -0.97275704 -1.3381392 -0.5484575 0.7099276 -0.110252485 0.108247794 0.8583932 1.1003516 0.8973894 1.1455886 0.3134261 -0.9648856 -0.09818451 -0.26448208 -0.6081629 0.023527276 -0.8597535 0.5102402 0.010248886 -1.026045 -0.54222727 0.3455757 0.046670094 0.67892003 0.7853392 -0.7170939 -0.0050223204 -0.20960066 0.6068367 0.8038447 0.33267224 -0.17574899 -0.12581395 -0.38575155 0.8155167 0.29079148 -0.8317444 0.5887922 0.200635 -0.041838583 0.18053529 -0.036965296 1.4582087 1.1369411 -0.5202643 0.22235651 0.038896307
好 -0.7246738 0.7943544 0.42285305 -1.0012325 -0.37740138 -0.5545217 -0.18153395 0.09783153 -0.84360236 0.35281405 -0.97491217 -1.2822622 -0.6598841 0.7663933 0.67710435 -0.6575943 -0.27686894 -0.025734246 0.53145397 -0.27513742 0.15608893 -0.58436096 -0.11488201 -0.6556688 0.089330375 -0.96494657 0.45043483 0.04687422 0.2822279 -0.8090393 0.6908877 -0.79514927 -0.72147095 0.6160177 -0.352598 -0.07199314 -0.33543313 -0.25926638 -0.13707437 0.58230627 0.14520879 -0.5381933 0.7725729 0.47802815 0.41739094 -0.6876636 -0.5578685 -0.1627707 0.5534407 0.18834206 0.41618186 0.11465699 0.23471293 -1.0988828 0.33146045 0.59205174 0.5184471 0.3891841 0.01640809 0.63051546 0.010766731 -0.20126748 -0.25838295 -0.7992214 1.4682765 0.25861096 -0.042514507 0.5161317 0.08931406 -0.5002444 -1.7188722 0.13938472 0.185893 -0.09925132 0.025749171 0.607006 0.54902077 -0.74502945 0.001966806 0.42219287 0.03688576 0.000961044 -1.9373883 0.65153384 -0.16448008 0.09207734 -0.060935475 -0.789265 -0.09182577 0.25203916 -0.3850422 -0.538519 -1.041707 -0.5332425 0.877156 0.8278122 -0.16882093 -0.982512 0.71662 -0.33874488
歌 1.6968046 1.166382 -1.212274 0.23816103 -0.188451 -0.78526825 0.32409248 1.954565 -0.56434864 -0.20231032 -0.3028846 0.021409046 -0.67399186 0.2352341 -0.7167534 -1.3393117 1.2144928 0.042971972 -1.422775 -1.8031586 -1.228134 -0.8363949 0.11495167 -1.4303036 -0.7483892 -1.9614403 -1.7957942 0.21229614 -0.62121105 0.35892418 0.19264539 -1.1033142 -0.4798154 -1.1059629 -0.32446107 0.48382705 1.0247163 -0.19919857 1.1761161 -1.806524 -1.0864214 0.18179293 1.3346324 1.1281378 0.6440953 -0.57602155 -1.0310537 -0.3005966 0.37578076 0.09479094 0.37781307 -0.68085986 0.042616263 -1.2637708 -0.022460602 -0.27304646 0.26973775 -0.7080927 -2.265489 0.5723574 0.1407955 -0.31330022 -0.35961372 1.0725622 0.9606483 0.46156654 0.45895216 0.75938725 -0.84463024 -0.72375697 -1.5227399 -1.1657255 0.33896047 0.55492234 0.20278534 -1.1357661 -1.2687305 0.30887857 -0.39645573 -0.6359501 -0.29131833 0.6968153 -1.5354246 1.1075276 -0.26433876 0.8001972 0.2040627 -0.015241233 1.2508537 0.9774828 0.5526995 -0.15423167 1.1023307 -0.22130494 0.70055944 -0.61223835 -1.5787106 0.32044798 -0.2164213 -0.31348455
12 0.7327508 -1.4019381 1.5024202 -1.2643726 0.20377071 -0.20145115 1.1383421 -1.4318999 -0.793392 -0.8702531 -0.010879679 0.28353277 -0.6040574 -0.70089704 0.2585061 0.1606658 0.017486142 -0.073163226 0.034338586 -0.22664617 -0.14595585 -0.036180206 0.23476966 -0.51335675 -0.28082022 0.38945305 -0.92468405 -1.389614 -0.9348169 -0.05474474 -1.4065573 -0.20727868 0.11635351 -2.4649398 0.04915013 -0.37623203 -0.7323565 0.798572 -1.0870485 0.13630599 0.22785476 0.29021645 1.997972 1.694434 0.81476235 -1.8836868 0.3977659 -1.3583304 -0.6508067 0.1409458 -0.0700453 0.27455142 -0.36061496 -0.11195065 -0.8807073 -1.1918205 -0.19943817 1.5638895 -0.0052880566 0.6269182 0.2001807 -1.6886207 1.3471047 1.5157882 -0.19686542 -0.19242305 1.9549551 0.6263158 0.4563704 0.88126075 0.3057515 0.33177042 -0.36807793 -0.30070594 1.7399116 -0.4479008 0.2283596 0.32566908 0.5611336 0.13019948 -0.68810153 0.8874497 -0.8589883 0.45470285 -1.2110947 0.53329855 -0.15868202 0.76863736 0.8563213 0.05197579 -1.2818884 -0.77378005 0.4159477 0.8705095 -1.1485634 0.90880454 0.7602064 -0.08795217 -1.1732502 0.20549154
广播 -0.86816543 -2.4623177 -0.22228298 -1.0132674 0.9399265 -0.9715637 -0.48272586 0.4454744 0.9834232 1.56529 0.63549715 -0.88261765 0.12690938 1.0192811 -0.40808383 0.33592585 -1.5382314 -1.1832457 -0.24219999 -1.8247449 -0.4674631 0.0049611377 -0.8593711 -0.5686357 -1.3719554 -1.3252945 -1.1692008 1.4111935 0.009333991 1.269212 0.1552255 1.7132418 0.6121662 -0.75560385 0.41886184 0.6135529 -0.96245503 -1.2000245 -0.24065728 -0.095001966 -1.523675 0.15371242 0.44493186 2.061131 1.5424533 -0.9473482 0.16175164 1.278986 -1.4598395 -1.5572841 3.4864914 0.05355023 1.314083 -0.3447441 0.013705479 0.6527356 1.4085679 -1.2414615 -0.7971862 0.54167795 0.24065167 0.2731248 -0.23991643 1.6136293 -0.6595126 1.1976438 -0.60295737 2.194314 0.8660908 -1.025998 -0.6800876 -0.7751809 0.42800665 1.0443417 1.4956708 -0.8413081 -0.1287314 0.68026364 -0.6114708 -3.0619261 -0.18281722 0.40786952 -1.938678 0.2565841 2.434728 0.017003868 1.7451537 1.6496941 0.24711554 -0.5523159 1.6901686 0.3203536 -1.4222121 1.9757975 1.5843608 1.9871758 -1.5304712 2.3529387 -1.1534109 0.5062038
设置 0.84258944 0.44937113 -0.1341767 -1.0832015 -1.2744246 -0.2562943 1.8082389 -1.5289884 1.2828442 -0.75082976 0.8609933 1.2718713 -1.7720269 -0.08533225 0.72974235 0.11152217 0.7478998 -1.6524647 -0.18932638 -2.0788686 1.3230511 1.7705035 0.7447226 0.08719992 -0.73886156 0.51757735 1.0313839 -0.24347053 1.7260107 1.5876765 -1.2942075 -0.22383565 0.561545 0.5268666 0.3411098 1.6966983 1.177704 -0.28878018 -1.1662747 1.1132823 -0.3349595 -0.74059653 0.81380457 -0.55513954 1.9188954 -1.3104035 0.29901135 0.4946899 1.0292951 0.9806609 0.14651486 0.09980295 -0.86314636 -0.33784628 -0.3285795 0.84545344 0.039563958 0.3152787 1.2078685 1.2675842 0.029461356 -0.13855584 1.2803893 1.3796116 0.49126345 0.40393645 -0.31874245 2.1149354 -2.19938 0.91584945 0.41707376 1.0984981 0.051053423 -0.115241155 -0.10690697 -0.9415926 0.21488532 -0.018346075 0.046378884 1.4879856 -0.45257342 -0.28646022 -1.079716 0.5685439 0.20750974 -0.63747275 1.3763287 -0.54325575 -1.498435 -1.2522373 -0.24421895 -1.7833315 0.81278247 0.39589372 1.2334385 -0.6406926 1.3104242 -0.9755633 0.29616293 0.105074435
节目 0.30065143 -0.36288786 0.5705371 -1.3521843 -0.33519953 0.15449874 1.1134591 0.36129114 1.1331939 -0.11361843 -0.33281732 -0.6114379 0.63437355 -0.65639454 -0.18730748 -0.34792596 -0.61400205 -0.2203461 -1.0040783 -1.4413216 1.0083383 -0.43622413 -0.105161324 -1.820666 -0.28960964 -0.26039064 0.3843659 -0.45107415 0.9829064 1.5435748 -1.3535967 1.694592 1.9763836 -1.2810369 0.82923293 0.41122717 -1.6337799 0.13003287 1.0756338 0.104391925 -0.11863508 0.12462087 0.12972975 0.5200326 0.90980655 0.06006706 0.46069762 -0.27689824 0.58044434 -1.0899098 2.310423 -0.05356956 0.027388338 -0.5893434 0.45410615 0.81572497 -1.8025953 -1.3013576 -1.2370975 0.29364955 -0.118185066 0.22262014 -0.48508543 -0.5594902 1.3903428 1.5153757 1.7723551 0.65940464 -0.45350435 -0.88056237 -0.3879196 0.804432 1.0633572 0.7410286 0.5474279 -1.3752487 1.4526627 -0.03173948 -0.72183126 -0.07002245 -0.8640352 0.2678347 -1.871945 -0.523746 1.1137117 -1.4772797 0.44876963 0.45082188 -0.45707184 -0.34416604 0.5692336 1.1920156 0.45416397 0.038521748 1.5880023 0.18339157 -0.6684604 1.133025 -0.057140786 1.0894669
2021 1.0332117 -1.0531985 -1.2225599 -2.065587 0.66473657 0.79492056 0.9911779 -0.4175383 -1.8598694 -1.8019744 2.5638247 -1.1430205 -0.39646596 -0.717336 -1.3120027 -1.214695 -0.0836026 -0.9008515 1.5669975 -1.8839092 -0.5582996 -1.9609724 0.299081 -1.6701041 -0.7107461 -1.7000293 0.93298537 -1.9184364 -0.9590486 -1.0747216 -0.32022843 -0.26124838 -0.35863987 -0.22502653 0.14451325 -0.75169915 -0.52645797 -0.048487473 0.56857604 -0.2185178 0.45022362 -0.673738 -0.059952028 -0.49463347 0.12475187 -0.60727614 1.6454308 -0.83379894 0.746005 1.2461694 -0.07652937 -0.5626059 0.13635142 -0.67866856 0.08799592 0.056970183 0.7216851 -1.2434005 0.18769929 -1.3643972 0.07550526 0.7287046 -0.4888825 0.44571123 0.32639483 -1.3840944 0.8782524 0.9616553 -0.1428349 -0.09499757 -0.48019397 -0.2982875 0.7639839 0.18398206 0.77198505 -0.47709858 -0.9309973 0.5503077 -0.095214784 2.2868037 0.53081733 -0.8332769 -1.2981501 2.0363307 -0.10588184 -2.4181588 0.07385069 -0.26695377 0.6360911 1.2852038 -1.1899985 0.1968354 0.2203587 1.4602304 -1.7651857 1.2137921 -0.62777936 -1.7721447 -2.3083806 1.4341749
上海 0.3042668 -1.6915112 -0.00045338392 -0.21428494 -0.16404353 -1.2313162 -0.6028061 0.76577646 1.364386 -0.33783424 -0.70900434 0.63522124 -0.012685301 -0.27649838 0.5103841 0.5271449 -1.2979861 -0.21292871 -0.90922254 0.37200448 0.4902569 -0.49988312 -1.1264725 -0.64932835 0.7787346 0.060686257 -0.107181 -0.42704684 -0.4353596 1.0077381 -0.68882376 1.0322936 -0.059590276 -0.60230625 -0.77291316 0.30622643 -1.1215453 -0.2860853 0.29733452 0.5571338 -0.39474553 -0.06019608 0.52477413 0.1530679 0.20316677 -1.0595171 -0.48916218 -0.83424014 0.118934244 0.6402632 1.0209891 -1.2844076 0.54195297 -0.55555034 -0.4045816 0.7236767 -0.55384713 -0.5070197 -0.024626922 -0.1831295 0.2302042 -0.18007825 -1.0423688 -0.009072161 1.759905 1.2475406 0.6814273 0.83754385 0.23250376 -0.15668373 -0.5915775 0.9544513 -0.33461285 -0.44960582 0.97622806 -1.3519917 -0.3316707 1.2798775 0.09326341 -0.33214417 -1.432229 1.1849825 -0.70615286 1.4532633 0.413741 -0.16000405 1.3098774 1.4855053 -0.03255579 -1.3524677 0.24360278 0.23828642 0.6709145 -0.44080937 -0.3905891 1.1322434 0.26407507 -0.30302548 -1.7073992 -0.06629548
飞机 -1.4377813 -1.2392814 1.9886113 -0.38016865 0.14760162 -0.59994006 -0.29342914 -0.50737506 0.45456707 -2.652879 1.5951059 -1.6119485 -1.2831876 0.8088524 -0.31837317 -0.04772818 -1.2776827 -2.8644779 -1.387517 0.6412277 -0.68086 -0.33066127 -0.7052599 2.6829906 0.50917554 2.2742047 -0.88120186 0.40414652 -0.039604478 -0.2436782 -0.87702435 -0.3877505 -0.85303974 0.69651043 -0.49692267 -0.10612397 -0.011110542 -1.1887267 0.016257524 -0.18666074 -0.58354604 -0.42983344 0.58623594 0.33834088 -0.90700126 -2.5170202 0.4667117 0.5301846 1.3737423 1.8522413 -0.45934758 1.2977327 0.41075608 -0.049542803 -0.3442912 0.25534162 1.4991623 -0.0036515435 -1.2630887 1.2199534 0.107469544 0.35195726 1.3748654 1.5141196 -1.250755 0.052747652 1.6631453 1.524631 0.89728403 1.498801 0.24048607 0.7784365 -0.70426667 1.2237375 2.3708088 2.7517052 -0.95626676 -0.43685985 0.9698864 1.2390982 -1.4244688 1.486431 0.87429994 -0.04822605 -1.3450485 -1.9226768 1.6984102 1.9688827 -0.7052483 0.2065729 0.62153465 1.859878 2.100968 2.06674 0.011516193 2.9862518 0.6756897 0.46240586 -2.709739 0.35372105
早上 -1.0487462 0.35249943 0.3592981 -0.8007995 0.43650886 -0.2588653 -0.2725723 -0.18822499 0.12914257 -2.8605504 1.3591629 -0.025144806 1.2474581 -0.7826919 0.69121724 0.579052 0.7565013 -1.8211377 1.278593 0.6043515 0.05580957 2.0669408 -0.5137554 0.32625517 -1.4094521 1.5597473 -1.0861422 0.2352365 1.8250288 0.76649255 -0.040738873 0.8729907 -2.5190647 -0.28478503 1.2178693 2.2490993 -1.4233456 -1.6965605 -0.5427918 0.4314049 -0.020041492 1.9359939 2.193665 -1.5724803 -0.111301765 -0.14826328 -0.091059394 -0.033170547 0.11669465 -1.6672639 -0.23503995 -0.07454296 1.035641 1.1792365 -0.30016676 0.51768816 0.044184554 2.304164 -0.046857756 0.42392147 1.7345451 0.1468655 0.76681805 1.5677041 -0.71446973 0.16448267 -0.7157524 0.6124834 0.84895885 1.7831303 1.3647702 1.6214669 -0.444576 0.22197403 0.6452239 -0.18959494 0.29216617 0.5110524 0.65130484 -0.7557069 -0.63697755 0.85997194 -1.6859686 0.67636716 -0.45652616 -1.4025279 1.763014 0.5237481 0.08159613 0.071876645 0.53070563 -0.22949648 1.703437 0.6149013 0.4412485 -0.41080633 1.9585588 0.96132344 -0.9365517 -1.034063
新闻 0.15671214 -0.8678195 0.11098053 -0.3906289 0.8006905 0.6414945 0.32418764 1.0740763 1.7337096 0.21001844 0.48951134 0.038835026 1.0292647 0.072418876 -0.16802093 0.5095618 -0.51990503 -0.100415096 -2.7382457 -0.95384943 0.31283793 1.067347 -1.1552209 0.2833188 0.002905537 -1.2769898 1.8380288 -0.8161838 1.3030367 0.9943545 0.36198056 -0.109846346 1.882778 -1.4938678 -0.3017049 -0.61740315 -1.7312086 -1.3586341 -0.4739188 -0.97883123 0.8159917 0.07389505 -1.6844968 0.67532015 0.04913203 0.634825 -1.0056381 -1.2934209 0.7954446 -1.3526641 1.9673587 -0.4254598 -0.953155 0.26916373 -0.24290614 -0.31213447 -2.200811 -0.47692052 -0.9854222 -0.8760346 -0.5259507 -0.73286486 -0.8968092 0.6696699 -1.0250244 -0.090138026 1.9020766 1.0024674 0.22755603 -0.158765 -0.6529529 -0.6454887 -0.1250552 -0.3242049 0.49227896 -0.20783423 0.27970865 0.2940506 -1.7618833 0.38059756 -2.017127 0.24224067 -1.4070066 -0.09562698 -2.1797407 -0.29209816 -1.026956 0.17536762 0.3119971 1.0168393 0.43095514 2.8254507 0.9110338 0.93993986 -0.39386514 1.8663777 0.5405192 2.0019517 -0.23383974 1.0877647
播 1.853448 -1.566325 0.23555203 -0.35841733 0.6415646 -0.3270692 0.72886115 0.38159105 -0.8374463 -0.6795652 0.64178836 -0.028475761 -1.2975254 -1.0281909 -1.0026999 -1.4466288 0.17525627 0.07901735 -0.6856456 -1.168831 0.11906802 -0.4859327 0.68698967 -2.2766573 -1.113518 0.3802039 0.82542276 0.7803273 0.26832345 -0.11765781 -0.98671657 0.20830557 -0.062971205 0.41218597 0.24211627 -0.96345884 -0.3793783 0.2268372 -1.1370353 0.71675205 -0.45192465 -0.86244994 -0.32260966 0.96367776 0.2521911 -1.4816096 0.46311125 0.86585385 0.101974405 3.946463 1.1337287 -0.40029866 0.33588633 -1.4700893 1.0891514 -0.22159752 -0.5741384 -1.0846708 -0.03650929 -0.4852782 -0.9557196 -0.41983876 0.8953309 -1.6517578 -0.33449337 -1.0125847 2.4537647 2.4325938 -0.71243924 0.38256133 1.2792937 0.04212696 0.44748405 -1.5540257 0.7127166 0.940112 -0.1201073 1.717701 -1.2401136 0.21098554 -0.7324575 1.0370892 -1.0524358 1.2990872 -1.1497202 -0.44832698 -0.24165232 -1.4987171 -0.10218923 1.34352 0.30766407 0.9167694 2.2972646 0.6183725 -0.22396404 -1.1141621 0.97367376 0.5661611 -0.22920717 -1.0162476
类 0.51112425 -2.0131545 -1.3865806 -0.59618944 0.46919608 0.19599287 -0.919706 1.8380527 -0.41398862 -0.8994379 -1.3908203 0.83581173 -0.3961088 -0.5950598 -0.21739434 1.6690032 -0.98270416 0.1634378 -1.1016624 -2.7695105 -1.4515426 0.8479729 -0.7930646 -0.49684894 -0.5301808 -1.9903375 0.22631963 0.90592813 -1.1616025 0.34620854 -1.2971454 1.163478 1.7750101 -0.69943976 -1.2019781 -1.1670167 0.57870656 -0.5968005 0.7418732 -0.3889489 -0.70903444 -0.10709758 -2.1442916 -0.3480083 0.51708186 -0.021025818 -0.63436186 2.0098274 -0.45081398 0.79617876 1.3869991 -0.17170286 0.099200964 0.038759448 0.85207987 1.1874188 0.6209989 1.1232388 -0.56892276 0.95432895 -2.0453877 -0.3691623 -2.0434966 -0.6133551 -0.42929888 -0.6225621 0.20445263 1.5790801 -0.19883049 -0.3984937 1.3704456 0.11738488 0.49616572 0.2347077 0.790429 -0.015843017 -1.209286 0.8764462 -2.4021082 -2.0054023 -0.018187862 1.0602635 1.1637944 1.2658381 -0.3943644 0.05793623 -0.4975589 1.6297355 1.4290802 0.58958155 3.7987444 1.5496857 -1.2599295 0.56671816 0.9430063 0.7822291 -0.5715048 -2.2107701 0.26837993 1.1775823
美国 0.5329006 0.7249387 -0.18340972 1.2671939 0.8236538 -0.10641623 -0.6405892 2.3803763 -1.5609592 0.24034229 0.082933016 0.46163115 -0.12778671 0.10421465 0.21469368 -0.4190885 0.1852284 0.34228885 -0.1639362 -0.21644028 -1.081427 -0.015369516 0.39769492 -0.53457654 0.6628025 1.5817236 -0.6304638 -1.239153 -1.511886 -0.8938031 -0.5730252 0.22107998 0.9426901 -1.7316545 0.14187606 -0.1713676 1.0542088 -1.9926832 -0.12056339 0.12501359 0.8303344 -0.14614128 -0.69579065 -1.2365448 -0.28774324 0.65642244 -0.3433069 -0.27628818 0.4869769 1.0322376 -0.8054848 0.30439574 -0.7899052 -1.4275888 1.6677555 -2.478173 -0.38827866 1.3690906 0.534896 -0.6719318 -0.01925412 -0.086706646 -0.050614312 -0.3168464 -2.138764 -0.26224077 -0.06253646 -0.21129586 -1.0127898 1.4399266 -0.5303303 -0.7079762 0.12367768 0.24462423 0.14527142 -0.22315824 -0.27562496 -0.0125857005 -0.19725797 0.7137493 -0.99456143 1.6848761 0.7677778 0.57155275 -0.21055675 0.39607316 -0.3813072 0.25162855 0.87250865 0.9566222 1.035071 0.3891497 0.39989632 0.65491927 -0.07220566 0.3036443 -0.1361971 -1.1015338 0.22909983 -1.2469242
风速 -0.09990391 0.56530404 -0.21378736 0.5088379 -1.383217 -0.8594713 0.69436795 1.193993 0.03233688 0.54040784 0.7215035 -0.10294163 -1.3772609 0.22939786 -0.48897427 -0.02399167 0.95762813 -1.7170352 -0.16388236 -0.7160553 0.57966936 1.1196226 0.5638846 -0.28257614 -2.1835124 0.96779555 0.98247313 0.04002284 0.82867354 1.3246146 1.5846027 -0.7060017 1.829561 -0.420603 -0.8679635 1.7048225 1.0956926 -1.5587057 -0.366965 -1.1449507 0.28801295 0.2596881 -0.5852539 0.7313146 1.0304214 1.4031721 -0.093608424 -2.3483586 0.101615444 -1.5957217 0.45767125 0.6562621 -0.21051832 -0.5871085 -1.0961455 -1.6900511 0.90638906 0.09105999 1.018506 0.42925075 1.2554821 -0.018332917 -1.5745593 0.89252377 -1.3739911 0.10037543 -1.1141157 1.6203246 -1.1947954 0.59609 -1.1505892 -0.6376327 -0.112866506 2.0927794 0.3459933 -0.28234228 -0.9209376 -0.45592958 -1.3333191 0.9687079 -0.23923524 1.0014696 -0.37692088 1.4649984 0.41660777 0.7378331 1.0075196 -0.39993548 -0.099918425 0.50129944 1.3916372 -0.9308435 0.7178521 -0.48045537 0.52179897 -0.056991275 1.2301197 1.4867095 0.6672264 -0.5840443
有没有 0.96498543 -0.21484312 0.52865666 -0.47127897 1.4743233 -0.15847987 0.49386677 0.5269706 1.8983377 -1.7836065 0.87937814 0.6954484 -0.27480727 -0.1506857 -0.7701694 0.15938026 -0.4099108 -0.27658647 1.1796426 0.88945675 0.80297345 -1.3904734 -1.1362544 -0.105773725 0.24022706 -0.53659326 -0.13831976 -0.8861019 -0.7425547 0.2733712 -0.018227601 -0.48790857 -0.44204742 -0.9917761 -0.37260896 0.31399253 1.5276321 0.08760168 -0.8081806 -0.64770275 -0.58179927 0.04011614 0.70112944 -0.19542758 0.9234419 1.3721035 -0.7501037 1.6653222 0.64198 0.1039657 -0.595798 0.45202798 -0.95072395 -0.042673547 -0.21694641 0.56035906 -0.05161369 1.0487707 0.90802133 -1.190442 0.20864838 0.107670456 1.2018902 -0.55298114 -0.84635144 0.7112504 1.31146 0.23726113 -0.10168517 -0.15851288 -1.2553611 0.7632953 -0.64612335 -0.82333755 0.9832434 0.5596434 -0.19123206 0.12309961 -1.0628582 -0.39596975 0.27912328 0.3836453 -0.24447098 0.71430206 0.59271055 0.14030546 0.046010964 0.33790815 -0.08053112 0.30490017 0.3445442 0.271767 -0.1627084 0.505738 0.8324755 0.36796737 -0.7909429 -1.2954905 0.16477379 0.32980454
调 -0.4899386 -1.2643675 0.29054126 -0.21007636 -0.9817231 -1.790053 -0.21045747 -1.1405932 0.2504885 0.81458646 -1.4312726 0.86775076 -1.317376 0.94466 0.38750574 0.13409543 -0.23356725 -1.367186 -0.60971975 -1.134727 0.85395104 0.652708 -0.13075788 -0.3388934 -1.4636048 0.2629139 0.8668524 -1.4243196 1.6829093 0.91210896 0.0037513622 -0.21828695 -0.55779576 0.5489293 -0.78306043 0.9786151 0.9297004 -0.1765406 -1.9966211 -0.13734531 0.6168545 0.7756762 -1.9250333 1.044951 -0.22677703 -0.32620114 0.542965 -1.1335361 0.923769 -1.3540816 1.3398436 -0.54238546 -1.0562569 -0.53251326 -0.77345276 0.32687858 -1.1104921 -0.5833414 0.2766051 1.3592286 -0.060712676 0.19245604 -0.49527872 -0.08434934 1.0478469 0.3628971 -0.13803348 1.4856783 -1.326667 0.258125 0.07826977 0.7572802 -0.6534701 0.29962283 -0.47251064 0.23250887 -0.7741217 -0.4131785 -1.1054342 -0.91728556 0.22874592 -0.8203649 -0.69662356 1.1416951 -1.0436752 -0.10400697 0.14485034 0.10860596 -0.050829515 0.10860541 1.7051066 0.582994 -1.595268 0.45995435 1.8174745 -0.43656197 1.0543343 0.37908348 0.05524398 1.1699107
飞 1.3568946 -1.8510194 1.2554352 -0.5845466 2.461473 -0.74471515 0.05113574 0.3927018 1.2762392 0.6538011 0.01604965 -0.7414144 -1.9114339 -0.07388077 -0.94145286 -0.16859005 -1.3779434 -1.638446 -2.0875864 -0.26432025 0.8839179 1.2295691 0.1681496 0.77425313 0.77871794 0.95416445 -1.4876355 -0.2612884 0.014617284 1.8634168 -0.5418164 -0.3216281 0.51175326 -0.94573355 -1.0169979 -0.130975 -0.8255738 -0.49359652 -0.23218626 -0.0043841326 0.6644596 -1.0523756 1.4633886 -0.04139806 0.57035106 -2.134751 0.96817243 0.33549434 1.3207148 1.8988446 -1.10581 0.42098594 -0.77257043 1.8002951 0.77843094 0.2628627 2.6005685 2.107671 -0.16300768 -0.06796913 -1.4801472 -0.48943186 -0.18831083 -0.113648385 -0.4303542 1.0937333 0.8346815 -0.115227506 0.2659667 0.43911755 -1.3325568 1.2779002 -1.6621078 1.8026335 -0.17330347 1.2993017 0.8032323 -0.22366273 0.11950182 -0.60804033 0.22203994 0.085254 -0.77856976 1.0210776 -1.3092705 0.38781205 -0.050830994 2.8229728 0.8167922 0.8579382 -1.1331507 0.5357552 0.9335829 0.77826184 0.99182177 1.7079734 0.45144847 0.54409254 -1.9757317 -1.5106674
里 -0.19469848 0.51762795 0.7811807 -0.37797934 -0.24672511 -1.0715016 0.88779396 1.0749252 0.17775194 0.25286183 -1.5867786 0.3336736 -0.07206673 0.12269398 -0.26304302 -0.24325229 0.13359936 -0.7628082 -0.6863919 -0.43987706 1.1005085 -1.0124345 0.28107655 -0.8567446 0.72160834 -0.04044625 -0.106835835 0.4947969 0.174515 -0.84953505 -0.77301276 -1.246176 0.5285219 -0.93565756 -0.9248984 0.5102075 0.31929684 -0.11099164 0.6697426 0.3440739 -0.8011976 0.1321233 -0.5229886 -0.014602381 -0.22876757 -0.24203615 -0.40571734 -0.90667003 0.05689221 -0.8230872 0.7189275 -0.16032147 -1.247022 -1.368191 0.29138583 0.34909916 -0.40160757 0.14748229 -1.2055935 0.66233665 0.011481508 -0.82738686 -1.4227597 -1.2756373 0.47875383 2.1255982 0.43952164 0.29119062 -0.7497175 -0.3725295 -1.2719151 0.5257631 0.12811841 0.56306285 0.45403963 -1.285705 -0.92868924 -1.0454686 -0.67536414 0.1412913 0.32987002 -1.1237241 -1.4558632 -0.060023498 0.16403662 -0.3530627 0.42636812 -0.7601951 0.6188545 -0.7537216 0.21718736 0.057320822 -0.33551982 0.58191377 1.4722766 0.2375563 0.07687386 0.51827776 -0.50223273 0.5662748
马上 0.27036253 -0.018268295 0.8743951 0.20451608 0.035502344 0.17458679 -0.52605915 -0.23799472 -0.29882675 0.23538421 -0.86641604 -0.70859337 -0.31060436 0.5334366 -0.46971598 0.557292 0.030350719 -0.26325697 -0.25583982 -0.59592485 0.3296527 0.14506248 0.56980246 1.0196453 0.22245222 0.83132786 -0.7459936 0.021326393 -0.2851779 -0.13370939 0.26569247 0.3537457 0.43311095 -0.33260435 -0.21985552 -0.2790788 0.47765413 0.5819163 -0.3358859 -1.1336164 0.17440014 1.0023634 0.8911185 -0.35008043 -0.6418122 0.1336828 0.115200445 -0.020237094 0.6292165 -0.7416243 0.74942464 0.89450383 -0.02217514 0.26376313 -0.9607873 0.20515408 0.47284073 0.53505254 -0.2908316 -0.7077923 -0.890556 -0.040239092 -0.37115902 0.9013813 -0.3573466 0.44894204 0.17501277 0.06161817 0.78770536 1.1403716 0.17937241 0.21311317 -0.38846883 0.69798183 0.62481236 0.14556809 0.882606 -0.1711822 -0.09638904 -0.17732677 -0.6263832 0.039619822 -0.6108105 0.73879397 -0.5858331 -0.3357352 0.46157157 0.6607898 -0.35889652 -0.8323893 -0.15771069 0.78578943 -0.30150986 0.079387926 0.25553077 1.0683542 -0.08184081 0.09502569 -1.0427157 0.0017984024
查查 0.03172096 0.12239589 0.6084245 0.69915885 0.49602047 -0.9762852 0.15033887 -0.17551127 1.1052767 -0.35252708 1.1605796 0.13658287 -0.043230988 0.5546655 0.6475027 1.209541 0.80356556 -1.2106074 -0.10384494 -0.090918265 -0.34609112 1.215972 -1.0523549 1.375369 1.1065592 0.88301 0.23284401 -0.15619105 0.15299404 -0.05289404 -0.5311775 0.08000654 -0.2603383 -0.5659231 -1.0503839 0.42661333 1.5902191 -0.9439802 -1.049661 0.34364703 -0.31253323 -0.4365574 1.0206429 -0.67116433 0.20667048 -1.3223958 -1.1655248 -1.3266897 -0.03504944 2.3955395 -0.98299176 -0.4586262 -1.1456153 0.8512548 -1.2490609 0.02614661 0.12904885 -0.5339541 -0.49708447 0.6128586 -0.16278811 -0.67589754 1.0700605 1.6531572 0.11060117 -0.28215894 -0.37413892 0.041938305 -0.499695 2.3667247 0.35996354 0.29761857 0.075497515 -0.78255475 0.8899689 0.11786912 -0.43000895 -0.23634508 -0.5252289 1.3039019 -0.3067869 -0.20596714 0.5457983 -0.12955928 -1.4480197 1.0474156 0.5072463 1.373679 -0.9761211 -0.24451968 1.2416178 0.24761386 0.61245 1.0100342 0.252299 1.0287225 0.91651773 -0.19456606 -1.2071254 0.9258883
经济 -0.9678233 -0.9794487 0.33606827 -0.8637926 -0.0024375564 -0.21818687 0.98774576 -0.08977105 2.0643325 -1.6500548 0.0010112841 0.34765476 0.4734329 0.18971375 -0.79772884 -0.23929475 -1.1211021 -0.19144261 -1.4835598 -0.3035272 -0.956371 1.0722795 -0.8778972 -0.18927693 -1.6040515 -0.6463642 0.8816113 -1.8830233 0.01801229 1.0389308 0.019606644 0.30953598 1.2567575 -0.4029597 0.5717215 0.09904736 -2.2199428 -0.543357 0.07456028 -0.2401867 0.8281191 0.31544232 -1.881259 -1.1095418 1.4908856 -0.076372616 0.59114677 -0.13677478 1.5822364 -1.6926794 2.0627687 -0.3334186 0.20972809 0.9986624 -0.4307659 0.8689917 -1.6522005 -0.41562438 -0.8240152 -0.606605 0.014521621 0.087034576 -0.5849067 0.08060296 0.08310111 -1.0414044 0.033503413 -0.012674917 -0.26300332 -0.26465517 1.0937696 -0.03718273 0.8094114 -0.10836795 1.0975491 0.46905956 0.7481082 -0.96197486 -1.1876711 -0.6380318 -1.2012409 0.29893565 -0.5482326 0.236124 -1.2176025 -1.4435201 -0.22749874 0.5913173 0.19949101 1.6188694 1.8691365 1.1957273 0.46121535 0.9711593 1.2674719 0.3792773 0.52804947 -0.18079892 -0.7109196 0.023068994
点去 0.88447106 -0.23980565 0.63082117 -1.4533153 -0.23564386 -1.4972385 0.013720655 -0.8941656 3.55231 -0.2594373 1.4338782 0.26154044 -0.031277023 -0.45681748 0.34750304 1.5068179 0.15035738 -2.114039 0.41639957 0.02562284 1.0775976 1.5682765 1.3167135 -0.018735597 -0.3345577 1.1066458 0.48413697 -0.4175156 1.6778044 1.0660896 0.21823487 -0.81282306 -0.14203374 1.6902807 -0.72476274 1.3140694 -0.55841714 -2.2297256 -0.7186221 1.1505744 1.1797239 -2.370933 2.8333912 -1.6687088 1.7244877 -0.8519808 -0.98104715 0.35691062 -1.538605 -0.2753342 -0.59806734 0.3546391 -0.27790296 0.45069396 -1.6922458 0.22928381 1.3905842 -0.1858385 0.33577207 -2.3841484 -0.018243777 1.5689272 -0.26455933 1.328108 1.2563945 0.5029414 0.052103117 1.8487128 -1.2542604 -1.2286049 0.47085005 0.3953678 -1.0233042 0.41658947 2.4824698 0.4477751 -0.45535082 0.42614242 0.06558152 1.8342949 -0.20168328 -1.3208823 -0.85018545 2.0302715 1.4151453 -1.1407918 2.0556185 2.199498 -1.2588084 -3.214592 -0.16417505 -0.5084895 -0.42456767 -0.08742371 0.13826784 2.016282 0.18343423 -1.7381094 -0.044657104 -0.37842348
年代 2.1766162 1.271149 0.4727364 -0.03843434 0.9627475 0.1333198 -0.6906843 3.7625628 -1.3212891 -0.64258784 -2.003767 -1.5750163 -1.4206159 1.5016205 0.092327 -0.24463479 -0.89927655 0.36092392 1.5686414 0.14649083 -0.85551476 -2.1696684 1.1578817 -1.5327034 0.05154802 0.7473465 1.2531515 -0.33997917 -1.2391549 0.5145311 0.0011861674 -1.281724 0.98214996 0.250505 0.61353564 0.2502326 2.2994723 -1.8862481 -0.20106372 0.50600123 -1.6196175 0.7861144 -1.1664913 -0.9069138 -0.7543403 0.06042498 0.27333134 1.5600003 -0.039466828 0.08454912 0.7731598 -0.94685733 2.1094677 -1.8277743 0.75739145 0.29428333 0.66449475 -0.24094054 0.73794174 -1.0644839 0.42760634 0.77312636 -0.14851888 -1.1745911 -2.6168606 -0.70166445 -1.4904213 0.9791481 -2.5128148 2.0669608 0.9564302 -1.0020641 -0.11430564 -0.5124314 -0.13478921 -0.33802217 -0.77965087 1.9238755 0.27325013 -1.4114691 1.9844533 -1.899243 -2.2909796 0.6920912 -0.23105167 -0.59993345 0.84436953 -0.9833189 1.5815876 0.8927162 1.0884352 -0.7692136 -0.37806818 1.3090988 1.8648311 0.30592886 -1.2200031 -2.3315818 0.19095592 -0.7958124
下雨 -0.41165176 -0.240736 0.9679434 -1.1980716 0.17507282 0.774034 1.2291802 0.5260168 1.9737836 -0.12444244 0.8047452 -0.73509055 0.2788906 1.3994367 0.06357073 0.80513847 -0.20584263 -0.6126451 -0.1563306 -0.7295134 1.5034981 0.07556248 -0.9578901 1.3548865 -0.38945386 -0.21820827 0.37991068 -1.305784 0.47140005 1.755455 0.13356858 -0.00824304 0.11397129 -0.2449693 0.15601842 0.463083 -0.059506394 -0.63281894 -0.029613791 -0.744036 -0.25751218 -0.71275085 -0.6025435 0.358435 0.39172164 -0.2950799 0.5482543 0.28393298 -0.12182295 0.18690555 -0.6261064 0.7846899 -0.2579172 -0.3142528 -0.85010415 0.48796687 0.37655276 0.3512366 -0.041199695 1.1748252 0.50295466 -0.2878002 0.17568853 -0.13826306 -0.4776309 0.21759662 0.107560046 0.81614137 -0.30947438 0.18631895 -0.22115001 0.5475835 -0.38307145 0.9314287 0.649926 -0.5331788 0.3636022 0.27715257 -0.80547893 0.87045103 0.34697604 0.22953455 0.06398894 0.47696698 -0.11115982 -0.8872419 -0.17838559 1.8346949 -0.29079446 -0.81799567 0.82198685 0.45887673 0.5059523 0.5223337 -0.055202443 0.583584 0.35392016 -0.5350229 0.6088066 0.5590588
20 0.98910403 -0.6584286 0.8687908 -0.74802625 -0.9053882 0.07414097 1.0064708 0.49216938 -0.813475 -1.3673136 -0.0047541102 0.116697356 0.50685096 -0.35654426 -0.62428135 -0.6811711 -0.05408821 0.081093855 1.1780479 -0.3550585 1.280746 -0.024489578 -0.019465053 -0.5337107 -0.060927574 0.6144745 0.091446795 -1.6867869 0.4724613 0.62936956 -1.041017 -0.33850506 -0.34266856 -0.65740144 0.29913148 -0.9389315 -0.21412887 0.9499391 0.46474913 -0.99716604 0.5168812 0.66032094 1.5737903 1.4509743 0.44451037 -1.5598569 0.26175645 0.16265501 0.09595472 -0.82248956 -0.99786127 0.48215404 0.69656104 0.6272728 -0.40329382 -1.0905789 0.7272367 0.68358994 0.4380346 -0.3430945 0.6542502 0.58783793 0.29275903 0.5739124 -1.1900175 0.8107198 1.3384651 1.0891299 -0.26896614 0.7967162 -0.88192624 1.4432116 -0.5602531 -0.5071599 0.33033264 -0.2557894 0.13764565 -0.717653 0.09027918 1.4839214 -0.2743451 0.28616425 -1.1732577 0.4150334 0.19247487 -1.2197093 -0.53876454 0.4885364 0.76052576 0.03771708 -1.9951206 0.20271099 0.6636994 -0.19269983 -1.1566627 0.7979198 1.5710899 0.12081033 -1.50608 0.1545315
九 -1.2036103 0.79566175 -0.25844127 -0.27279997 0.43732303 0.5390342 1.0490581 -0.13654962 0.123251215 -1.295155 -0.17790508 0.19265655 -0.44010466 0.7905308 -0.6856213 0.4193464 1.5636235 -0.10801479 0.045309305 -1.6138469 -0.5699897 1.7949377 -1.1201046 -0.10249476 -1.3571391 -2.1610715 0.7675839 -1.1685526 0.21414939 0.6163212 1.7144176 1.775845 -0.20230727 -0.81042075 -1.1025418 0.7098068 -0.9642376 -0.8993151 0.35160008 -2.1004882 -0.9590045 1.7753745 -0.23497406 -0.8694824 -0.8627373 -1.8108898 -0.42024946 -0.17997889 0.46248102 -0.67093897 3.6405025 -1.1774633 0.4676527 1.7589188 -2.3596807 1.7910894 -0.34898034 0.2617427 -0.94939774 -0.58397794 0.24236657 0.6437074 -0.516174 -0.13832013 -0.6950906 -1.1142317 -0.6516536 0.956566 0.74035096 0.0010049777 2.5136905 0.19061188 0.20818576 0.33166742 0.9304536 -0.8161666 0.60547125 1.7797633 -2.0891173 -0.4471158 -0.788445 1.0020746 0.309338 -0.7198699 -1.8311293 0.20932482 0.08324355 -0.04402687 1.9637017 0.9497785 2.5069675 1.1061182 -0.5768189 -0.32384625 0.51429063 -0.60773206 1.2534925 0.85797757 0.10600922 0.79372686
找到 0.8414222 -0.06946105 -0.07172372 -0.14764255 -0.17751293 -1.3941176 -0.76418585 -0.5122719 0.1802941 0.9268415 -0.22874442 0.91791743 -0.89758825 -0.36579403 1.1360418 -0.10889807 0.31938356 -0.21380651 0.08442284 -1.7920427 -0.40800267 -0.04781593 -0.6578605 -0.26941466 -0.08897311 -0.69524086 0.28411996 -0.7226858 -0.2934814 -0.5804214 -0.580119 0.2633144 0.46562657 -0.7206856 -0.13789925 -1.0585947 -0.041540526 -0.98078066 -0.20577101 0.71321523 0.2508127 -0.39339557 -0.4165078 0.20881242 1.0392699 -0.06624583 0.06290751 -0.7227405 0.46709532 1.1114246 0.30191 0.24041022 0.123816475 -0.96467924 -0.4312872 -1.3347449 -0.47547054 -0.47009444 -1.1144639 0.26764166 0.1427232 0.37387058 0.214795 1.488584 0.1260917 0.44980738 0.1676652 1.0390835 -1.391632 -0.49858686 0.39507875 -0.7647275 0.12553929 -0.73452747 -0.05675151 0.092330284 -0.24213521 0.90232205 -0.22470523 0.41867802 -0.8791768 -0.712433 0.25567093 0.577922 0.5949503 -0.08928351 0.61433494 0.6621858 0.1822153 0.67154753 0.98275614 0.40714017 0.31375545 1.0124849 -0.014204718 -0.20681137 -0.51191443 1.5979077 -1.0008622 0.87906075
主演 0.6573303 1.2598133 -0.37213305 1.176316 -0.49812287 -0.21217729 -0.24070004 1.6308864 -2.5186172 1.2292585 0.435294 -0.37948585 -0.103090264 -0.6479763 -0.4141681 -0.39492399 -0.10027712 0.0071478626 0.8682056 -2.05945 0.089974605 1.0228109 0.91770595 -0.101627916 0.42640328 1.223428 0.34651285 -0.3556615 -0.42025864 -0.3862243 -0.021645697 1.0032854 1.999928 0.05131867 1.6340226 0.96268207 1.2127373 -1.5550375 0.5395296 -1.4354719 -0.18391666 0.8513488 0.021536637 -1.2510805 -0.55310386 -0.14042197 -0.3487976 1.0311761 0.8593494 0.25796404 -0.16441846 0.4069861 -0.86081314 -0.014793188 1.6213856 -0.39261132 -0.34264067 0.18584293 0.15338933 -0.93566304 -0.7745559 1.7910066 -0.8761546 0.61836815 0.5500107 -0.25944623 -0.24212122 -0.6174179 -0.052382894 0.6689233 -0.14175124 -0.021829603 1.2062918 -0.045759935 0.23635799 0.07048909 1.017975 -0.32385096 0.48704532 0.90090704 -0.74113727 0.52534044 -0.9701156 1.6461166 0.022548918 0.11261312 0.42025656 -0.22546376 1.0630144 -0.21739827 0.33018234 0.7363037 -0.05596279 0.29663748 0.9926858 -0.11999039 -0.21254148 -1.668133 -0.06058452 0.008040123
专辑 1.722376 0.5954363 -0.11584925 0.33903146 -0.59790325 -1.2962677 -0.40497133 1.9877193 0.19158776 0.12862717 -0.1569676 -0.43716392 0.8872011 0.62899536 -1.416907 -0.62856096 1.3099172 -0.6461055 -0.08204862 -1.0272168 -0.6786668 -0.9026907 -0.31342316 -1.15468 -0.61982334 -0.24790363 -1.0905789 0.315111 -0.07937891 0.072975904 0.0897936 -0.7317306 0.28877422 -0.62679076 -0.46338537 0.73469836 0.84643847 -1.5143452 0.14142202 -1.0484084 0.82711416 -0.86376053 0.8367872 0.38044626 1.5207188 0.18917175 -0.10911452 -0.71636724 -0.42063093 -0.13730487 -0.9473022 -0.46436417 -0.01771079 -1.5050422 0.15808281 -1.2253454 0.49225175 -0.65091777 -1.4276719 0.14940907 -0.16029343 -0.84067184 0.22840583 0.35070258 0.21887706 0.8499054 1.0533841 -0.037691064 0.045809872 1.042155 -0.69197327 -1.3126316 0.23599805 1.7075331 -0.9172762 -1.2028704 0.3575192 -0.31008565 -0.3526226 -0.020531874 -0.19423926 0.88755697 -1.4671581 0.97955 0.66644675 0.2784043 0.46668842 -0.38880056 0.9687724 0.86803055 0.41262555 -1.14255 0.45057732 -0.04983805 0.02131667 -0.0024857498 -1.1017481 0.092624955 -0.56609344 0.05241801
查 -0.43015686 -0.44702742 0.83824646 -0.7849704 0.9690053 0.008013516 -1.1505916 0.7431295 1.082854 0.0481551 0.21745063 0.801603 -0.17819323 -0.34076926 1.1261853 0.2905047 0.47208905 -1.0513694 0.991755 -0.27926055 0.6527615 0.2561417 -0.9504646 0.8885506 0.42693824 0.08712108 0.15005259 -0.25706646 -0.3545598 1.0571837 0.065602355 0.20255493 -1.0873747 -0.74040556 -0.47351453 0.07036092 -0.09089527 -1.185709 -0.47099128 0.40901497 0.5057532 -0.41506425 0.9585544 0.079554684 0.7815717 -0.43986383 -0.3808531 -0.8381161 0.5598041 1.2504001 -0.2589964 0.14334607 -0.8071583 0.051722232 -1.5093254 0.17353034 -0.104324654 0.07943714 -0.05915393 -0.1748269 0.69481045 0.48180586 -0.2591955 1.0242751 0.5716556 0.3454002 -0.20879976 -0.27579808 -0.30952376 0.11765402 -0.5571384 0.6960903 -0.22999394 -0.76365453 0.05828817 -0.30041543 0.6426537 0.2543472 -0.021838097 0.6357781 -0.09843562 -0.86101276 0.66492313 0.8705512 -0.9680849 0.4952316 -0.5181568 0.4991833 -1.0624758 -0.37444523 0.70324135 0.28710726 -0.2990297 0.08312228 -0.14154422 0.88779014 1.262224 -0.29200146 -1.0550826 0.0346522
30 0.40215927 -0.50036585 0.9832062 -0.45451495 -0.059702028 0.14097102 -0.026598288 0.35397857 -0.25782746 -1.7378858 -0.12026653 0.034234386 -0.23181242 0.009670557 -0.8645637 -0.3312216 0.73102576 -0.0013238281 0.27743727 -0.003363681 0.76067907 0.32019797 0.081222326 -1.4124075 -0.6692792 0.56742084 0.42394555 -0.8646718 0.51322806 0.7690586 -0.72704124 -0.26867113 0.06967353 -0.39131647 0.3961834 -0.12811676 0.3530914 0.5021841 -0.5356864 0.415751 1.6163919 0.33008638 1.5272373 0.33128136 1.0993031 -0.33819294 0.45116434 1.1584802 0.31578368 -0.30345473 -0.9302417 0.7410219 0.04637368 0.8993656 -1.5600519 -1.0317482 0.07459629 0.46376264 0.30546454 -0.10454135 0.22403577 1.0291775 -0.41225457 0.7977865 -0.60361516 0.055602785 0.7641852 1.362858 0.47229007 0.6622454 0.40549314 0.29844218 -0.8646725 -0.27023718 0.9100832 0.08563403 0.64816606 0.07201327 0.66442645 -0.13119844 -0.6722223 0.6938426 -1.5498763 -0.28837836 0.032955416 -0.5149013 -0.12611888 0.16703133 0.37938064 -0.5845382 -1.2013035 -0.03897831 -0.00395794 0.13858883 0.05769214 0.3507888 -0.026409404 -1.027772 -0.6109009 0.67120963
路线 -0.8663721 0.9026043 1.4061587 -0.5623071 0.4176803 -2.26398 0.81036067 -1.4835962 1.0819196 0.46265942 -0.9602226 -2.201495 -0.16782731 0.2358548 0.46958673 1.4062304 -0.3381371 0.3019783 -0.17100003 -1.2684339 0.6799906 1.9827657 0.47917107 2.9163678 1.3728231 1.7645421 -0.74716806 0.7564824 -0.5966691 0.48212454 -0.36798242 -0.17192358 1.3131448 -0.42047894 -1.2507805 0.17765734 -0.4801377 -0.56479955 -1.0535706 -1.9064116 -1.3135066 -1.0421313 0.07779816 -1.3063476 -0.17494906 -0.97541124 0.061409593 0.76757205 -0.07852005 -0.030902896 -0.28880185 -1.3182294 0.82734954 1.6873294 -1.3623024 1.066207 1.5080243 0.56647885 -0.03804232 -0.67955846 0.28853962 -0.5309259 0.100578114 1.7830225 -1.566043 1.9626142 -0.8337443 0.9279686 -0.96267235 -0.47160462 -0.6855937 1.1766107 0.4261486 0.87199956 -0.016248714 1.452168 -0.41765368 -0.1972566 -1.3555009 -0.102092505 0.61289626 0.3352309 0.99705905 0.5858014 0.35410765 1.4347721 0.20291287 2.0534012 0.13918787 -0.46935475 0.056679796 0.4927103 -1.1641636 1.1989908 1.5150378 1.5888741 -0.9136796 0.36108476 -0.20088103 0.7408587
花絮 2.0535316 0.13760693 -0.24254397 -0.2589001 -0.7741543 0.76992595 1.2534971 0.80881804 -2.1220107 1.191675 1.3449864 -0.86365 -0.52394235 -1.4259253 -0.6230389 -0.20936072 0.21129882 -0.6365005 -0.037946902 -2.5150976 0.5450383 0.71014994 1.6364 0.34729543 0.012402663 0.37225434 1.2480961 -0.8877506 -0.33856001 -1.4175755 -0.5965625 0.8158242 2.091449 -0.071201965 1.0163959 -0.056137726 -0.0040856805 0.27882785 0.816457 -1.0717652 0.8600924 -1.0475748 0.51501423 -0.7510983 -1.5233046 0.7016612 -0.62856185 0.80226576 -0.20008636 0.67416686 -0.37740695 1.016537 -0.2930983 -0.74353117 1.4945124 -0.058766127 -0.008062991 1.7928624 -0.19904661 -0.32586196 -1.547721 0.40295243 0.0058761504 1.385708 -0.34960538 0.17151861 0.83998406 1.6673702 0.58306295 0.927474 -1.8388861 -0.21207704 0.3892439 -0.38335553 -0.15494908 2.178307 0.22682102 -1.56413 0.24982694 1.2737257 -0.5291908 0.8687414 -0.57691294 2.7131336 -0.5653007 0.7121859 -0.5477248 0.8312661 1.6459711 0.99118465 0.23383917 1.2103055 0.49577296 -0.44093913 0.20838489 1.3248483 1.3051846 -0.49744081 0.38647217 -0.6922593
